\data\
ngram 1=102
ngram 2=987
ngram 3=3184
ngram 4=5697
ngram 5=7530

\1-grams:
-4.338895	%	-0.301030
-2.553565	(	-0.549208
-2.553565	)	-0.987411
-3.060141	-	-0.865301
-3.134775	/	-0.477121
-1.376525	</s>	0.000000
-1.376525	<s>	-1.358569
-4.338895	<unk>	0.000000
-4.338895	=	-0.301030
-3.560743	?	-0.477121
-4.338895	A	-0.301030
-4.338895	D	-0.301030
-4.338895	E	-0.301030
-4.338895	G	-0.301030
-4.338895	L	-0.301030
-4.037865	P	-0.301030
-4.037865	S	-0.301030
-4.338895	U	-0.301030
-4.338895	Z	-0.301030
-3.861773	a	-0.397940
-4.338895	c	-0.301030
-4.037865	d	-0.301030
-4.338895	e	-0.301030
-3.736835	g	-0.367977
-3.338895	i	-0.477121
-4.037865	l	-0.477121
-3.736835	n	-0.301030
-4.037865	o	-0.301030
-3.736835	s	-0.367977
-3.736835	t	-0.367977
-4.037865	v	-0.477121
-4.338895	w	-0.301030
-4.338895	y	-0.301030
-1.476763	က	-1.478855
-1.422967	ခ	-1.604637
-2.657653	ဂ	-0.801632
-1.311953	င	-2.184691
-1.649586	စ	-1.347542
-1.937494	ဆ	-1.176091
-4.037865	ဇ	-0.477121
-4.037865	ဈ	-0.477121
-3.037865	ဉ	-1.322219
-1.893290	ည	-1.384712
-3.493797	ဌ	-0.903090
-2.747830	ဏ	-0.817660
-1.667722	တ	-1.330237
-2.100848	ထ	-1.155570
-3.083622	ဒ	-0.552842
-2.923921	ဓ	-0.985277
-1.573972	န	-1.478566
-1.523317	ပ	-1.487524
-2.186606	ဖ	-1.046997
-3.493797	ဗ	-0.522879
-2.705426	ဘ	-0.724276
-1.575467	မ	-1.281601
-2.199015	ယ	-1.065034
-1.676137	ရ	-1.322219
-1.799818	လ	-1.242447
-2.245473	ဝ	-0.942008
-1.637327	သ	-1.359258
-2.876497	ဟ	-0.916454
-1.484589	အ	-1.439040
-3.297502	ဥ	-1.079181
-3.060141	ဦ	-1.021189
-4.037865	ဧ	-0.477121
-2.245473	ါ	-0.857332
-1.328171	ာ	-1.518925
-1.568043	ိ	-1.484300
-2.051093	ီ	-1.049626
-1.415651	ု	-1.421504
-2.317705	ူ	-0.814668
-1.384170	ေ	-1.536184
-2.248989	ဲ	-0.893947
-4.037865	ဵ	-0.301030
-2.029264	ံ	-0.932248
-1.753434	့	-1.286307
-1.104884	း	-1.652717
-2.833745	္	-0.658541
-0.908014	်	-1.824650
-1.835104	ျ	-1.229170
-1.395400	ြ	-1.611820
-1.841965	ွ	-1.470491
-1.705426	ှ	-1.331957
-4.037865	ဿ	-0.477121
-3.060141	၀	-0.759668
-3.297502	၁	-0.574031
-3.435805	၂	-0.477121
-3.493797	၃	-0.439333
-4.037865	၄	-0.301030
-3.493797	၅	-0.522879
-4.037865	၆	-0.301030
-4.037865	၇	-0.301030
-4.338895	၈	-0.301030
-4.338895	၉	-0.301030
-3.224951	၊	-0.455932
-3.435805	။	-0.564271
-3.736835	၍	-0.301030
-3.639925	၏	-0.352183
-4.338895	℃	-0.301030
-3.639925	→	-0.425969
-4.338895	（	-0.301030
-4.338895	）	-0.301030

\2-grams:
-0.301030	% ရ	-0.301030
-1.929419	( d	-0.301030
-1.929419	( v	-0.301030
-1.929419	( က	-0.301030
-1.230449	( စ	-0.352183
-1.452298	( ဆ	-0.397940
-1.452298	( ည	-0.602060
-1.452298	( တ	-0.397940
-1.929419	( ဒ	-0.301030
-1.929419	( န	-0.301030
-1.452298	( ပ	-0.397940
-1.327359	( မ	-0.367977
-1.929419	( ယ	-0.301030
-1.452298	( ရ	-0.397940
-1.929419	( လ	-0.301030
-1.628389	( ဝ	-0.477121
-1.628389	( သ	-0.301030
-0.698970	( အ	-0.460731
-1.628389	( ၁	-0.477121
-1.628389	( ၂	-0.477121
-1.929419	( ၃	-0.301030
-1.929419	( ၄	-0.301030
-1.929419	( ၅	-0.301030
-1.929419	( ၆	-0.301030
-1.929419	( ၇	-0.301030
-0.124939	) </s>	0.000000
-1.531479	) စ	-0.301030
-1.832509	) ဒ	-0.301030
-1.832509	) ပ	-0.301030
-1.832509	) မ	-0.301030
-1.230449	) အ	-0.367977
-1.832509	) ၏	-0.301030
-0.740363	- က	-0.477121
-1.342423	- န	-0.301030
-0.196295	- အ	-0.653213
-1.380211	/ က	-0.301030
-1.380211	/ စ	-0.301030
-0.903090	/ ထ	-0.602060
-1.380211	/ န	-0.301030
-1.079181	/ ပ	-0.301030
-0.778151	/ မ	-0.301030
-1.079181	/ လ	-0.301030
-1.079181	/ အ	-0.301030
-2.136721	<s> (	-0.301030
-2.981819	<s> A	-0.301030
-2.981819	<s> P	-0.301030
-2.981819	<s> S	-0.301030
-1.155744	<s> က	-0.818446
-1.463305	<s> ခ	-0.756962
-1.902637	<s> ဂ	-0.531479
-2.680789	<s> င	-0.301030
-1.450340	<s> စ	-0.558155
-1.241456	<s> ဆ	-0.896251
-2.680789	<s> ဈ	-0.477121
-1.940426	<s> ည	-0.505150
-1.476669	<s> တ	-0.801632
-1.777699	<s> ထ	-0.564271
-2.379759	<s> ဒ	-0.367977
-2.981819	<s> ဓ	-0.301030
-1.274248	<s> န	-0.750999
-1.155744	<s> ပ	-0.762357
-1.867875	<s> ဖ	-0.556303
-2.680789	<s> ဗ	-0.477121
-1.940426	<s> ဘ	-0.574031
-1.265815	<s> မ	-0.628389
-2.680789	<s> ယ	-0.301030
-1.309721	<s> ရ	-0.887296
-1.182478	<s> လ	-0.766870
-1.902637	<s> ဝ	-0.698970
-1.168905	<s> သ	-0.704365
-0.639396	<s> အ	-1.023878
-2.203667	<s> ဦ	-0.845098
-2.981819	<s> ဧ	-0.301030
-2.981819	<s> ှ	-0.301030
-2.981819	<s> ၀	-0.301030
-2.282849	<s> ၁	-0.544068
-2.282849	<s> ၂	-0.425969
-2.203667	<s> ၃	-0.477121
-2.981819	<s> ၄	-0.301030
-2.680789	<s> ၅	-0.477121
-2.981819	<s> ၆	-0.301030
-2.981819	<s> ၇	-0.301030
-2.981819	<s> ၈	-0.301030
-2.981819	<s> ၉	-0.301030
-2.981819	<s> →	-0.301030
-0.301030	= က	-0.301030
-0.954243	? (	-0.301030
-0.954243	? )	-0.301030
-0.352183	? </s>	0.000000
-0.301030	A D	-0.301030
-0.301030	D L	-0.301030
-0.301030	E G	-0.301030
-0.301030	G ပ	-0.301030
-0.301030	L လ	-0.301030
-0.602060	P </s>	0.000000
-0.602060	P E	-0.301030
-0.602060	S P	-0.301030
-0.602060	S S	-0.301030
-0.301030	U n	-0.301030
-0.301030	Z a	-0.301030
-0.397940	a l	-0.477121
-0.698970	a w	-0.301030
-0.301030	c o	-0.301030
-0.602060	d e	-0.301030
-0.602060	d i	-0.301030
-0.301030	e သ	-0.301030
-0.845098	g i	-0.301030
-0.544068	g n	-0.301030
-0.845098	g y	-0.301030
-1.176091	i c	-0.301030
-0.698970	i g	-0.397940
-1.176091	i o	-0.301030
-0.574031	i t	-0.367977
-1.176091	i သ	-0.301030
-0.176091	l s	-0.477121
-0.903090	n )	-0.301030
-0.903090	n i	-0.301030
-0.903090	n s	-0.301030
-0.903090	n သ	-0.301030
-0.602060	o d	-0.301030
-0.602060	o ဆ	-0.301030
-0.845098	s )	-0.301030
-0.544068	s i	-0.477121
-0.845098	s ိ	-0.301030
-0.544068	t a	-0.477121
-0.845098	t i	-0.301030
-0.845098	t s	-0.301030
-0.176091	v i	-0.477121
-0.301030	w g	-0.301030
-0.301030	y i	-0.301030
-2.876795	က </s>	0.000000
-2.876795	က င	-0.301030
-1.835402	က စ	-1.079181
-2.098644	က တ	-0.845098
-2.177825	က န	-0.352183
-1.646346	က ပ	-1.255273
-2.876795	က ဗ	-0.301030
-2.876795	က ဘ	-0.301030
-2.575765	က ယ	-0.477121
-2.876795	က လ	-0.301030
-2.575765	က ဟ	-0.477121
-2.876795	က အ	-0.301030
-1.700704	က ာ	-0.676694
-0.984700	က ိ	-1.311754
-2.876795	က ီ	-0.301030
-1.253546	က ု	-0.973128
-1.496584	က ူ	-0.698970
-1.534372	က ေ	-1.079181
-2.399674	က ံ	-0.602060
-2.876795	က း	-0.301030
-1.835402	က ္	-0.812913
-0.359599	က ်	-1.202884
-1.063882	က ျ	-0.751499
-0.979168	က ြ	-0.912850
-1.922552	က ွ	-0.447158
-2.148705	ခ က	-0.602060
-2.625827	ခ ခ	-0.477121
-1.722737	ခ င	-0.954243
-2.227887	ခ ဏ	-0.778151
-2.625827	ခ ဒ	-0.477121
-1.358655	ခ န	-1.124939
-2.926857	ခ ပ	-0.301030
-2.625827	ခ မ	-0.477121
-2.227887	ခ ရ	-0.352183
-2.926857	ခ အ	-0.301030
-1.671584	ခ ါ	-0.511883
-1.722737	ခ ိ	-1.230449
-2.227887	ခ ု	-0.352183
-1.625827	ခ ေ	-1.041393
-2.081759	ခ ဲ	-0.439333
-2.625827	ခ ဵ	-0.301030
-1.464459	ခ ံ	-0.665112
-2.926857	ခ ်	-0.301030
-0.847675	ခ ျ	-1.113943
-0.210853	ခ ြ	-2.117271
-1.972614	ခ ွ	-0.602060
-0.609747	ဂ ဏ	-1.176091
-1.755875	ဂ ရ	-0.301030
-1.454845	ဂ လ	-0.477121
-0.801632	ဂ ါ	-0.511883
-1.454845	ဂ ိ	-0.301030
-1.454845	ဂ ု	-0.477121
-1.755875	ဂ ေ	-0.301030
-0.801632	ဂ ျ	-0.447158
-0.852785	ဂ ွ	-0.954243
-2.251638	င ယ	-0.845098
-3.029789	င ိ	-0.301030
-1.012756	င ့	-2.021189
-2.728759	င း	-0.477121
-0.054358	င ်	-1.606113
-3.029789	င ြ	-0.301030
-2.330819	င ွ	-0.778151
-1.277906	စ က	-0.889302
-1.806180	စ င	-0.954243
-1.595327	စ စ	-0.875061
-1.430516	စ ဉ	-1.301030
-1.806180	စ ည	-0.954243
-2.232149	စ တ	-0.397940
-2.709270	စ န	-0.301030
-2.232149	စ ပ	-0.301030
-2.107210	စ မ	-0.367977
-2.709270	စ သ	-0.301030
-2.709270	စ အ	-0.301030
-1.709270	စ ဥ	-1.041393
-0.648572	စ ာ	-0.964462
-1.190756	စ ိ	-1.079181
-1.056057	စ ီ	-0.778151
-1.262112	စ ု	-0.613959
-2.709270	စ ူ	-0.301030
-1.262112	စ ေ	-0.903090
-1.667877	စ ံ	-0.375664
-2.408240	စ း	-0.301030
-2.232149	စ ္	-0.602060
-0.696433	စ ်	-0.848732
-1.366847	စ ွ	-0.732394
-2.431364	ဆ </s>	0.000000
-2.431364	ဆ n	-0.301030
-1.954243	ဆ က	-0.602060
-0.968966	ဆ င	-1.190332
-2.130334	ဆ စ	-0.477121
-2.431364	ဆ ည	-0.301030
-2.130334	ဆ ထ	-0.477121
-1.431364	ဆ န	-0.636822
-2.431364	ဆ ယ	-0.301030
-1.586266	ဆ ရ	-0.903090
-2.130334	ဆ ာ	-0.301030
-1.051153	ဆ ိ	-1.113943
-0.926214	ဆ ီ	-0.954243
-1.255273	ဆ ု	-0.676694
-1.954243	ဆ ူ	-0.602060
-0.410174	ဆ ေ	-1.556303
-1.829304	ဆ ံ	-0.698970
-1.431364	ဆ ွ	-0.778151
-0.176091	ဇ ယ	-0.301030
-0.176091	ဈ ေ	-0.477121
-0.021189	ဉ ်	-0.449969
-2.463893	ည </s>	0.000000
-1.287802	ည စ	-1.204120
-1.986772	ည မ	-0.397940
-2.463893	ည ရ	-0.301030
-1.509650	ည အ	-1.000000
-1.861833	ည ာ	-0.367977
-2.463893	ည ိ	-0.301030
-1.208620	ည ီ	-0.552842
-0.434509	ည ့	-2.033424
-0.426466	ည ်	-0.828456
-1.861833	ည ွ	-0.698970
-1.618795	ည ှ	-0.439333
-0.057992	ဌ ာ	-0.903090
-1.662758	ဏ )	-0.301030
-0.548814	ဏ </s>	0.000000
-0.516630	ဏ န	-1.176091
-1.662758	ဏ မ	-0.301030
-1.662758	ဏ အ	-0.301030
-0.963788	ဏ ာ	-0.425969
-1.060698	ဏ ်	-0.477121
-1.515874	တ က	-0.929419
-2.691965	တ ခ	-0.301030
-1.461516	တ င	-1.255273
-1.173451	တ စ	-1.243038
-2.390935	တ ဆ	-0.477121
-1.612784	တ ည	-0.845098
-1.650572	တ န	-1.079181
-1.846867	တ ပ	-0.653213
-1.461516	တ မ	-0.977724
-2.691965	တ ယ	-0.301030
-2.390935	တ ရ	-0.477121
-1.545837	တ ာ	-0.380211
-1.229567	တ ိ	-0.765917
-1.846867	တ ီ	-0.653213
-1.650572	တ ု	-0.812913
-2.691965	တ ူ	-0.301030
-1.515874	တ ေ	-1.204120
-2.214844	တ ဲ	-0.602060
-2.089905	တ ံ	-0.367977
-2.691965	တ း	-0.301030
-2.214844	တ ္	-0.602060
-0.363585	တ ်	-1.028645
-0.992995	တ ွ	-1.130334
-2.269513	ထ က	-0.301030
-1.968483	ထ ခ	-0.477121
-2.269513	ထ စ	-0.301030
-0.738034	ထ ည	-1.255273
-1.792392	ထ ပ	-0.602060
-1.424415	ထ မ	-0.522879
-0.701311	ထ ာ	-1.579784
-0.792392	ထ ိ	-0.845098
-1.228120	ထ ု	-0.812913
-1.315270	ထ ူ	-0.602060
-1.093422	ထ ေ	-1.204120
-1.570543	ထ ဲ	-0.425969
-1.014240	ထ ွ	-1.000000
-1.397940	ဒ </s>	0.000000
-1.096910	ဒ ဏ	-0.477121
-1.397940	ဒ အ	-0.301030
-0.698970	ဒ ါ	-0.544068
-0.698970	ဒ ိ	-0.544068
-1.096910	ဒ ီ	-0.301030
-1.096910	ဒ ေ	-0.477121
-0.684247	ဓ ါ	-0.845098
-0.231949	ဓ ာ	-0.720159
-0.985277	ဓ ိ	-0.602060
-1.934498	န </s>	0.000000
-2.302475	န က	-0.602060
-2.478566	န င	-0.477121
-2.177536	န စ	-0.698970
-1.417869	န ည	-1.380211
-2.478566	န ပ	-0.477121
-2.779596	န မ	-0.301030
-2.001445	န ယ	-0.845098
-2.478566	န ဦ	-0.477121
-1.211395	န ာ	-0.708515
-1.332438	န ိ	-1.462398
-1.825354	န ီ	-0.602060
-2.478566	န ု	-0.477121
-0.987205	န ေ	-0.687975
-2.478566	န ံ	-0.301030
-1.080626	န ့	-1.707570
-1.738204	န ္	-0.812913
-0.374763	န ်	-1.080752
-1.738204	န ွ	-0.669007
-0.960053	န ှ	-1.018225
-2.829947	ပ က	-0.301030
-1.984849	ပ င	-0.903090
-2.130977	ပ စ	-0.544068
-2.352825	ပ ည	-0.602060
-1.551193	ပ တ	-1.301030
-2.829947	ပ ထ	-0.301030
-1.788554	ပ န	-1.079181
-1.625827	ပ မ	-1.230449
-2.352825	ပ လ	-0.301030
-2.528917	ပ သ	-0.477121
-1.298468	ပ ါ	-0.643453
-1.250163	ပ ိ	-1.135663
-1.217163	ပ ု	-1.332438
-2.051795	ပ ူ	-0.397940
-1.044617	ပ ေ	-1.210853
-2.528917	ပ ဲ	-0.301030
-1.984849	ပ ံ	-0.903090
-2.528917	ပ ္	-0.301030
-0.625827	ပ ်	-1.017524
-1.788554	ပ ျ	-0.574031
-0.548913	ပ ြ	-1.064874
-1.311433	ပ ွ	-0.880814
-1.414973	ဖ က	-0.845098
-1.892095	ဖ တ	-0.477121
-1.892095	ဖ န	-0.477121
-2.193125	ဖ ရ	-0.301030
-1.892095	ဖ ာ	-0.477121
-0.989005	ဖ ိ	-0.698970
-1.716003	ဖ ီ	-0.397940
-1.591065	ဖ ု	-0.477121
-1.892095	ဖ ူ	-0.301030
-0.870905	ဖ ေ	-1.342423
-2.193125	ဖ ်	-0.301030
-1.290035	ဖ ျ	-0.564271
-0.354276	ဖ ြ	-1.035716
-1.494155	ဖ ွ	-0.425969
-0.698970	ဗ မ	-0.477121
-0.397940	ဗ ိ	-0.698970
-1.000000	ဗ ျ	-0.301030
-1.724276	ဘ က	-0.301030
-1.025306	ဘ ယ	-0.778151
-1.724276	ဘ ရ	-0.301030
-0.682883	ဘ ာ	-0.669007
-1.724276	ဘ ိ	-0.301030
-0.724276	ဘ ီ	-0.477121
-1.724276	ဘ ု	-0.301030
-0.724276	ဘ ေ	-1.041393
-1.724276	ဘ ဲ	-0.301030
-1.423246	ဘ ွ	-0.477121
-2.008600	မ က	-0.397940
-2.485721	မ ခ	-0.477121
-2.309630	မ င	-0.602060
-1.941653	မ စ	-0.653213
-2.309630	မ ဆ	-0.397940
-1.707570	မ ည	-0.698970
-2.008600	မ တ	-0.477121
-2.008600	မ ထ	-0.602060
-2.309630	မ န	-0.397940
-1.786751	မ ပ	-0.636822
-2.087781	မ ဖ	-0.544068
-2.485721	မ မ	-0.301030
-1.531479	မ ရ	-0.662758
-2.485721	မ လ	-0.301030
-2.087781	မ သ	-0.352183
-1.582631	မ ဟ	-1.230449
-2.309630	မ အ	-0.397940
-2.786751	မ ဦ	-0.301030
-1.295390	မ ာ	-0.857332
-1.406540	မ ိ	-0.564271
-1.582631	မ ီ	-0.564271
-1.832509	မ ု	-0.602060
-2.184691	မ ူ	-0.367977
-2.087781	မ ေ	-0.425969
-2.184691	မ ံ	-0.477121
-2.786751	မ ့	-0.301030
-2.786751	မ း	-0.301030
-0.703966	မ ်	-1.013161
-0.905938	မ ျ	-1.301030
-1.556303	မ ြ	-0.535113
-2.309630	မ ွ	-0.397940
-0.588094	မ ှ	-1.225309
-1.701856	ယ က	-0.602060
-2.178977	ယ စ	-0.301030
-2.178977	ယ န	-0.301030
-1.877947	ယ ပ	-0.301030
-2.178977	ယ မ	-0.301030
-0.877947	ယ ာ	-0.449969
-1.701856	ယ ိ	-0.602060
-1.065034	ယ ူ	-0.726999
-1.877947	ယ ေ	-0.477121
-2.178977	ယ ံ	-0.301030
-2.178977	ယ ့	-0.301030
-0.229587	ယ ်	-0.840942
-2.178977	ယ ွ	-0.301030
-2.206826	ရ </s>	0.000000
-1.984977	ရ က	-0.778151
-2.206826	ရ ခ	-0.397940
-1.570004	ရ င	-0.875061
-2.081887	ရ စ	-0.477121
-2.683947	ရ ဆ	-0.301030
-1.642554	ရ ည	-1.079181
-2.683947	ရ ဓ	-0.301030
-1.570004	ရ န	-1.146128
-1.838849	ရ ပ	-0.653213
-2.683947	ရ ဖ	-0.301030
-1.905796	ရ မ	-0.477121
-2.382917	ရ လ	-0.301030
-1.537819	ရ သ	-0.903090
-0.898617	ရ ာ	-0.704722
-1.507856	ရ ိ	-0.778151
-1.838849	ရ ီ	-0.380211
-1.286007	ရ ု	-0.970037
-0.566676	ရ ေ	-0.988262
-2.683947	ရ ဲ	-0.301030
-2.382917	ရ ံ	-0.301030
-1.206826	ရ ွ	-0.778151
-0.666914	ရ ှ	-1.056905
-2.564666	လ </s>	0.000000
-0.996464	လ က	-1.290035
-1.865696	လ င	-0.778151
-1.865696	လ စ	-0.425969
-1.360546	လ ည	-1.230449
-2.564666	လ တ	-0.301030
-2.087545	လ န	-0.602060
-1.523273	လ မ	-1.079181
-2.564666	လ ယ	-0.301030
-1.149693	လ ာ	-0.673416
-1.202938	လ ိ	-0.937852
-2.263636	လ ီ	-0.301030
-0.874470	လ ု	-1.238882
-1.865696	လ ူ	-0.544068
-1.102268	လ ေ	-0.665112
-0.941417	လ ဲ	-0.903090
-2.263636	လ ံ	-0.477121
-2.564666	လ ်	-0.301030
-1.184455	လ ျ	-0.954243
-1.661576	လ ွ	-0.477121
-0.824303	လ ှ	-0.851937
-2.146128	ဝ %	-0.301030
-2.146128	ဝ </s>	0.000000
-1.845098	ဝ က	-0.477121
-1.146128	ဝ င	-1.041393
-1.669007	ဝ စ	-0.602060
-0.483370	ဝ တ	-1.672098
-1.000000	ဝ န	-1.176091
-1.845098	ဝ ပ	-0.477121
-0.683730	ဝ မ	-1.190332
-1.845098	ဝ ယ	-0.477121
-2.146128	ဝ ရ	-0.301030
-1.845098	ဝ အ	-0.301030
-1.301030	ဝ ါ	-0.522879
-2.146128	ဝ ိ	-0.301030
-1.845098	ဝ ေ	-0.301030
-2.146128	ဝ ဲ	-0.301030
-1.378563	သ က	-1.079181
-1.766743	သ ခ	-1.000000
-2.022016	သ င	-0.544068
-2.243864	သ စ	-0.602060
-0.851754	သ ည	-1.579784
-1.516866	သ တ	-0.698970
-1.359258	သ န	-0.829304
-2.243864	သ ပ	-0.397940
-2.243864	သ ဘ	-0.397940
-1.490537	သ မ	-0.823909
-2.243864	သ ယ	-0.602060
-2.720986	သ ရ	-0.301030
-1.465713	သ လ	-0.845098
-2.243864	သ သ	-0.602060
-1.229624	သ ာ	-0.581857
-1.229624	သ ိ	-0.942008
-1.766743	သ ီ	-0.397940
-1.229624	သ ု	-0.942008
-1.490537	သ ူ	-0.643453
-0.671768	သ ေ	-1.583577
-1.942834	သ ံ	-0.397940
-2.720986	သ ြ	-0.301030
-0.908072	သ ွ	-1.236789
-0.916454	ဟ င	-0.698970
-1.518514	ဟ န	-0.301030
-0.615424	ဟ ာ	-0.698970
-0.314394	ဟ ု	-1.230449
-2.870404	အ =	-0.301030
-2.870404	အ i	-0.301030
-1.207646	အ က	-0.829304
-0.916161	အ ခ	-1.041393
-2.171434	အ င	-0.778151
-0.845098	အ စ	-1.153815
-1.639955	အ ဆ	-0.720159
-1.829011	အ ည	-0.669007
-1.591650	အ တ	-0.759668
-1.508676	အ ထ	-0.632023
-2.393283	အ ဓ	-0.602060
-1.217191	အ န	-0.870905
-1.439040	အ ပ	-0.640978
-1.791223	အ ဖ	-0.602060
-1.508676	အ မ	-0.684247
-1.302202	အ ရ	-0.672098
-1.365254	အ လ	-0.539269
-1.236935	အ ဝ	-0.982271
-1.217191	အ သ	-0.821186
-2.569374	အ အ	-0.477121
-2.870404	အ ဦ	-0.301030
-1.326336	အ ာ	-0.834633
-1.078012	အ ိ	-1.217484
-2.569374	အ ီ	-0.301030
-2.171434	အ ု	-0.544068
-1.591650	အ ေ	-0.865301
-2.393283	အ ျ	-0.602060
-0.037789	ဥ ်	-0.375664
-1.322219	ဦ ရ	-0.301030
-0.066947	ဦ း	-0.552842
-0.176091	ဧ ည	-0.477121
-1.857332	ါ (	-0.477121
-1.380211	ါ </s>	0.000000
-2.158362	ါ Z	-0.301030
-1.313264	ါ က	-0.522879
-2.158362	ါ ခ	-0.301030
-0.836143	ါ င	-1.342423
-2.158362	ါ ဆ	-0.301030
-2.158362	ါ ဇ	-0.301030
-1.313264	ါ တ	-0.903090
-2.158362	ါ န	-0.301030
-2.158362	ါ ဖ	-0.301030
-1.380211	ါ မ	-0.602060
-1.459392	ါ ရ	-0.425969
-1.380211	ါ ဝ	-0.602060
-0.778151	ါ သ	-0.763428
-1.459392	ါ အ	-0.352183
-2.158362	ါ ဦ	-0.301030
-1.313264	ါ း	-0.380211
-0.857332	ါ ်	-0.425969
-2.158362	ါ ၊	-0.301030
-2.723045	ာ (	-0.301030
-2.245924	ာ )	-0.845098
-2.723045	ာ -	-0.301030
-1.325105	ာ </s>	0.000000
-0.923704	ာ က	-1.278754
-1.380622	ာ ခ	-0.862472
-2.120985	ာ ဂ	-0.954243
-0.927165	ာ င	-1.802774
-1.910132	ာ စ	-0.556303
-2.024075	ာ ဆ	-0.544068
-1.819955	ာ ဏ	-0.698970
-1.768802	ာ တ	-0.602060
-2.120985	ာ ထ	-0.477121
-3.024075	ာ ဒ	-0.301030
-1.877947	ာ န	-0.579784
-1.422015	ာ ပ	-0.698970
-2.422015	ာ ဖ	-0.477121
-3.024075	ာ ဗ	-0.301030
-1.662347	ာ မ	-0.518514
-2.422015	ာ ယ	-0.477121
-1.492596	ာ ရ	-0.494850
-1.877947	ာ လ	-0.439333
-1.701856	ာ ဝ	-0.795880
-1.546954	ာ သ	-0.676694
-2.178977	ာ ဟ	-0.903090
-1.370862	ာ အ	-0.649485
-3.024075	ာ ဧ	-0.301030
-2.024075	ာ ့	-0.385351
-0.549859	ာ း	-1.066060
-1.342834	ာ ်	-0.671386
-3.024075	ာ ၊	-0.301030
-3.024075	ာ ၏	-0.301030
-1.671386	ိ </s>	0.000000
-2.308209	ိ က	-0.397940
-1.581210	ိ ခ	-0.801632
-2.785330	ိ ဂ	-0.301030
-2.484300	ိ စ	-0.301030
-2.785330	ိ ဆ	-0.301030
-1.194265	ိ တ	-1.311754
-2.785330	ိ ထ	-0.301030
-1.029455	ိ န	-1.183270
-1.077760	ိ ပ	-1.049218
-2.086360	ိ ဘ	-0.778151
-1.113232	ိ မ	-1.017033
-2.484300	ိ ယ	-0.477121
-2.086360	ိ ရ	-0.352183
-2.785330	ိ လ	-0.301030
-2.086360	ိ သ	-0.544068
-2.183270	ိ အ	-0.698970
-0.260285	ိ ု	-1.142534
-2.785330	ိ ူ	-0.301030
-2.785330	ိ ှ	-0.301030
-1.726320	ီ (	-0.301030
-1.851258	ီ )	-0.602060
-1.286987	ီ </s>	0.000000
-2.328380	ီ က	-0.301030
-1.124260	ီ ခ	-0.801632
-1.629410	ီ ဂ	-0.778151
-1.214436	ီ စ	-0.628389
-1.851258	ီ ဆ	-0.602060
-1.851258	ီ တ	-0.602060
-1.374137	ီ ပ	-0.397940
-2.027350	ီ ဖ	-0.301030
-1.374137	ီ မ	-0.447158
-2.328380	ီ ယ	-0.301030
-2.027350	ီ ရ	-0.301030
-1.629410	ီ လ	-0.352183
-1.726320	ီ သ	-0.367977
-1.027350	ီ အ	-0.778151
-0.414566	ီ း	-0.690618
-2.328380	ီ ၊	-0.301030
-2.241048	ု (	-0.301030
-2.638988	ု )	-0.301030
-2.940018	ု /	-0.301030
-1.492860	ု </s>	0.000000
-1.154688	ု က	-0.987411
-1.477620	ု ခ	-0.916454
-2.940018	ု ဂ	-0.301030
-0.980977	ု င	-1.963788
-1.448656	ု စ	-0.734686
-1.898625	ု ဆ	-0.574031
-2.462897	ု ည	-0.301030
-2.638988	ု ဌ	-0.477121
-2.638988	ု ဏ	-0.477121
-1.232448	ု တ	-0.918330
-2.094920	ု ထ	-0.522879
-1.316769	ု န	-1.060698
-1.031533	ု ပ	-1.099385
-2.337958	ု ဖ	-0.367977
-2.638988	ု ဘ	-0.477121
-1.597595	ု မ	-0.669007
-1.542078	ု ယ	-1.130334
-1.617799	ု ရ	-0.653213
-1.525045	ု လ	-0.792392
-2.940018	ု ဝ	-0.301030
-1.348954	ု သ	-0.769008
-1.661265	ု အ	-0.569875
-2.940018	ု ု	-0.301030
-0.829428	ု ံ	-1.009208
-1.462897	ု ့	-0.602060
-1.107509	ု း	-0.794542
-2.940018	ု ၊	-0.301030
-2.940018	ု ၍	-0.301030
-2.940018	ု ၏	-0.301030
-2.093422	ူ )	-0.301030
-1.139179	ူ </s>	0.000000
-2.093422	ူ က	-0.301030
-0.862973	ူ ခ	-0.977724
-2.093422	ူ စ	-0.301030
-2.093422	ူ ဆ	-0.301030
-0.947294	ူ ည	-1.176091
-1.616300	ူ တ	-0.301030
-1.491362	ူ ထ	-0.698970
-0.979478	ူ န	-0.726999
-1.792392	ူ ပ	-0.301030
-2.093422	ူ ဖ	-0.301030
-1.616300	ူ ဘ	-0.602060
-2.093422	ူ မ	-0.301030
-1.616300	ူ ရ	-0.301030
-1.394452	ူ လ	-0.425969
-1.394452	ူ သ	-0.352183
-1.139179	ူ အ	-0.397940
-1.014240	ူ း	-0.397940
-2.666518	ေ (	-0.301030
-2.666518	ေ )	-0.477121
-1.853605	ေ </s>	0.000000
-2.268578	ေ က	-0.425969
-1.552575	ေ ခ	-0.726999
-2.967548	ေ စ	-0.301030
-2.666518	ေ ဆ	-0.301030
-2.365488	ေ တ	-0.477121
-2.013305	ေ ထ	-0.511883
-2.967548	ေ ဒ	-0.301030
-2.189397	ေ ဓ	-0.602060
-2.189397	ေ န	-0.477121
-1.688794	ေ ပ	-0.681241
-2.666518	ေ ဖ	-0.301030
-2.967548	ေ ဘ	-0.301030
-2.189397	ေ မ	-0.602060
-1.763428	ေ ရ	-0.801632
-2.189397	ေ လ	-0.477121
-2.666518	ေ ဝ	-0.301030
-1.821420	ေ သ	-0.522879
-2.967548	ေ ဟ	-0.301030
-1.505150	ေ အ	-0.711204
-2.967548	ေ ဦ	-0.301030
-1.314335	ေ ါ	-1.204120
-0.379837	ေ ာ	-1.288441
-1.211673	ေ ့	-0.731155
-0.590971	ေ း	-1.054913
-2.149219	ဲ /	-0.301030
-1.003091	ဲ </s>	0.000000
-1.547159	ဲ ?	-0.698970
-1.848189	ဲ က	-0.477121
-0.893947	ဲ ခ	-1.000000
-1.672098	ဲ စ	-0.301030
-1.035276	ဲ တ	-0.875061
-1.547159	ဲ ထ	-0.698970
-1.848189	ဲ န	-0.301030
-1.848189	ဲ ပ	-0.477121
-1.672098	ဲ မ	-0.397940
-1.672098	ဲ ရ	-0.397940
-0.751279	ဲ လ	-0.860338
-1.107826	ဲ သ	-0.574031
-1.194977	ဲ အ	-0.397940
-1.450249	ဲ ့	-0.778151
-2.149219	ဲ ၊	-0.301030
-1.672098	ဲ ။	-0.602060
-0.602060	ဵ အ	-0.301030
-0.602060	ဵ ၍	-0.301030
-2.363612	ံ )	-0.301030
-1.322219	ံ </s>	0.000000
-1.761552	ံ က	-0.367977
-1.322219	ံ ခ	-0.669007
-2.363612	ံ ဂ	-0.301030
-1.159492	ံ စ	-0.698970
-1.886491	ံ ဆ	-0.602060
-1.084858	ံ တ	-0.759668
-2.363612	ံ ထ	-0.301030
-2.363612	ံ ဒ	-0.301030
-2.363612	ံ န	-0.301030
-1.363612	ံ ပ	-0.544068
-2.363612	ံ ဖ	-0.301030
-2.062582	ံ ဘ	-0.301030
-1.062582	ံ မ	-0.884607
-1.585461	ံ ယ	-0.845098
-1.664642	ံ ရ	-0.425969
-1.886491	ံ လ	-0.397940
-1.886491	ံ သ	-0.397940
-2.363612	ံ ဟ	-0.301030
-1.761552	ံ အ	-0.301030
-2.363612	ံ ု	-0.301030
-1.363612	ံ ့	-0.544068
-0.571220	ံ း	-0.710399
-2.062582	ံ ှ	-0.477121
-1.761552	ံ ၁	-0.698970
-2.363612	ံ ၂	-0.301030
-1.830375	့ (	-0.477121
-1.705436	့ </s>	0.000000
-1.329772	့ က	-1.021189
-1.830375	့ ခ	-0.602060
-1.705436	့ စ	-0.414973
-1.654284	့ ဆ	-0.602060
-2.307496	့ ည	-0.477121
-2.608526	့ ဌ	-0.301030
-2.307496	့ တ	-0.477121
-2.608526	့ ထ	-0.301030
-2.307496	့ န	-0.301030
-1.462398	့ ပ	-0.753328
-2.608526	့ ဖ	-0.301030
-2.608526	့ ဘ	-0.301030
-1.654284	့ မ	-0.740363
-1.909556	့ ရ	-0.425969
-2.131405	့ လ	-0.301030
-1.909556	့ သ	-0.544068
-1.329772	့ အ	-0.528274
-0.188570	့ ်	-1.094638
-2.608526	့ ျ	-0.301030
-1.766661	း (	-0.519525
-1.901359	း )	-1.361728
-2.067691	း -	-0.778151
-2.164601	း /	-0.397940
-0.510585	း </s>	0.000000
-2.942752	း ?	-0.301030
-1.392524	း က	-0.908485
-0.960481	း ခ	-1.348954
-2.067691	း ဂ	-0.676694
-2.243782	း င	-0.778151
-1.536212	း စ	-0.666785
-1.675580	း ဆ	-0.708515
-2.766661	း ည	-0.397940
-3.243782	း ဌ	-0.301030
-1.652717	း တ	-0.657577
-1.571684	း ထ	-0.755875
-3.243782	း ဒ	-0.301030
-2.465631	း ဓ	-0.602060
-1.620533	း န	-0.845098
-1.257010	း ပ	-0.848958
-1.882054	း ဖ	-0.684247
-2.942752	း ဗ	-0.477121
-2.289539	း ဘ	-0.511883
-1.386449	း မ	-0.740363
-2.398684	း ယ	-0.335792
-1.314363	း ရ	-0.907590
-1.480354	း လ	-0.737315
-2.039662	း ဝ	-0.564271
-1.194564	း သ	-0.982967
-1.380459	း အ	-0.723794
-3.243782	း ဦ	-0.301030
-2.766661	း ့	-0.397940
-3.243782	း ျ	-0.301030
-3.243782	း ၅	-0.301030
-2.398684	း ၊	-0.380211
-2.641722	း ။	-0.477121
-3.243782	း ၏	-0.301030
-2.641722	း →	-0.477121
-3.243782	း （	-0.301030
-0.913814	္ က	-0.544068
-0.767686	္ ခ	-0.653213
-1.612784	္ ဂ	-0.301030
-1.135663	္ စ	-0.602060
-1.612784	္ ဌ	-0.301030
-1.135663	္ တ	-0.301030
-1.311754	္ ဒ	-0.301030
-0.658541	္ ဓ	-1.000000
-1.612784	္ မ	-0.301030
-3.136403	် (	-0.301030
-2.396041	် )	-1.079181
-3.136403	် -	-0.477121
-3.136403	် /	-0.301030
-1.358252	် </s>	0.000000
-3.437433	် v	-0.301030
-1.518355	် က	-0.898542
-0.978041	် ခ	-1.397940
-2.835373	် ဂ	-0.367977
-3.437433	် င	-0.301030
-1.674005	် စ	-0.832509
-1.497914	် ဆ	-0.916454
-3.437433	် ဇ	-0.301030
-2.534343	် ည	-0.367977
-3.136403	် ဌ	-0.477121
-1.568202	် တ	-0.773299
-1.881131	် ထ	-0.788370
-3.437433	် ဒ	-0.301030
-1.652104	် န	-0.851258
-1.258456	် ပ	-1.071356
-1.580101	် ဖ	-0.877685
-3.437433	် ဗ	-0.301030
-2.738463	် ဘ	-0.352183
-1.316860	် မ	-0.920819
-2.057222	် ယ	-0.845098
-1.297554	် ရ	-1.035716
-1.586175	် လ	-0.783291
-2.233313	် ဝ	-0.564271
-1.400007	် သ	-0.943777
-3.136403	် ဟ	-0.301030
-1.163276	် အ	-1.037217
-2.738463	် ဦ	-0.778151
-3.437433	် ာ	-0.301030
-2.592335	် ့	-0.653213
-0.472703	် း	-1.545902
-3.136403	် ္	-0.301030
-2.835373	် ်	-0.367977
-3.437433	် ၊	-0.301030
-3.437433	် ။	-0.301030
-3.136403	် ၍	-0.301030
-3.437433	် ၏	-0.301030
-0.876987	ျ က	-1.662758
-1.752048	ျ ခ	-0.602060
-0.848958	ျ င	-1.397940
-2.530200	ျ စ	-0.301030
-2.530200	ျ ဉ	-0.301030
-2.229170	ျ ထ	-0.477121
-1.928140	ျ န	-0.698970
-2.530200	ျ ပ	-0.301030
-2.530200	ျ မ	-0.301030
-1.685102	ျ ယ	-0.903090
-2.530200	ျ ဥ	-0.301030
-0.759348	ျ ာ	-1.315270
-0.724020	ျ ိ	-1.348954
-2.229170	ျ ီ	-0.301030
-1.831230	ျ ု	-0.544068
-1.928140	ျ ူ	-0.367977
-0.986132	ျ ေ	-0.834633
-2.229170	ျ ဲ	-0.477121
-1.354108	ျ ွ	-0.676694
-1.326080	ျ ှ	-1.230449
-2.653213	ြ က	-0.477121
-2.352183	ြ ခ	-0.698970
-0.227515	ြ င	-2.427324
-1.611820	ြ စ	-1.361728
-1.653213	ြ ည	-1.041393
-2.477121	ြ တ	-0.397940
-2.954243	ြ ထ	-0.301030
-1.462881	ြ န	-1.505150
-2.653213	ြ ပ	-0.477121
-2.477121	ြ မ	-0.397940
-2.653213	ြ ယ	-0.477121
-2.653213	ြ သ	-0.301030
-1.556303	ြ ာ	-1.130334
-1.723794	ြ ိ	-0.823909
-1.556303	ြ ီ	-1.414973
-1.109144	ြ ု	-0.834633
-2.176091	ြ ူ	-0.342423
-0.971971	ြ ေ	-1.066947
-2.477121	ြ ဲ	-0.397940
-2.255273	ြ ွ	-0.544068
-2.352183	ြ ှ	-0.367977
-2.653213	ြ ဿ	-0.477121
-0.967815	ွ က	-1.556303
-0.821687	ွ င	-1.406540
-1.511883	ွ တ	-0.778151
-1.131672	ွ န	-1.113943
-1.397940	ွ မ	-1.146128
-1.557641	ွ ယ	-1.000000
-0.909823	ွ ာ	-0.827000
-0.685809	ွ ေ	-0.850702
-0.812913	ွ ဲ	-0.713210
-2.511883	ွ ွ	-0.301030
-1.307763	ွ ှ	-0.698970
-2.654177	ှ ခ	-0.301030
-0.883325	ှ င	-1.484300
-2.052117	ှ စ	-0.698970
-2.177055	ှ ဆ	-0.397940
-2.052117	ှ ည	-0.477121
-1.222813	ှ တ	-1.447158
-2.654177	ှ ထ	-0.301030
-1.162815	ှ န	-1.217484
-1.955207	ှ ပ	-0.544068
-1.809079	ှ မ	-0.522879
-1.375423	ှ ယ	-1.301030
-2.353147	ှ လ	-0.477121
-2.052117	ှ အ	-0.477121
-1.110108	ှ ာ	-0.730378
-1.052117	ှ ိ	-0.735954
-2.052117	ှ ီ	-0.698970
-0.543587	ှ ု	-0.933904
-1.699934	ှ ူ	-0.359022
-1.063112	ှ ေ	-1.031408
-1.876025	ှ ဲ	-0.602060
-2.654177	ှ ်	-0.301030
-0.176091	ဿ န	-0.477121
-0.759668	၀ စ	-0.698970
-1.361728	၀ မ	-0.301030
-0.407485	၀ ရ	-1.000000
-0.662758	၀ ဝ	-0.425969
-0.875061	၁ )	-0.301030
-0.574031	၁ ပ	-0.698970
-0.574031	၁ ၀	-0.477121
-1.176091	၁ ၅	-0.301030
-0.778151	၂ )	-0.301030
-0.602060	၂ ပ	-0.602060
-0.778151	၂ ၀	-0.301030
-1.079181	၂ ၅	-0.301030
-1.041393	၃ )	-0.301030
-0.564271	၃ ပ	-0.602060
-0.740363	၃ ၀	-0.301030
-1.041393	၃ ၅	-0.301030
-0.602060	၄ )	-0.301030
-0.602060	၄ ၀	-0.301030
-1.000000	၅ )	-0.301030
-1.000000	၅ ဦ	-0.301030
-0.301030	၅ ၀	-0.544068
-0.602060	၆ )	-0.301030
-0.602060	၆ ၀	-0.301030
-0.602060	၇ )	-0.301030
-0.602060	၇ ၀	-0.301030
-0.301030	၈ ၀	-0.301030
-0.301030	၉ ၀	-0.301030
-1.301030	၊ U	-0.301030
-1.301030	၊ စ	-0.301030
-1.301030	၊ ဆ	-0.301030
-1.301030	၊ ည	-0.301030
-1.000000	၊ ဒ	-0.477121
-1.000000	၊ ရ	-0.477121
-0.602060	၊ အ	-0.352183
-0.263241	။ </s>	0.000000
-1.041393	။ စ	-0.301030
-1.041393	။ မ	-0.301030
-0.903090	၍ </s>	0.000000
-0.903090	၍ စ	-0.301030
-0.903090	၍ ဆ	-0.301030
-0.903090	၍ တ	-0.301030
-0.954243	၏ ည	-0.301030
-0.954243	၏ ဒ	-0.301030
-0.954243	၏ န	-0.301030
-0.653213	၏ အ	-0.301030
-0.301030	℃ ）	-0.301030
-0.602060	→ ည	-0.477121
-0.602060	→ ပ	-0.477121
-0.903090	→ အ	-0.301030
-0.301030	（ ℃	-0.301030
-0.301030	） </s>	0.000000

\3-grams:
-0.301030	% ရ ာ	-0.301030
-0.301030	( d i	-0.301030
-0.301030	( v i	-0.301030
-0.301030	( က ီ	-0.301030
-0.954243	( စ င	-0.301030
-0.954243	( စ မ	-0.301030
-0.653213	( စ ီ	-0.477121
-0.954243	( စ ေ	-0.301030
-0.397940	( ဆ န	-0.477121
-0.698970	( ဆ ေ	-0.301030
-0.124939	( ည စ	-0.602060
-0.397940	( တ စ	-0.477121
-0.698970	( တ ု	-0.301030
-0.301030	( ဒ ါ	-0.301030
-0.301030	( န ှ	-0.301030
-0.698970	( ပ မ	-0.301030
-0.397940	( ပ ု	-0.477121
-0.845098	( မ ာ	-0.301030
-0.845098	( မ ီ	-0.301030
-0.544068	( မ ှ	-0.477121
-0.301030	( ယ န	-0.301030
-0.698970	( ရ ာ	-0.301030
-0.397940	( ရ ိ	-0.477121
-0.301030	( လ ှ	-0.301030
-0.176091	( ဝ မ	-0.477121
-0.602060	( သ တ	-0.301030
-0.602060	( သ ေ	-0.301030
-1.414973	( အ =	-0.301030
-1.414973	( အ က	-0.301030
-1.113943	( အ ခ	-0.477121
-0.716003	( အ စ	-0.544068
-0.937852	( အ တ	-0.397940
-1.113943	( အ န	-0.477121
-1.414973	( အ ပ	-0.301030
-1.414973	( အ ိ	-0.301030
-1.414973	( အ ေ	-0.301030
-0.176091	( ၁ )	-0.301030
-0.176091	( ၂ )	-0.301030
-0.301030	( ၃ )	-0.301030
-0.301030	( ၄ )	-0.301030
-0.301030	( ၅ )	-0.301030
-0.301030	( ၆ )	-0.301030
-0.301030	( ၇ )	-0.301030
-0.602060	) စ မ	-0.301030
-0.602060	) စ ေ	-0.301030
-0.301030	) ဒ ါ	-0.301030
-0.301030	) ပ ု	-0.301030
-0.301030	) မ ာ	-0.301030
-0.544068	) အ န	-0.477121
-0.845098	) အ ဖ	-0.301030
-0.845098	) အ ရ	-0.301030
-0.301030	) ၏ န	-0.301030
-0.778151	- က ိ	-0.301030
-0.301030	- က ူ	-0.602060
-0.301030	- န ေ	-0.301030
-0.778151	- အ ခ	-0.397940
-0.954243	- အ ထ	-0.477121
-1.255273	- အ မ	-0.301030
-0.352183	- အ သ	-0.954243
-0.301030	/ က ျ	-0.301030
-0.301030	/ စ ာ	-0.301030
-0.124939	/ ထ ိ	-0.602060
-0.301030	/ န ည	-0.301030
-0.602060	/ ပ ြ	-0.301030
-0.602060	/ ပ ွ	-0.301030
-0.903090	/ မ လ	-0.301030
-0.903090	/ မ အ	-0.301030
-0.903090	/ မ ိ	-0.301030
-0.903090	/ မ ြ	-0.301030
-0.602060	/ လ က	-0.301030
-0.602060	/ လ ဲ	-0.301030
-0.602060	/ အ က	-0.301030
-0.602060	/ အ ဝ	-0.301030
-1.146128	<s> ( ၁	-0.301030
-1.146128	<s> ( ၂	-0.301030
-1.146128	<s> ( ၃	-0.301030
-1.146128	<s> ( ၄	-0.301030
-1.146128	<s> ( ၅	-0.301030
-1.146128	<s> ( ၆	-0.301030
-1.146128	<s> ( ၇	-0.301030
-0.301030	<s> A D	-0.301030
-0.301030	<s> P E	-0.301030
-0.301030	<s> S S	-0.301030
-1.897627	<s> က င	-0.301030
-1.897627	<s> က တ	-0.301030
-1.596597	<s> က န	-0.477121
-1.897627	<s> က ပ	-0.301030
-1.897627	<s> က ဗ	-0.301030
-1.198657	<s> က ာ	-0.425969
-0.555204	<s> က ိ	-1.079181
-1.198657	<s> က ု	-0.544068
-1.596597	<s> က ူ	-0.301030
-1.052529	<s> က ေ	-0.903090
-0.943385	<s> က ျ	-0.511883
-0.856234	<s> က ြ	-0.574031
-0.823909	<s> ခ န	-0.845098
-1.301030	<s> ခ ရ	-0.301030
-1.301030	<s> ခ ါ	-0.477121
-1.124939	<s> ခ ေ	-0.602060
-1.000000	<s> ခ ံ	-0.698970
-0.522879	<s> ခ ျ	-0.531479
-1.000000	<s> ခ ြ	-0.698970
-1.230449	<s> ဂ ရ	-0.301030
-0.929419	<s> ဂ လ	-0.477121
-1.230449	<s> ဂ ိ	-0.301030
-1.230449	<s> ဂ ျ	-0.301030
-0.385351	<s> ဂ ွ	-0.903090
-0.602060	<s> င ိ	-0.301030
-0.602060	<s> င ြ	-0.301030
-1.070038	<s> စ က	-0.367977
-1.371068	<s> စ စ	-0.477121
-1.672098	<s> စ ည	-0.301030
-1.371068	<s> စ တ	-0.477121
-1.672098	<s> စ ပ	-0.301030
-1.672098	<s> စ မ	-0.301030
-1.672098	<s> စ အ	-0.301030
-0.893947	<s> စ ာ	-0.602060
-0.973128	<s> စ ိ	-0.544068
-1.672098	<s> စ ီ	-0.301030
-0.893947	<s> စ ု	-0.477121
-1.194977	<s> စ ေ	-0.397940
-1.672098	<s> စ ံ	-0.301030
-1.799341	<s> ဆ န	-0.301030
-1.799341	<s> ဆ ယ	-0.301030
-1.498311	<s> ဆ ရ	-0.477121
-1.799341	<s> ဆ ာ	-0.301030
-0.544068	<s> ဆ ီ	-1.278754
-0.352183	<s> ဆ ေ	-1.462398
-1.322219	<s> ဆ ံ	-0.602060
-1.799341	<s> ဆ ွ	-0.301030
-0.176091	<s> ဈ ေ	-0.477121
-1.204120	<s> ည </s>	0.000000
-0.903090	<s> ည စ	-0.477121
-0.903090	<s> ည မ	-0.477121
-0.505150	<s> ည အ	-0.778151
-1.204120	<s> ည ာ	-0.301030
-0.278754	<s> တ စ	-1.322219
-1.278754	<s> တ ည	-0.477121
-1.579784	<s> တ ယ	-0.301030
-1.579784	<s> တ ာ	-0.301030
-0.977724	<s> တ ိ	-0.698970
-0.977724	<s> တ ု	-0.698970
-0.865301	<s> ထ ည	-0.602060
-0.865301	<s> ထ မ	-0.602060
-0.564271	<s> ထ ိ	-0.397940
-1.342423	<s> ထ ု	-0.301030
-1.342423	<s> ထ ေ	-0.301030
-1.041393	<s> ထ ွ	-0.301030
-0.845098	<s> ဒ ဏ	-0.301030
-0.544068	<s> ဒ ိ	-0.477121
-0.845098	<s> ဒ ေ	-0.301030
-0.301030	<s> ဓ ာ	-0.301030
-1.315270	<s> န ည	-0.602060
-1.792392	<s> န မ	-0.301030
-1.792392	<s> န ယ	-0.301030
-0.838149	<s> န ာ	-0.602060
-1.491362	<s> န ိ	-0.477121
-1.491362	<s> န ီ	-0.301030
-1.792392	<s> န ု	-0.301030
-0.561943	<s> န ေ	-0.643453
-1.792392	<s> န ံ	-0.301030
-1.491362	<s> န ွ	-0.477121
-0.713210	<s> န ှ	-0.602060
-1.908485	<s> ပ က	-0.301030
-1.908485	<s> ပ င	-0.301030
-1.908485	<s> ပ ည	-0.301030
-1.431364	<s> ပ တ	-0.602060
-1.607455	<s> ပ န	-0.477121
-1.431364	<s> ပ မ	-0.602060
-1.306425	<s> ပ ါ	-0.367977
-1.431364	<s> ပ ိ	-0.602060
-0.704365	<s> ပ ု	-1.230449
-1.130334	<s> ပ ေ	-0.845098
-1.908485	<s> ပ ံ	-0.301030
-1.908485	<s> ပ ျ	-0.301030
-0.546757	<s> ပ ြ	-0.550907
-1.607455	<s> ပ ွ	-0.301030
-1.255273	<s> ဖ ိ	-0.301030
-1.255273	<s> ဖ ု	-0.301030
-0.778151	<s> ဖ ေ	-0.602060
-0.778151	<s> ဖ ျ	-0.397940
-0.556303	<s> ဖ ြ	-0.778151
-0.176091	<s> ဗ ိ	-0.477121
-0.698970	<s> ဘ ယ	-0.602060
-1.176091	<s> ဘ ာ	-0.301030
-0.698970	<s> ဘ ီ	-0.602060
-0.574031	<s> ဘ ေ	-0.698970
-1.355388	<s> မ က	-0.301030
-1.832509	<s> မ စ	-0.301030
-1.230449	<s> မ တ	-0.477121
-1.832509	<s> မ န	-0.301030
-1.832509	<s> မ ပ	-0.301030
-1.832509	<s> မ ရ	-0.301030
-1.832509	<s> မ လ	-0.301030
-0.791116	<s> မ ိ	-0.505150
-1.531479	<s> မ ီ	-0.477121
-1.531479	<s> မ ု	-0.301030
-1.531479	<s> မ ူ	-0.301030
-1.832509	<s> မ ေ	-0.301030
-0.656418	<s> မ ျ	-0.676694
-1.832509	<s> မ ြ	-0.301030
-1.531479	<s> မ ွ	-0.301030
-1.230449	<s> မ ှ	-0.698970
-0.602060	<s> ယ ာ	-0.301030
-0.602060	<s> ယ ေ	-0.301030
-1.431364	<s> ရ က	-0.477121
-1.732394	<s> ရ င	-0.301030
-1.431364	<s> ရ ာ	-0.477121
-0.954243	<s> ရ ု	-0.602060
-0.285236	<s> ရ ေ	-0.613959
-1.130334	<s> ရ ွ	-0.477121
-1.130334	<s> ရ ှ	-0.301030
-1.880814	<s> လ </s>	0.000000
-0.558594	<s> လ က	-1.342423
-1.579784	<s> လ စ	-0.301030
-1.880814	<s> လ န	-0.301030
-1.278754	<s> လ မ	-0.698970
-1.181844	<s> လ ိ	-0.544068
-1.579784	<s> လ ု	-0.301030
-1.579784	<s> လ ူ	-0.477121
-0.926571	<s> လ ေ	-0.447158
-1.880814	<s> လ ဲ	-0.301030
-1.278754	<s> လ ျ	-0.698970
-1.880814	<s> လ ွ	-0.301030
-0.880814	<s> လ ှ	-0.544068
-1.176091	<s> ဝ တ	-0.301030
-0.875061	<s> ဝ န	-0.477121
-0.221849	<s> ဝ မ	-1.000000
-1.306425	<s> သ က	-0.698970
-1.431364	<s> သ င	-0.397940
-1.005395	<s> သ တ	-0.564271
-1.431364	<s> သ န	-0.602060
-1.908485	<s> သ မ	-0.301030
-1.908485	<s> သ ယ	-0.301030
-1.908485	<s> သ ရ	-0.301030
-1.908485	<s> သ လ	-0.301030
-1.209515	<s> သ ာ	-0.544068
-1.607455	<s> သ ိ	-0.301030
-1.607455	<s> သ ီ	-0.477121
-1.908485	<s> သ ု	-0.301030
-1.063387	<s> သ ူ	-0.903090
-1.209515	<s> သ ေ	-0.544068
-1.908485	<s> သ ြ	-0.301030
-0.607455	<s> သ ွ	-0.884607
-2.385606	<s> အ i	-0.301030
-1.908485	<s> အ က	-0.301030
-1.063387	<s> အ ခ	-0.653213
-2.084576	<s> အ င	-0.477121
-0.908485	<s> အ စ	-0.929419
-1.908485	<s> အ ဆ	-0.397940
-1.482516	<s> အ ည	-0.698970
-2.385606	<s> အ တ	-0.301030
-1.540508	<s> အ ထ	-0.522879
-1.908485	<s> အ ဓ	-0.602060
-1.431364	<s> အ န	-0.397940
-1.431364	<s> အ ပ	-0.447158
-1.783546	<s> အ ဖ	-0.367977
-1.306425	<s> အ မ	-0.531479
-1.155157	<s> အ ရ	-0.535113
-1.385606	<s> အ လ	-0.477121
-1.209515	<s> အ ဝ	-0.929419
-1.063387	<s> အ သ	-0.602060
-2.084576	<s> အ အ	-0.477121
-1.344214	<s> အ ာ	-0.574031
-1.005395	<s> အ ိ	-0.954243
-1.607455	<s> အ ေ	-0.845098
-2.385606	<s> အ ျ	-0.301030
-0.066947	<s> ဦ း	-0.477121
-0.301030	<s> ဧ ည	-0.301030
-0.301030	<s> ှ ု	-0.301030
-0.301030	<s> ၀ မ	-0.301030
-0.243038	<s> ၁ ၀	-0.477121
-0.845098	<s> ၁ ၅	-0.301030
-0.602060	<s> ၂ ပ	-0.477121
-0.602060	<s> ၂ ၀	-0.301030
-0.903090	<s> ၂ ၅	-0.301030
-0.477121	<s> ၃ ပ	-0.602060
-0.653213	<s> ၃ ၀	-0.301030
-0.954243	<s> ၃ ၅	-0.301030
-0.301030	<s> ၄ ၀	-0.301030
-0.176091	<s> ၅ ၀	-0.301030
-0.301030	<s> ၆ ၀	-0.301030
-0.301030	<s> ၇ ၀	-0.301030
-0.301030	<s> ၈ ၀	-0.301030
-0.301030	<s> ၉ ၀	-0.301030
-0.301030	<s> → အ	-0.301030
-0.301030	= က ိ	-0.301030
-0.301030	? ( ဒ	-0.301030
-0.301030	? ) </s>	0.000000
-0.301030	A D L	-0.301030
-0.301030	D L လ	-0.301030
-0.301030	E G ပ	-0.301030
-0.301030	G ပ ိ	-0.301030
-0.301030	L လ ေ	-0.301030
-0.301030	P E G	-0.301030
-0.301030	S P </s>	0.000000
-0.301030	S S P	-0.301030
-0.301030	U n i	-0.301030
-0.301030	Z a w	-0.301030
-0.176091	a l s	-0.477121
-0.301030	a w g	-0.301030
-0.301030	c o d	-0.301030
-0.301030	d e သ	-0.301030
-0.301030	d i g	-0.301030
-0.301030	e သ ု	-0.301030
-0.301030	g i t	-0.301030
-0.602060	g n )	-0.301030
-0.602060	g n သ	-0.301030
-0.301030	g y i	-0.301030
-0.301030	i c o	-0.301030
-0.698970	i g i	-0.301030
-0.397940	i g n	-0.301030
-0.301030	i o ဆ	-0.301030
-0.544068	i t a	-0.477121
-0.845098	i t i	-0.301030
-0.845098	i t s	-0.301030
-0.301030	i သ ု	-0.301030
-0.176091	l s i	-0.477121
-0.301030	n ) ဒ	-0.301030
-0.301030	n i c	-0.301030
-0.301030	n s ိ	-0.301030
-0.301030	n သ ိ	-0.301030
-0.301030	o d e	-0.301030
-0.301030	o ဆ n	-0.301030
-0.301030	s ) အ	-0.301030
-0.176091	s i g	-0.477121
-0.301030	s ိ ု	-0.301030
-0.176091	t a l	-0.477121
-0.301030	t i o	-0.301030
-0.301030	t s )	-0.301030
-0.176091	v i t	-0.477121
-0.301030	w g y	-0.301030
-0.301030	y i သ	-0.301030
-0.301030	က င ်	-0.301030
-0.037789	က စ ာ	-1.079181
-0.066947	က တ ်	-0.477121
-0.653213	က န ဦ	-0.477121
-0.954243	က န ေ	-0.301030
-0.954243	က န ့	-0.301030
-0.954243	က န ်	-0.301030
-0.024824	က ပ ်	-0.583577
-0.301030	က ဗ ျ	-0.301030
-0.301030	က ဘ ာ	-0.301030
-0.176091	က ယ ်	-0.477121
-0.301030	က လ က	-0.301030
-0.176091	က ဟ င	-0.477121
-0.301030	က အ ခ	-0.301030
-0.977724	က ာ က	-0.477121
-0.801632	က ာ ယ	-0.602060
-1.278754	က ာ ရ	-0.301030
-0.324511	က ာ း	-0.397940
-0.834633	က ိ န	-1.113943
-1.913814	က ိ မ	-0.301030
-1.612784	က ိ ရ	-0.477121
-0.114473	က ိ ု	-0.653213
-0.301030	က ီ လ	-0.301030
-1.371068	က ု ဌ	-0.477121
-1.371068	က ု တ	-0.477121
-0.973128	က ု ထ	-0.778151
-1.194977	က ု လ	-0.602060
-0.194977	က ု သ	-0.845098
-1.000000	က ူ </s>	0.000000
-0.363178	က ူ ည	-1.146128
-1.000000	က ူ ဘ	-0.602060
-1.477121	က ူ သ	-0.301030
-1.000000	က ူ အ	-0.397940
-1.477121	က ူ း	-0.301030
-1.380211	က ေ </s>	0.000000
-0.057992	က ေ ာ	-0.903090
-0.124939	က ံ ရ	-0.602060
-0.301030	က း မ	-0.301030
-0.511883	က ္ က	-0.698970
-0.268845	က ္ ခ	-0.653213
-2.545307	က ် (	-0.301030
-2.244277	က ် )	-0.477121
-1.223088	က ် </s>	0.000000
-1.244277	က ် က	-0.586266
-0.752915	က ် ခ	-0.993751
-2.545307	က ် ဂ	-0.301030
-1.503914	က ် စ	-0.505150
-1.399179	က ် ဆ	-0.653213
-2.244277	က ် ည	-0.301030
-1.314858	က ် တ	-0.643453
-1.943247	က ် ထ	-0.477121
-1.466126	က ် န	-0.698970
-1.147367	က ် ပ	-0.660052
-1.341187	က ် ဖ	-0.801632
-0.954243	က ် မ	-0.875061
-2.244277	က ် ယ	-0.301030
-1.147367	က ် ရ	-0.615424
-1.431364	က ် လ	-0.455932
-2.545307	က ် ဝ	-0.301030
-1.183579	က ် သ	-0.588272
-1.314858	က ် အ	-0.460731
-2.545307	က ် ၍	-0.301030
-1.596597	က ျ ခ	-0.477121
-0.392477	က ျ င	-1.230449
-1.897627	က ျ ဉ	-0.301030
-1.596597	က ျ ထ	-0.477121
-1.295567	က ျ န	-0.698970
-1.897627	က ျ ဥ	-0.301030
-1.596597	က ျ ာ	-0.477121
-1.420506	က ျ ိ	-0.301030
-1.897627	က ျ ီ	-0.301030
-1.897627	က ျ ု	-0.301030
-1.897627	က ျ ူ	-0.301030
-0.994537	က ျ ေ	-0.698970
-1.596597	က ျ ဲ	-0.477121
-1.198657	က ျ ွ	-0.425969
-0.912850	က ြ ည	-0.812913
-1.653213	က ြ ပ	-0.477121
-1.954243	က ြ မ	-0.301030
-1.653213	က ြ ယ	-0.477121
-1.000000	က ြ ာ	-0.740363
-0.778151	က ြ ိ	-0.778151
-1.051153	က ြ ီ	-0.954243
-1.954243	က ြ ု	-0.301030
-0.507084	က ြ ေ	-1.176091
-1.954243	က ြ ဲ	-0.301030
-1.954243	က ြ ွ	-0.301030
-0.845098	က ွ က	-0.477121
-0.845098	က ွ န	-0.477121
-0.845098	က ွ ယ	-0.477121
-0.845098	က ွ ာ	-0.301030
-1.146128	က ွ ဲ	-0.301030
-0.301030	ခ က ်	-0.301030
-0.602060	ခ က ြ	-0.477121
-0.176091	ခ ခ ဵ	-0.301030
-0.954243	ခ င း	-0.477121
-0.109144	ခ င ်	-1.176091
-0.079181	ခ ဏ ာ	-0.425969
-0.176091	ခ ဒ ိ	-0.477121
-0.522879	ခ န ့	-1.113943
-0.647817	ခ န ္	-1.000000
-0.397940	ခ န ်	-1.230449
-0.301030	ခ ပ ်	-0.301030
-0.176091	ခ မ ်	-0.477121
-0.954243	ခ ရ စ	-0.301030
-0.954243	ခ ရ မ	-0.301030
-0.954243	ခ ရ ိ	-0.301030
-0.653213	ခ ရ ီ	-0.477121
-0.301030	ခ အ န	-0.301030
-1.414973	ခ ါ Z	-0.301030
-1.414973	ခ ါ ဆ	-0.301030
-1.414973	ခ ါ ဖ	-0.301030
-0.937852	ခ ါ ရ	-0.602060
-1.113943	ခ ါ ဝ	-0.477121
-0.716003	ခ ါ သ	-0.544068
-0.812913	ခ ါ အ	-0.367977
-1.414973	ခ ါ ဦ	-0.301030
-0.026329	ခ ိ ု	-0.954243
-0.653213	ခ ု က	-0.477121
-0.954243	ခ ု န	-0.301030
-0.954243	ခ ု ဖ	-0.301030
-0.954243	ခ ု ံ	-0.301030
-1.342423	ခ ေ တ	-0.301030
-0.063669	ခ ေ ါ	-0.865301
-1.041393	ခ ဲ /	-0.301030
-1.041393	ခ ဲ မ	-0.301030
-0.740363	ခ ဲ သ	-0.477121
-0.564271	ခ ဲ အ	-0.397940
-0.602060	ခ ဵ အ	-0.301030
-0.602060	ခ ဵ ၍	-0.301030
-0.966142	ခ ံ ခ	-0.698970
-0.869232	ခ ံ စ	-0.544068
-0.665112	ခ ံ တ	-0.698970
-1.568202	ခ ံ ဘ	-0.301030
-0.790050	ခ ံ ယ	-0.845098
-1.267172	ခ ံ လ	-0.301030
-1.267172	ခ ံ သ	-0.477121
-1.568202	ခ ံ အ	-0.301030
-0.301030	ခ ် က	-0.301030
-0.608793	ခ ျ က	-1.518514
-1.812913	ခ ျ ခ	-0.477121
-1.072551	ခ ျ င	-1.079181
-2.113943	ခ ျ မ	-0.301030
-1.268845	ခ ျ ယ	-0.903090
-0.451186	ခ ျ ိ	-1.380211
-1.511883	ခ ျ ု	-0.698970
-1.812913	ခ ျ ူ	-0.477121
-1.335792	ခ ျ ေ	-0.397940
-1.159701	ခ ျ ွ	-0.602060
-0.040813	ခ ြ င	-2.379306
-1.719331	ခ ြ ာ	-1.041393
-2.719331	ခ ြ ု	-0.301030
-1.214181	ခ ြ ေ	-0.869232
-0.778151	ခ ွ င	-0.477121
-0.778151	ခ ွ ာ	-0.301030
-0.380211	ခ ွ ဲ	-0.352183
-0.029963	ဂ ဏ န	-1.176091
-0.301030	ဂ ရ ု	-0.301030
-0.176091	ဂ လ ူ	-0.477121
-0.511883	ဂ ါ </s>	0.000000
-0.636822	ဂ ါ က	-0.397940
-1.113943	ဂ ါ န	-0.301030
-1.113943	ဂ ါ မ	-0.301030
-0.602060	ဂ ိ မ	-0.301030
-0.602060	ဂ ိ ု	-0.301030
-0.176091	ဂ ု ဏ	-0.477121
-0.301030	ဂ ေ ါ	-0.301030
-0.447158	ဂ ျ င	-0.778151
-1.146128	ဂ ျ ပ	-0.301030
-1.146128	ဂ ျ ိ	-0.301030
-1.146128	ဂ ျ ီ	-0.301030
-1.146128	ဂ ျ ွ	-0.301030
-0.051153	ဂ ွ မ	-0.954243
-0.066947	င ယ ်	-0.477121
-0.301030	င ိ ု	-0.301030
-0.004156	င ့ ်	-0.875061
-0.176091	င း ့	-0.477121
-2.685294	င ် -	-0.477121
-1.707570	င ် </s>	0.000000
-2.986324	င ် v	-0.301030
-2.208173	င ် က	-0.342423
-1.253930	င ် ခ	-1.071882
-2.986324	င ် ဂ	-0.301030
-2.141226	င ် စ	-0.439333
-1.664104	င ် ဆ	-0.602060
-2.685294	င ် တ	-0.301030
-2.287354	င ် ထ	-0.544068
-1.731051	င ် န	-0.740363
-1.707570	င ် ပ	-0.681241
-2.208173	င ် ဖ	-0.602060
-2.986324	င ် ဘ	-0.301030
-1.588384	င ် မ	-0.660052
-2.509203	င ် ယ	-0.397940
-1.442256	င ် ရ	-0.834633
-2.509203	င ် လ	-0.301030
-2.685294	င ် ဝ	-0.301030
-1.782204	င ် သ	-0.623249
-1.643901	င ် အ	-0.574031
-0.157664	င ် း	-1.446537
-2.685294	င ် ္	-0.301030
-2.986324	င ် ၏	-0.301030
-0.301030	င ြ င	-0.301030
-0.079181	င ွ ေ	-0.544068
-1.190332	စ က တ	-0.477121
-0.646264	စ က ာ	-0.903090
-0.889302	စ က ္	-0.698970
-0.345234	စ က ်	-0.522879
-0.051153	စ င ်	-0.477121
-0.875061	စ စ း	-0.301030
-0.134699	စ စ ်	-0.574031
-0.022276	စ ဉ ်	-0.435729
-0.051153	စ ည ်	-0.954243
-0.397940	စ တ င	-0.477121
-0.698970	စ တ ာ	-0.301030
-0.301030	စ န စ	-0.301030
-0.778151	စ ပ ေ	-0.301030
-0.778151	စ ပ ်	-0.301030
-0.778151	စ ပ ြ	-0.301030
-0.845098	စ မ တ	-0.301030
-0.845098	စ မ ်	-0.301030
-0.544068	စ မ ြ	-0.477121
-0.301030	စ သ ည	-0.301030
-0.301030	စ အ ိ	-0.301030
-0.041393	စ ဥ ်	-0.352183
-1.156347	စ ာ </s>	0.000000
-1.809560	စ ာ က	-0.477121
-2.110590	စ ာ ခ	-0.301030
-1.411620	စ ာ စ	-0.778151
-2.110590	စ ာ တ	-0.301030
-1.633468	စ ာ ထ	-0.602060
-1.809560	စ ာ န	-0.477121
-1.809560	စ ာ ပ	-0.301030
-1.332438	စ ာ မ	-0.602060
-1.332438	စ ာ ရ	-0.477121
-1.809560	စ ာ လ	-0.301030
-1.633468	စ ာ သ	-0.397940
-0.996646	စ ာ အ	-0.556303
-0.332438	စ ာ း	-0.676694
-0.194575	စ ိ တ	-1.380211
-1.079181	စ ိ မ	-0.397940
-0.711204	စ ိ ု	-0.522879
-1.732394	စ ီ (	-0.301030
-1.431364	စ ီ )	-0.477121
-0.887296	စ ီ ခ	-0.903090
-0.732394	စ ီ စ	-0.778151
-1.732394	စ ီ ဆ	-0.301030
-1.130334	စ ီ မ	-0.698970
-1.732394	စ ီ ရ	-0.301030
-0.477121	စ ီ အ	-1.000000
-1.732394	စ ီ း	-0.301030
-1.568202	စ ု </s>	0.000000
-0.869232	စ ု က	-0.778151
-0.790050	စ ု စ	-0.602060
-1.091080	စ ု ဆ	-0.397940
-1.267172	စ ု တ	-0.477121
-0.665112	စ ု ပ	-0.698970
-1.568202	စ ု မ	-0.301030
-1.568202	စ ု အ	-0.301030
-1.568202	စ ု ံ	-0.301030
-0.301030	စ ူ း	-0.301030
-1.204120	စ ေ ခ	-0.477121
-0.204120	စ ေ ာ	-1.322219
-1.028029	စ ေ ့	-0.301030
-1.028029	စ ေ း	-0.397940
-1.278754	စ ံ )	-0.301030
-1.278754	စ ံ </s>	0.000000
-0.977724	စ ံ ခ	-0.477121
-1.278754	စ ံ ဂ	-0.301030
-1.278754	စ ံ စ	-0.301030
-1.278754	စ ံ ဒ	-0.301030
-1.278754	စ ံ ဘ	-0.301030
-0.801632	စ ံ အ	-0.301030
-0.602060	စ း ဆ	-0.301030
-0.602060	စ း ျ	-0.301030
-0.124939	စ ္ စ	-0.602060
-1.778151	စ ် )	-0.477121
-2.079181	စ ် </s>	0.000000
-1.176091	စ ် က	-0.698970
-0.903090	စ ် ခ	-0.778151
-1.602060	စ ် စ	-0.397940
-1.124939	စ ် ဆ	-1.000000
-1.778151	စ ် ည	-0.301030
-1.477121	စ ် န	-0.477121
-0.681241	စ ် ပ	-0.660052
-1.778151	စ ် ဖ	-0.301030
-1.778151	စ ် မ	-0.301030
-1.778151	စ ် ရ	-0.301030
-1.602060	စ ် လ	-0.602060
-1.778151	စ ် ဝ	-0.477121
-1.124939	စ ် သ	-0.602060
-1.124939	စ ် အ	-0.602060
-1.380211	စ ် ဦ	-0.778151
-0.829304	စ ွ က	-0.698970
-0.431364	စ ွ န	-1.041393
-0.954243	စ ွ မ	-0.602060
-0.829304	စ ွ ာ	-0.367977
-1.431364	စ ွ ဲ	-0.301030
-0.301030	ဆ n s	-0.301030
-0.124939	ဆ က ်	-0.397940
-1.014240	ဆ င ့	-0.602060
-0.076388	ဆ င ်	-0.628389
-0.176091	ဆ စ ်	-0.301030
-0.301030	ဆ ည ်	-0.301030
-0.176091	ဆ ထ ိ	-0.477121
-1.113943	ဆ န ့	-0.301030
-0.812913	ဆ န ္	-0.477121
-0.268845	ဆ န ်	-0.653213
-0.301030	ဆ ယ ်	-0.301030
-0.057992	ဆ ရ ာ	-0.903090
-0.602060	ဆ ာ ဆ	-0.301030
-0.602060	ဆ ာ လ	-0.301030
-1.414973	ဆ ိ တ	-0.301030
-0.053246	ဆ ိ ု	-0.829304
-0.857332	ဆ ီ ဂ	-0.778151
-1.556303	ဆ ီ ပ	-0.301030
-1.255273	ဆ ီ သ	-0.301030
-0.176091	ဆ ီ း	-0.564271
-1.278754	ဆ ု တ	-0.301030
-1.278754	ဆ ု ပ	-0.301030
-1.278754	ဆ ု ဘ	-0.301030
-0.199572	ဆ ု ံ	-0.698970
-0.124939	ဆ ူ လ	-0.602060
-0.586266	ဆ ေ ာ	-1.014240
-2.033424	ဆ ေ ့	-0.301030
-0.152610	ဆ ေ း	-0.738034
-0.096910	ဆ ံ ပ	-0.698970
-0.602060	ဆ ွ ေ	-0.301030
-0.234083	ဆ ွ ဲ	-0.522879
-0.602060	ဇ ယ ာ	-0.301030
-0.602060	ဇ ယ ်	-0.301030
-0.176091	ဈ ေ း	-0.477121
-1.190332	ဉ ် </s>	0.000000
-1.491362	ဉ ် က	-0.301030
-1.491362	ဉ ် ခ	-0.301030
-1.491362	ဉ ် ဆ	-0.301030
-1.491362	ဉ ် တ	-0.301030
-1.190332	ဉ ် န	-0.477121
-0.889302	ဉ ် မ	-0.367977
-1.190332	ဉ ် ရ	-0.477121
-1.491362	ဉ ် သ	-0.301030
-1.491362	ဉ ် အ	-0.301030
-0.889302	ဉ ် း	-0.367977
-0.028029	ည စ ်	-0.778151
-0.397940	ည မ အ	-0.477121
-0.698970	ည မ ်	-0.301030
-0.301030	ည ရ ာ	-0.301030
-0.045757	ည အ ိ	-1.000000
-0.845098	ည ာ ပ	-0.301030
-0.845098	ည ာ ဖ	-0.301030
-0.544068	ည ာ ရ	-0.477121
-0.301030	ည ိ ု	-0.301030
-1.397940	ည ီ </s>	0.000000
-0.552842	ည ီ ခ	-0.903090
-1.096910	ည ီ စ	-0.477121
-1.096910	ည ီ ဆ	-0.477121
-0.795880	ည ီ ပ	-0.301030
-1.397940	ည ီ ဖ	-0.301030
-1.397940	ည ီ မ	-0.301030
-0.004040	ည ့ ်	-0.802774
-2.107210	ည ် )	-0.301030
-2.107210	ည ် /	-0.301030
-1.028029	ည ် </s>	0.000000
-1.806180	ည ် က	-0.477121
-2.107210	ည ် ခ	-0.301030
-1.806180	ည ် စ	-0.477121
-2.107210	ည ် ဆ	-0.301030
-1.505150	ည ် ထ	-0.698970
-2.107210	ည ် န	-0.301030
-1.408240	ည ် ပ	-0.544068
-1.329059	ည ် ဖ	-0.845098
-0.961082	ည ် မ	-0.753328
-1.630089	ည ် ရ	-0.301030
-1.630089	ည ် လ	-0.397940
-2.107210	ည ် ဝ	-0.301030
-1.204120	ည ် သ	-0.414973
-1.630089	ည ် အ	-0.602060
-0.505150	ည ် း	-0.636822
-2.107210	ည ် ၍	-0.301030
-0.096910	ည ွ ှ	-0.698970
-1.041393	ည ှ င	-0.301030
-0.740363	ည ှ စ	-0.477121
-0.740363	ည ှ ပ	-0.477121
-0.740363	ည ှ ိ	-0.477121
-0.057992	ဌ ာ န	-0.903090
-0.301030	ဏ ) </s>	0.000000
-0.029963	ဏ န ်	-1.176091
-0.301030	ဏ မ ျ	-0.301030
-0.301030	ဏ အ ာ	-0.301030
-0.903090	ဏ ာ </s>	0.000000
-0.425969	ဏ ာ မ	-0.602060
-0.903090	ဏ ာ ရ	-0.301030
-0.477121	ဏ ် ပ	-0.477121
-0.477121	ဏ ် ရ	-0.477121
-0.116506	တ က ်	-0.726999
-0.929419	တ က ျ	-0.477121
-0.301030	တ ခ ွ	-0.301030
-0.024824	တ င ်	-0.643453
-1.544068	တ စ ိ	-0.301030
-0.038918	တ စ ်	-0.623249
-0.176091	တ ဆ ထ	-0.477121
-1.146128	တ ည ့	-0.301030
-0.104735	တ ည ်	-0.452298
-0.037789	တ န ်	-0.669007
-0.176091	တ ပ ်	-0.397940
-0.954243	တ ပ ြ	-0.301030
-1.278754	တ မ း	-0.301030
-0.074634	တ မ ်	-1.230449
-0.301030	တ ယ ်	-0.301030
-0.176091	တ ရ ွ	-0.477121
-1.079181	တ ာ )	-0.477121
-1.380211	တ ာ </s>	0.000000
-0.903090	တ ာ က	-0.602060
-1.380211	တ ာ ခ	-0.301030
-1.380211	တ ာ စ	-0.301030
-1.380211	တ ာ တ	-0.301030
-1.380211	တ ာ ပ	-0.301030
-1.079181	တ ာ မ	-0.301030
-1.380211	တ ာ ဝ	-0.301030
-1.380211	တ ာ ၏	-0.301030
-1.544068	တ ိ န	-0.301030
-1.544068	တ ိ ပ	-0.301030
-1.544068	တ ိ မ	-0.301030
-1.544068	တ ိ ရ	-0.301030
-1.544068	တ ိ လ	-0.301030
-0.163857	တ ိ ု	-0.954243
-0.954243	တ ီ မ	-0.301030
-0.176091	တ ီ း	-0.342423
-0.113943	တ ု န	-1.041393
-1.113943	တ ု သ	-0.301030
-0.301030	တ ူ ည	-0.301030
-0.028029	တ ေ ာ	-0.778151
-0.124939	တ ဲ ့	-0.602060
-0.544068	တ ံ </s>	0.000000
-0.845098	တ ံ တ	-0.301030
-0.845098	တ ံ ဖ	-0.301030
-0.301030	တ း တ	-0.301030
-0.124939	တ ္ တ	-0.301030
-1.893947	တ ် )	-0.602060
-1.166948	တ ် </s>	0.000000
-1.592917	တ ် က	-0.477121
-0.939704	တ ် ခ	-0.806180
-2.371068	တ ် ဂ	-0.301030
-1.371068	တ ် စ	-0.544068
-1.416825	တ ် ဆ	-0.447158
-2.371068	တ ် ည	-0.301030
-0.852554	တ ် တ	-0.756962
-1.525970	တ ် ထ	-0.653213
-2.371068	တ ် ဒ	-0.301030
-1.525970	တ ် န	-0.380211
-1.416825	တ ် ပ	-0.359022
-1.525970	တ ် ဖ	-0.903090
-2.371068	တ ် ဘ	-0.301030
-1.371068	တ ် မ	-0.425969
-1.672098	တ ် ရ	-0.425969
-1.467978	တ ် လ	-0.477121
-2.070038	တ ် ဝ	-0.301030
-1.329675	တ ် သ	-0.505150
-0.814765	တ ် အ	-0.788370
-1.893947	တ ် ်	-0.397940
-1.255273	တ ွ က	-0.602060
-0.269996	တ ွ င	-1.477121
-0.501945	တ ွ ေ	-0.643453
-1.732394	တ ွ ဲ	-0.301030
-0.301030	ထ က ်	-0.301030
-0.176091	ထ ခ ြ	-0.477121
-0.301030	ထ စ ်	-0.301030
-0.176091	ထ ည ့	-1.397940
-0.556303	ထ ည ်	-0.778151
-0.124939	ထ ပ ်	-0.301030
-0.522879	ထ မ င	-0.602060
-1.000000	ထ မ ဦ	-0.301030
-0.522879	ထ မ ်	-0.602060
-0.011582	ထ ာ း	-0.924279
-1.066947	ထ ိ ခ	-0.602060
-0.698970	ထ ိ န	-0.903090
-1.544068	ထ ိ ရ	-0.301030
-1.544068	ထ ိ သ	-0.301030
-0.288796	ထ ိ ု	-0.845098
-0.414973	ထ ု တ	-0.778151
-0.335792	ထ ု ံ	-0.602060
-1.079181	ထ ူ ခ	-0.301030
-0.477121	ထ ူ ထ	-0.698970
-0.477121	ထ ူ း	-0.367977
-0.028029	ထ ေ ာ	-0.929419
-0.425969	ထ ဲ တ	-0.602060
-0.903090	ထ ဲ ရ	-0.301030
-0.903090	ထ ဲ သ	-0.301030
-0.124939	ထ ွ က	-1.204120
-0.823909	ထ ွ ေ	-0.301030
-0.176091	ဒ ဏ ်	-0.477121
-0.301030	ဒ အ လ	-0.301030
-0.243038	ဒ ါ မ	-0.698970
-0.845098	ဒ ါ ရ	-0.301030
-0.544068	ဒ ိ န	-0.477121
-0.367977	ဒ ိ ု	-0.397940
-0.602060	ဒ ီ (	-0.301030
-0.602060	ဒ ီ ယ	-0.301030
-0.176091	ဒ ေ သ	-0.301030
-0.066947	ဓ ါ တ	-0.845098
-0.544068	ဓ ာ က	-0.845098
-1.322219	ဓ ာ ဆ	-0.301030
-0.419129	ဓ ာ တ	-0.954243
-1.021189	ဓ ာ အ	-0.301030
-0.124939	ဓ ိ က	-0.397940
-0.124939	န က ်	-0.301030
-0.176091	န င ်	-0.477121
-0.096910	န စ ်	-0.367977
-0.018483	န ည ်	-1.380211
-0.176091	န ပ ်	-0.477121
-0.301030	န မ ိ	-0.301030
-0.066947	န ယ ်	-0.477121
-0.176091	န ဦ း	-0.301030
-0.963788	န ာ </s>	0.000000
-0.708515	န ာ က	-0.740363
-1.662758	န ာ ခ	-0.301030
-0.708515	န ာ ပ	-1.000000
-1.361728	န ာ မ	-0.301030
-1.361728	န ာ ရ	-0.301030
-1.662758	န ာ အ	-0.301030
-1.662758	န ာ ဧ	-0.301030
-0.817660	န ာ း	-0.335792
-0.015240	န ိ ု	-1.014240
-1.079181	န ီ ရ	-0.301030
-0.778151	န ီ လ	-0.477121
-0.301030	န ီ း	-0.602060
-0.176091	န ု တ	-0.477121
-1.892095	န ေ (	-0.301030
-1.591065	န ေ )	-0.477121
-1.113943	န ေ </s>	0.000000
-1.591065	န ေ က	-0.477121
-1.591065	န ေ ခ	-0.301030
-1.892095	န ေ တ	-0.301030
-1.591065	န ေ ထ	-0.477121
-1.892095	န ေ ပ	-0.301030
-1.414973	န ေ မ	-0.602060
-1.046997	န ေ ရ	-0.903090
-1.290035	န ေ လ	-0.477121
-1.290035	န ေ သ	-0.367977
-1.892095	န ေ ဟ	-0.301030
-1.113943	န ေ အ	-0.477121
-0.989005	န ေ ာ	-0.954243
-0.812913	န ေ ့	-0.477121
-0.602060	န ံ န	-0.301030
-0.602060	န ံ ပ	-0.301030
-0.008600	န ့ ်	-0.816610
-0.812913	န ္ ဒ	-0.301030
-0.159701	န ္ ဓ	-1.000000
-2.442480	န ် )	-0.301030
-1.163726	န ် </s>	0.000000
-1.664329	န ် က	-0.477121
-1.664329	န ် ခ	-0.477121
-1.965359	န ် စ	-0.602060
-1.597382	န ် ဆ	-0.903090
-2.141450	န ် ည	-0.301030
-1.743510	န ် တ	-0.352183
-1.840420	န ် ထ	-0.477121
-1.965359	န ် န	-0.397940
-1.401087	န ် ပ	-0.669007
-1.141450	န ် ဖ	-0.698970
-2.442480	န ် ဘ	-0.301030
-1.442480	န ် မ	-0.636822
-2.141450	န ် ရ	-0.301030
-1.100057	န ် လ	-0.617300
-2.141450	န ် ဝ	-0.477121
-2.141450	န ် သ	-0.301030
-2.442480	န ် ဟ	-0.301030
-1.328536	န ် အ	-0.455932
-1.597382	န ် ့	-0.653213
-0.417174	န ် း	-0.859456
-2.442480	န ် ၊	-0.301030
-1.146128	န ွ မ	-0.301030
-0.243038	န ွ ေ	-0.564271
-0.845098	န ွ ှ	-0.477121
-0.431959	န ှ င	-1.447158
-1.562293	န ှ စ	-0.477121
-1.562293	န ှ လ	-0.477121
-0.863323	န ှ ာ	-0.477121
-0.960233	န ှ ိ	-0.954243
-0.687232	န ှ ု	-1.204120
-1.562293	န ှ ေ	-0.477121
-0.301030	ပ က ်	-0.301030
-0.057992	ပ င ်	-0.439333
-0.367977	ပ စ ္	-0.602060
-0.544068	ပ စ ်	-0.477121
-0.124939	ပ ည ာ	-0.397940
-0.022276	ပ တ ်	-0.681241
-0.301030	ပ ထ မ	-0.301030
-0.037789	ပ န ်	-0.812913
-0.026329	ပ မ ာ	-1.230449
-0.778151	ပ လ မ	-0.301030
-0.778151	ပ လ ာ	-0.301030
-0.778151	ပ လ ှ	-0.301030
-0.176091	ပ သ ည	-0.477121
-1.342423	ပ ါ (	-0.477121
-1.643453	ပ ါ ခ	-0.301030
-1.643453	ပ ါ ဇ	-0.301030
-1.643453	ပ ါ တ	-0.301030
-1.643453	ပ ါ မ	-0.301030
-1.041393	ပ ါ ဝ	-0.698970
-0.364699	ပ ါ သ	-0.865301
-1.643453	ပ ါ အ	-0.301030
-1.166331	ပ ါ း	-0.301030
-1.643453	ပ ါ ၊	-0.301030
-1.612784	ပ ိ တ	-0.301030
-0.056481	ပ ိ ု	-0.913814
-1.612784	ပ ိ ူ	-0.301030
-1.633468	ပ ု တ	-0.301030
-0.031408	ပ ု ံ	-0.827000
-0.522879	ပ ူ ခ	-0.602060
-1.000000	ပ ူ တ	-0.301030
-1.000000	ပ ူ ပ	-0.301030
-1.000000	ပ ူ အ	-0.301030
-1.335792	ပ ေ ခ	-0.602060
-1.511883	ပ ေ သ	-0.301030
-0.414973	ပ ေ ါ	-1.130334
-0.321552	ပ ေ း	-0.790050
-0.602060	ပ ဲ စ	-0.301030
-0.602060	ပ ဲ ့	-0.301030
-0.057992	ပ ံ ့	-0.653213
-0.602060	ပ ္ ဌ	-0.301030
-0.602060	ပ ္ မ	-0.301030
-1.645913	ပ ် </s>	0.000000
-1.469822	ပ ် က	-0.602060
-0.816610	ပ ် ခ	-0.889302
-1.247973	ပ ် စ	-0.544068
-1.549003	ပ ် ဆ	-0.544068
-2.247973	ပ ် ဌ	-0.301030
-1.770852	ပ ် တ	-0.397940
-1.293731	ပ ် ထ	-0.602060
-1.293731	ပ ် န	-0.602060
-1.293731	ပ ် ပ	-0.447158
-2.247973	ပ ် ဖ	-0.301030
-1.344883	ပ ် မ	-0.367977
-1.043853	ပ ် ယ	-0.954243
-0.850033	ပ ် ရ	-0.860338
-2.247973	ပ ် ဝ	-0.301030
-1.293731	ပ ် သ	-0.602060
-1.017524	ပ ် အ	-0.643453
-0.875061	ပ ျ က	-0.477121
-1.176091	ပ ျ စ	-0.301030
-1.176091	ပ ျ ူ	-0.301030
-0.330993	ပ ျ ေ	-0.903090
-2.019116	ပ ြ က	-0.477121
-1.718086	ပ ြ ခ	-0.698970
-0.977724	ပ ြ င	-1.361728
-2.019116	ပ ြ စ	-0.477121
-1.718086	ပ ြ ည	-0.698970
-2.320146	ပ ြ တ	-0.301030
-2.320146	ပ ြ ထ	-0.301030
-0.888783	ပ ြ န	-1.447158
-2.019116	ပ ြ မ	-0.477121
-2.019116	ပ ြ သ	-0.301030
-1.718086	ပ ြ ာ	-0.698970
-2.320146	ပ ြ ိ	-0.301030
-1.089697	ပ ြ ီ	-1.255273
-0.487637	ပ ြ ု	-0.856234
-0.888783	ပ ြ ေ	-1.000000
-2.320146	ပ ြ ဲ	-0.301030
-1.718086	ပ ြ ွ	-0.698970
-2.019116	ပ ြ ဿ	-0.477121
-1.579784	ပ ွ င	-0.301030
-1.579784	ပ ွ တ	-0.301030
-1.579784	ပ ွ န	-0.301030
-1.102662	ပ ွ ာ	-0.602060
-0.148420	ပ ွ ဲ	-0.889302
-0.066947	ဖ က ်	-0.477121
-0.176091	ဖ တ ်	-0.301030
-0.176091	ဖ န ်	-0.477121
-0.301030	ဖ ရ င	-0.301030
-0.176091	ဖ ာ ခ	-0.477121
-1.301030	ဖ ိ ထ	-0.301030
-1.301030	ဖ ိ န	-0.301030
-0.698970	ဖ ိ အ	-0.698970
-0.301030	ဖ ိ ု	-0.778151
-0.698970	ဖ ီ </s>	0.000000
-0.397940	ဖ ီ း	-0.301030
-0.477121	ဖ ု န	-0.477121
-0.477121	ဖ ု ံ	-0.477121
-0.602060	ဖ ူ လ	-0.301030
-0.602060	ဖ ူ း	-0.301030
-0.020203	ဖ ေ ာ	-0.716003
-0.301030	ဖ ် (	-0.301030
-1.041393	ဖ ျ က	-0.301030
-0.439333	ဖ ျ ာ	-0.477121
-0.564271	ဖ ျ ေ	-0.602060
-0.433656	ဖ ြ င	-1.462398
-0.602060	ဖ ြ စ	-1.301030
-1.181844	ဖ ြ ည	-0.778151
-1.579784	ဖ ြ တ	-0.477121
-1.880814	ဖ ြ ာ	-0.301030
-1.102662	ဖ ြ ူ	-0.342423
-0.977724	ဖ ြ ေ	-0.564271
-0.425969	ဖ ွ တ	-0.602060
-0.903090	ဖ ွ ာ	-0.301030
-0.903090	ဖ ွ ဲ	-0.301030
-0.176091	ဗ မ ာ	-0.477121
-0.096910	ဗ ိ ု	-0.698970
-0.301030	ဗ ျ ာ	-0.301030
-0.301030	ဘ က ်	-0.301030
-0.079181	ဘ ယ ်	-0.301030
-0.301030	ဘ ရ ပ	-0.301030
-0.845098	ဘ ာ တ	-0.477121
-0.845098	ဘ ာ ဝ	-0.477121
-0.301030	ဘ ာ သ	-0.903090
-0.301030	ဘ ိ ု	-0.301030
-1.176091	ဘ ီ (	-0.301030
-0.574031	ဘ ီ </s>	0.000000
-1.176091	ဘ ီ သ	-0.301030
-0.698970	ဘ ီ း	-0.602060
-1.176091	ဘ ီ ၊	-0.301030
-0.301030	ဘ ု ရ	-0.301030
-0.041393	ဘ ေ ာ	-0.636822
-0.301030	ဘ ဲ န	-0.301030
-0.176091	ဘ ွ န	-0.477121
-1.000000	မ က ိ	-0.301030
-0.698970	မ က ေ	-0.477121
-1.000000	မ က ်	-0.301030
-0.698970	မ က ျ	-0.477121
-0.176091	မ ခ ံ	-0.477121
-0.124939	မ င ်	-0.602060
-0.352183	မ စ င	-0.698970
-0.477121	မ စ ာ	-0.602060
-0.698970	မ ဆ င	-0.301030
-0.397940	မ ဆ ွ	-0.477121
-1.176091	မ ည စ	-0.301030
-0.477121	မ ည ့	-0.778151
-0.397940	မ ည ်	-0.477121
-0.954243	မ တ ည	-0.301030
-0.653213	မ တ ေ	-0.477121
-0.477121	မ တ ်	-0.397940
-0.903090	မ ထ ာ	-0.301030
-0.204120	မ ထ ိ	-0.778151
-0.698970	မ န ည	-0.301030
-0.397940	မ န ်	-0.301030
-1.113943	မ ပ ါ	-0.301030
-1.113943	မ ပ ျ	-0.301030
-0.210853	မ ပ ြ	-0.698970
-0.243038	မ ဖ ေ	-0.698970
-0.845098	မ ဖ ြ	-0.301030
-0.602060	မ မ ျ	-0.301030
-0.602060	မ မ ှ	-0.301030
-1.361728	မ ရ </s>	0.000000
-1.060698	မ ရ ပ	-0.301030
-1.361728	မ ရ သ	-0.301030
-0.884607	မ ရ ေ	-0.397940
-0.320335	မ ရ ှ	-1.079181
-0.602060	မ လ ိ	-0.301030
-0.602060	မ လ ှ	-0.301030
-0.954243	မ သ က	-0.301030
-0.653213	မ သ ာ	-0.477121
-0.954243	မ သ ိ	-0.301030
-0.954243	မ သ ွ	-0.301030
-0.026329	မ ဟ ု	-1.230449
-0.397940	မ အ ိ	-0.477121
-0.698970	မ အ ီ	-0.301030
-0.301030	မ ဦ း	-0.301030
-1.255273	မ ာ က	-0.477121
-0.954243	မ ာ စ	-0.477121
-0.352183	မ ာ ဏ	-0.698970
-0.857332	မ ာ ရ	-0.544068
-0.954243	မ ာ သ	-0.698970
-1.518514	မ ိ ဂ	-0.301030
-1.518514	မ ိ ဆ	-0.301030
-1.518514	မ ိ တ	-0.301030
-1.041393	မ ိ န	-0.602060
-0.819544	မ ိ ဘ	-0.778151
-0.740363	မ ိ မ	-0.845098
-0.916454	မ ိ သ	-0.477121
-1.217484	မ ိ ု	-0.301030
-1.518514	မ ိ ှ	-0.301030
-0.865301	မ ီ </s>	0.000000
-1.342423	မ ီ က	-0.301030
-0.865301	မ ီ တ	-0.602060
-1.342423	မ ီ ပ	-0.301030
-1.342423	မ ီ လ	-0.301030
-0.497325	မ ီ း	-0.380211
-1.079181	မ ု တ	-0.301030
-0.234083	မ ု န	-0.653213
-1.079181	မ ု ံ	-0.301030
-0.845098	မ ူ တ	-0.301030
-0.845098	မ ူ မ	-0.301030
-0.544068	မ ူ း	-0.301030
-0.602060	မ ေ ာ	-0.301030
-0.903090	မ ေ ့	-0.301030
-0.602060	မ ေ း	-0.477121
-0.778151	မ ံ က	-0.301030
-0.301030	မ ံ ခ	-0.602060
-0.301030	မ ့ ်	-0.301030
-0.301030	မ း ့	-0.301030
-2.127105	မ ် /	-0.301030
-2.127105	မ ် </s>	0.000000
-2.127105	မ ် က	-0.301030
-1.525045	မ ် တ	-0.477121
-1.525045	မ ် ပ	-0.477121
-1.649984	မ ် ဖ	-0.602060
-2.127105	မ ် မ	-0.301030
-1.428135	မ ် သ	-0.544068
-1.826075	မ ် အ	-0.301030
-2.127105	မ ် ာ	-0.301030
-0.144834	မ ် း	-0.763428
-2.127105	မ ် ်	-0.301030
-2.127105	မ ် ။	-0.301030
-0.903090	မ ျ က	-1.041393
-0.195520	မ ျ ာ	-1.716003
-0.756962	မ ျ ိ	-1.176091
-1.903090	မ ျ ှ	-0.301030
-0.681241	မ ြ င	-0.544068
-1.380211	မ ြ စ	-0.301030
-0.778151	မ ြ န	-0.698970
-1.380211	မ ြ ိ	-0.301030
-1.380211	မ ြ ေ	-0.301030
-1.380211	မ ြ ဲ	-0.301030
-0.778151	မ ြ ှ	-0.367977
-0.698970	မ ွ တ	-0.301030
-0.397940	မ ွ ေ	-0.301030
-2.225309	မ ှ ခ	-0.301030
-1.748188	မ ှ ဆ	-0.397940
-0.793946	မ ှ တ	-1.447158
-2.225309	မ ှ ထ	-0.301030
-0.882887	မ ှ န	-1.361728
-1.623249	မ ှ မ	-0.698970
-1.748188	မ ှ အ	-0.602060
-1.322219	မ ှ ာ	-0.477121
-2.225309	မ ှ ိ	-0.301030
-0.280827	မ ှ ု	-0.836746
-0.124939	ယ က ံ	-0.602060
-0.301030	ယ စ ်	-0.301030
-0.301030	ယ န ်	-0.301030
-0.602060	ယ ပ ္	-0.301030
-0.602060	ယ ပ ်	-0.301030
-0.301030	ယ မ ်	-0.301030
-1.491362	ယ ာ (	-0.301030
-1.190332	ယ ာ </s>	0.000000
-0.889302	ယ ာ ခ	-0.698970
-1.190332	ယ ာ ထ	-0.477121
-1.190332	ယ ာ န	-0.477121
-1.491362	ယ ာ ပ	-0.301030
-1.491362	ယ ာ ရ	-0.301030
-1.491362	ယ ာ လ	-0.301030
-1.190332	ယ ာ ဝ	-0.477121
-1.491362	ယ ာ အ	-0.301030
-1.014240	ယ ာ း	-0.397940
-0.124939	ယ ိ ု	-0.397940
-0.162727	ယ ူ ခ	-1.079181
-1.204120	ယ ူ န	-0.301030
-1.204120	ယ ူ ပ	-0.301030
-0.176091	ယ ေ ာ	-0.477121
-0.301030	ယ ံ သ	-0.301030
-0.301030	ယ ့ ်	-0.301030
-1.716003	ယ ် က	-0.301030
-0.498519	ယ ် ခ	-1.243038
-1.539912	ယ ် ဆ	-0.397940
-1.539912	ယ ် တ	-0.397940
-2.017033	ယ ် န	-0.301030
-1.318063	ယ ် ပ	-0.425969
-2.017033	ယ ် ဖ	-0.301030
-2.017033	ယ ် ဗ	-0.301030
-1.539912	ယ ် မ	-0.397940
-1.716003	ယ ် ယ	-0.477121
-1.238882	ယ ် ရ	-0.477121
-1.017033	ယ ် လ	-0.477121
-1.414973	ယ ် သ	-0.367977
-2.017033	ယ ် ဟ	-0.301030
-0.870905	ယ ် အ	-0.477121
-0.301030	ယ ွ င	-0.301030
-0.079181	ရ က ်	-0.352183
-0.397940	ရ ခ က	-0.477121
-0.698970	ရ ခ ြ	-0.301030
-1.176091	ရ င ့	-0.301030
-0.096910	ရ င ်	-0.698970
-0.477121	ရ စ ီ	-0.477121
-0.477121	ရ စ ်	-0.301030
-0.301030	ရ ဆ ိ	-0.301030
-0.037789	ရ ည ်	-0.375664
-0.301030	ရ ဓ ာ	-0.301030
-0.032185	ရ န ်	-0.455932
-0.954243	ရ ပ ါ	-0.301030
-0.176091	ရ ပ ်	-0.342423
-0.301030	ရ ဖ ြ	-0.301030
-0.352183	ရ မ ည	-0.698970
-0.954243	ရ မ ်	-0.301030
-0.954243	ရ မ ှ	-0.301030
-0.602060	ရ လ ာ	-0.301030
-0.602060	ရ လ ွ	-0.301030
-0.726999	ရ သ ည	-0.602060
-0.162727	ရ သ ေ	-0.812913
-1.579784	ရ ာ -	-0.301030
-1.035716	ရ ာ </s>	0.000000
-1.278754	ရ ာ က	-0.477121
-0.766870	ရ ာ ခ	-1.146128
-1.579784	ရ ာ တ	-0.477121
-1.579784	ရ ာ ထ	-0.477121
-1.880814	ရ ာ ဒ	-0.301030
-1.579784	ရ ာ န	-0.301030
-1.278754	ရ ာ ပ	-0.477121
-1.880814	ရ ာ မ	-0.301030
-1.579784	ရ ာ ရ	-0.477121
-1.035716	ရ ာ ဝ	-0.903090
-1.102662	ရ ာ သ	-0.845098
-1.035716	ရ ာ အ	-0.439333
-1.880814	ရ ာ း	-0.301030
-1.255273	ရ ိ တ	-0.301030
-0.954243	ရ ိ ယ	-0.477121
-0.176091	ရ ိ ု	-0.698970
-1.079181	ရ ီ )	-0.301030
-0.778151	ရ ီ </s>	0.000000
-1.079181	ရ ီ စ	-0.301030
-1.079181	ရ ီ ပ	-0.301030
-0.778151	ရ ီ း	-0.477121
-0.845098	ရ ု တ	-0.477121
-0.602060	ရ ု ပ	-0.903090
-0.301030	ရ ု ံ	-0.522879
-2.164353	ရ ေ </s>	0.000000
-2.164353	ရ ေ က	-0.301030
-1.018225	ရ ေ ခ	-0.903090
-2.164353	ရ ေ စ	-0.301030
-1.863323	ရ ေ ဆ	-0.301030
-2.164353	ရ ေ တ	-0.301030
-2.164353	ရ ေ ဒ	-0.301030
-1.386202	ရ ေ ဓ	-0.602060
-1.562293	ရ ေ န	-0.477121
-1.085172	ရ ေ ပ	-0.698970
-2.164353	ရ ေ ဝ	-0.301030
-1.562293	ရ ေ သ	-0.698970
-2.164353	ရ ေ အ	-0.301030
-0.659203	ရ ေ ာ	-0.954243
-0.465383	ရ ေ း	-0.743937
-0.301030	ရ ဲ လ	-0.301030
-0.602060	ရ ံ ဟ	-0.301030
-0.602060	ရ ံ ု	-0.301030
-0.556303	ရ ွ က	-1.041393
-1.556303	ရ ွ တ	-0.301030
-0.954243	ရ ွ ယ	-0.698970
-0.778151	ရ ွ ေ	-0.602060
-1.556303	ရ ွ ွ	-0.301030
-0.653213	ရ ွ ှ	-0.698970
-0.579784	ရ ှ င	-1.491362
-1.755875	ရ ှ ည	-0.477121
-2.056905	ရ ှ န	-0.301030
-2.056905	ရ ှ မ	-0.301030
-0.826456	ရ ှ ာ	-1.255273
-0.594507	ရ ှ ိ	-0.711204
-1.755875	ရ ှ ု	-0.301030
-1.102662	ရ ှ ူ	-0.359022
-0.977724	ရ ှ ေ	-0.845098
-2.056905	ရ ှ ်	-0.301030
-0.892095	လ က ္	-0.778151
-0.085915	လ က ်	-0.564271
-0.079181	လ င ်	-0.352183
-0.602060	လ စ ဉ	-0.477121
-0.602060	လ စ ဥ	-0.477121
-0.903090	လ စ ်	-0.301030
-0.026329	လ ည ်	-0.564271
-0.301030	လ တ ်	-0.301030
-0.124939	လ န ်	-0.602060
-0.037789	လ မ ်	-1.079181
-0.301030	လ ယ ်	-0.301030
-1.518514	လ ာ </s>	0.000000
-0.819544	လ ာ ခ	-0.778151
-1.518514	လ ာ စ	-0.301030
-1.518514	လ ာ န	-0.301030
-1.518514	လ ာ ပ	-0.301030
-1.041393	လ ာ သ	-0.397940
-0.372386	လ ာ း	-0.579784
-0.716003	လ ိ ပ	-0.778151
-0.812913	လ ိ မ	-0.698970
-0.268845	လ ိ ု	-0.407485
-0.602060	လ ီ ဖ	-0.301030
-0.602060	လ ီ မ	-0.301030
-1.238882	လ ု တ	-0.602060
-0.268845	လ ု ပ	-1.462398
-0.460731	လ ု ံ	-0.845098
-0.367977	လ ူ န	-0.397940
-0.544068	လ ူ း	-0.477121
-1.568202	လ ေ ထ	-0.301030
-1.091080	လ ေ ပ	-0.602060
-1.267172	လ ေ ဖ	-0.301030
-1.568202	လ ေ ဝ	-0.301030
-1.568202	လ ေ အ	-0.301030
-1.568202	လ ေ ာ	-0.301030
-0.312929	လ ေ ့	-1.278754
-1.267172	လ ေ း	-0.301030
-1.079181	လ ဲ ?	-0.698970
-1.380211	လ ဲ က	-0.477121
-0.681241	လ ဲ ခ	-1.041393
-0.338819	လ ဲ လ	-0.920819
-1.681241	လ ဲ ၊	-0.301030
-1.204120	လ ဲ ။	-0.602060
-0.176091	လ ံ ှ	-0.477121
-0.301030	လ ် က	-0.301030
-1.431364	လ ျ ာ	-0.301030
-0.528274	လ ျ ေ	-0.954243
-0.255273	လ ျ ှ	-1.204120
-1.079181	လ ွ တ	-0.301030
-0.380211	လ ွ န	-0.544068
-1.079181	လ ွ ယ	-0.301030
-1.079181	လ ွ ှ	-0.301030
-1.505150	လ ှ ည	-0.477121
-1.204120	လ ှ န	-0.698970
-1.329059	လ ှ ပ	-0.602060
-1.505150	လ ှ မ	-0.477121
-0.527426	လ ှ ယ	-1.301030
-1.806180	လ ှ အ	-0.301030
-0.527426	လ ှ ု	-1.021189
-1.505150	လ ှ ေ	-0.301030
-1.329059	လ ှ ဲ	-0.602060
-0.301030	ဝ % ရ	-0.301030
-0.176091	ဝ က ်	-0.477121
-0.041393	ဝ င ်	-0.477121
-0.124939	ဝ စ ီ	-0.602060
-0.009340	ဝ တ ်	-0.714482
-0.029963	ဝ န ်	-0.439333
-0.176091	ဝ ပ ံ	-0.477121
-0.044204	ဝ မ ်	-1.462398
-1.491362	ဝ မ ှ	-0.301030
-0.176091	ဝ ယ ်	-0.477121
-0.301030	ဝ ရ ာ	-0.301030
-0.602060	ဝ အ တ	-0.301030
-0.602060	ဝ အ လ	-0.301030
-0.698970	ဝ ါ </s>	0.000000
-1.000000	ဝ ါ ရ	-0.301030
-0.397940	ဝ ါ း	-0.367977
-0.301030	ဝ ိ ု	-0.301030
-0.602060	ဝ ေ ့	-0.301030
-0.602060	ဝ ေ း	-0.301030
-0.301030	ဝ ဲ စ	-0.301030
-0.124939	သ က ်	-0.552842
-0.778151	သ က ြ	-0.477121
-0.045757	သ ခ ြ	-1.000000
-0.845098	သ င ့	-0.301030
-0.243038	သ င ်	-0.301030
-0.124939	သ စ ်	-0.301030
-0.148420	သ ည ့	-1.740363
-0.579784	သ ည ်	-0.778151
-0.698970	သ တ င	-0.698970
-0.698970	သ တ ိ	-0.301030
-0.455932	သ တ ်	-0.522879
-1.301030	သ တ ွ	-0.301030
-0.829304	သ န ည	-0.698970
-1.431364	သ န ာ	-0.301030
-0.285236	သ န ့	-1.176091
-0.829304	သ န ်	-0.477121
-0.698970	သ ပ ေ	-0.301030
-0.397940	သ ပ ်	-0.301030
-0.397940	သ ဘ ာ	-0.477121
-0.698970	သ ဘ ေ	-0.301030
-1.301030	သ မ ည	-0.301030
-0.823909	သ မ ီ	-0.602060
-0.187087	သ မ ှ	-1.146128
-0.124939	သ ယ ်	-0.397940
-0.301030	သ ရ ေ	-0.301030
-0.322219	သ လ ာ	-1.041393
-0.623249	သ လ ိ	-0.544068
-0.845098	သ လ ဲ	-0.602060
-0.124939	သ သ ည	-0.602060
-1.322219	သ ာ )	-0.477121
-1.623249	သ ာ </s>	0.000000
-1.623249	သ ာ စ	-0.301030
-1.623249	သ ာ တ	-0.301030
-1.322219	သ ာ ဖ	-0.477121
-1.322219	သ ာ မ	-0.477121
-1.623249	သ ာ ရ	-0.301030
-0.924279	သ ာ လ	-0.425969
-1.322219	သ ာ သ	-0.477121
-1.623249	သ ာ အ	-0.301030
-0.509306	သ ာ း	-0.455932
-1.544068	သ ိ စ	-0.301030
-0.942008	သ ိ ပ	-0.367977
-0.698970	သ ိ မ	-0.903090
-0.265314	သ ိ ု	-0.865301
-0.875061	သ ီ ခ	-0.477121
-0.875061	သ ီ ပ	-0.477121
-1.176091	သ ီ မ	-0.301030
-1.176091	သ ီ သ	-0.301030
-0.875061	သ ီ အ	-0.301030
-1.176091	သ ီ း	-0.301030
-1.544068	သ ု ည	-0.301030
-1.544068	သ ု တ	-0.301030
-1.544068	သ ု ပ	-0.301030
-0.096910	သ ု ံ	-1.462398
-1.342423	သ ူ )	-0.301030
-0.740363	သ ူ </s>	0.000000
-0.439333	သ ူ န	-0.954243
-1.342423	သ ူ သ	-0.301030
-0.865301	သ ူ အ	-0.602060
-2.060698	သ ေ တ	-0.301030
-0.101656	သ ေ ာ	-0.903090
-0.759668	သ ေ း	-0.778151
-1.000000	သ ံ </s>	0.000000
-0.698970	သ ံ တ	-0.477121
-1.000000	သ ံ ထ	-0.301030
-0.698970	သ ံ ပ	-0.477121
-0.301030	သ ြ ာ	-0.301030
-0.634729	သ ွ င	-1.230449
-1.537819	သ ွ ယ	-0.477121
-0.391691	သ ွ ာ	-1.462398
-0.560095	သ ွ ေ	-1.021189
-0.096910	ဟ င ်	-0.698970
-0.301030	ဟ န ်	-0.301030
-0.154902	ဟ ာ ရ	-0.380211
-1.000000	ဟ ာ သ	-0.301030
-0.026329	ဟ ု တ	-1.230449
-0.301030	အ = က	-0.301030
-0.301030	အ i t	-0.301030
-1.732394	အ က </s>	0.000000
-1.732394	အ က န	-0.301030
-1.033424	အ က ူ	-0.544068
-0.732394	အ က ေ	-1.041393
-1.732394	အ က ်	-0.301030
-1.431364	အ က ျ	-0.301030
-0.352183	အ က ြ	-0.845098
-1.431364	အ က ွ	-0.301030
-1.393575	အ ခ က	-0.477121
-1.217484	အ ခ င	-0.845098
-1.217484	အ ခ န	-0.845098
-1.995635	အ ခ မ	-0.301030
-0.916454	အ ခ ါ	-0.433656
-1.393575	အ ခ ဲ	-0.367977
-1.995635	အ ခ ်	-0.301030
-0.564271	အ ခ ျ	-1.161368
-0.533237	အ ခ ြ	-1.190332
-0.079181	အ င ်	-0.544068
-2.056905	အ စ က	-0.301030
-1.102662	အ စ ဉ	-1.000000
-2.056905	အ စ ည	-0.301030
-2.056905	အ စ ပ	-0.301030
-1.579784	အ စ ဥ	-0.602060
-0.237361	အ စ ာ	-0.812913
-1.278754	အ စ ိ	-0.477121
-0.778151	အ စ ီ	-1.021189
-0.367977	အ ဆ င	-0.740363
-1.021189	အ ဆ စ	-0.477121
-1.322219	အ ဆ ု	-0.301030
-0.623249	အ ဆ ေ	-0.778151
-0.301030	အ ည စ	-0.903090
-1.146128	အ ည ိ	-0.301030
-0.669007	အ ည ီ	-0.301030
-1.361728	အ တ က	-0.301030
-0.516630	အ တ ည	-0.903090
-1.060698	အ တ ိ	-0.477121
-0.407485	အ တ ွ	-0.740363
-0.477121	အ ထ ည	-1.041393
-1.000000	အ ထ ပ	-0.602060
-1.176091	အ ထ ာ	-0.477121
-1.477121	အ ထ ိ	-0.301030
-1.000000	အ ထ ူ	-0.602060
-1.000000	အ ထ ေ	-0.602060
-1.477121	အ ထ ွ	-0.301030
-0.124939	အ ဓ ိ	-0.602060
-1.716003	အ န က	-0.301030
-0.870905	အ န ည	-0.903090
-0.870905	အ န ာ	-0.439333
-1.017033	အ န ီ	-0.778151
-0.373581	အ န ေ	-0.574031
-1.414973	အ န ်	-0.477121
-1.716003	အ န ွ	-0.301030
-1.066947	အ ပ တ	-0.602060
-1.544068	အ ပ န	-0.301030
-1.544068	အ ပ ိ	-0.301030
-0.845098	အ ပ ူ	-0.425969
-1.066947	အ ပ ေ	-0.602060
-1.243038	အ ပ ်	-0.477121
-1.544068	အ ပ ျ	-0.301030
-0.502675	အ ပ ြ	-0.669007
-1.204120	အ ဖ ု	-0.301030
-0.903090	အ ဖ ျ	-0.477121
-0.301030	အ ဖ ြ	-0.698970
-1.204120	အ ဖ ွ	-0.301030
-0.860338	အ မ ည	-0.698970
-1.462398	အ မ ိ	-0.301030
-1.462398	အ မ ်	-0.301030
-0.508155	အ မ ျ	-0.740363
-0.763428	အ မ ြ	-0.352183
-0.985277	အ မ ှ	-0.397940
-0.893947	အ ရ င	-0.845098
-0.973128	အ ရ ည	-0.778151
-1.672098	အ ရ န	-0.301030
-1.672098	အ ရ ပ	-0.301030
-1.371068	အ ရ ာ	-0.301030
-1.371068	အ ရ ိ	-0.477121
-1.371068	အ ရ ု	-0.477121
-0.558155	အ ရ ေ	-0.628389
-1.672098	အ ရ ံ	-0.301030
-1.070038	အ ရ ွ	-0.477121
-1.176091	အ လ က	-0.602060
-1.653213	အ လ င	-0.301030
-1.051153	အ လ ည	-0.698970
-1.653213	အ လ တ	-0.301030
-1.653213	အ လ ယ	-0.301030
-1.352183	အ လ ာ	-0.301030
-1.051153	အ လ ိ	-0.698970
-1.352183	အ လ ု	-0.477121
-1.653213	အ လ ေ	-0.301030
-1.653213	အ လ ဲ	-0.301030
-1.176091	အ လ ျ	-0.602060
-0.954243	အ လ ွ	-0.778151
-1.051153	အ လ ှ	-0.477121
-1.681241	အ ဝ င	-0.301030
-0.113040	အ ဝ တ	-1.579784
-1.380211	အ ဝ ပ	-0.477121
-1.380211	အ ဝ ါ	-0.301030
-1.681241	အ ဝ ေ	-0.301030
-0.770033	အ သ က	-1.000000
-1.724276	အ သ တ	-0.301030
-1.724276	အ သ န	-0.301030
-1.122216	အ သ ာ	-0.698970
-1.423246	အ သ ိ	-0.301030
-0.578148	အ သ ု	-1.176091
-0.682883	အ သ ေ	-0.812913
-1.247155	အ သ ံ	-0.397940
-0.176091	အ အ ေ	-0.477121
-0.301030	အ ဦ ရ	-0.301030
-1.135663	အ ာ ခ	-0.397940
-1.311754	အ ာ မ	-0.477121
-1.612784	အ ာ ရ	-0.301030
-0.767686	အ ာ ဟ	-0.903090
-1.612784	အ ာ ့	-0.301030
-0.290565	အ ာ း	-0.602060
-1.342423	အ ိ တ	-0.602060
-0.301030	အ ိ ပ	-1.243038
-0.518514	အ ိ မ	-1.322219
-1.041393	အ ိ ု	-0.301030
-0.602060	အ ီ မ	-0.301030
-0.602060	အ ီ း	-0.301030
-0.367977	အ ု ပ	-0.602060
-0.544068	အ ု ရ	-0.477121
-1.342423	အ ေ (	-0.301030
-0.166331	အ ေ ာ	-0.676694
-0.865301	အ ေ း	-0.397940
-0.124939	အ ျ ေ	-0.602060
-1.278754	ဥ ် </s>	0.000000
-1.278754	ဥ ် က	-0.301030
-1.278754	ဥ ် တ	-0.301030
-0.977724	ဥ ် န	-0.477121
-0.977724	ဥ ် မ	-0.301030
-1.278754	ဥ ် သ	-0.301030
-1.278754	ဥ ် အ	-0.301030
-0.977724	ဥ ် း	-0.301030
-0.301030	ဦ ရ ွ	-0.301030
-0.552842	ဦ း ခ	-0.653213
-1.397940	ဦ း ဆ	-0.301030
-1.397940	ဦ း တ	-0.301030
-1.096910	ဦ း န	-0.477121
-0.795880	ဦ း ရ	-0.477121
-1.397940	ဦ း သ	-0.301030
-1.096910	ဦ း အ	-0.301030
-0.176091	ဧ ည ့	-0.477121
-0.176091	ါ ( စ	-0.477121
-0.301030	ါ Z a	-0.301030
-1.000000	ါ က ိ	-0.301030
-0.698970	ါ က ု	-0.477121
-0.397940	ါ က ်	-0.367977
-0.301030	ါ ခ ြ	-0.301030
-0.020203	ါ င ်	-0.795880
-0.301030	ါ ဆ ေ	-0.301030
-0.301030	ါ ဇ ယ	-0.301030
-0.057992	ါ တ ်	-0.380211
-0.301030	ါ န ှ	-0.301030
-0.301030	ါ ဖ ြ	-0.301030
-0.903090	ါ မ ေ	-0.301030
-0.204120	ါ မ ှ	-0.544068
-0.903090	ါ ရ ိ	-0.301030
-0.425969	ါ ရ ု	-0.602060
-0.903090	ါ ရ ေ	-0.301030
-0.301030	ါ ဝ င	-0.698970
-0.602060	ါ ဝ တ	-0.477121
-1.462398	ါ သ ည	-0.301030
-1.161368	ါ သ ဘ	-0.477121
-0.348455	ါ သ လ	-0.875061
-0.985277	ါ သ ု	-0.602060
-0.763428	ါ သ ေ	-0.778151
-0.954243	ါ အ သ	-0.301030
-0.653213	ါ အ ာ	-0.477121
-0.954243	ါ အ ိ	-0.301030
-0.954243	ါ အ ျ	-0.301030
-0.301030	ါ ဦ း	-0.301030
-0.602060	ါ း က	-0.301030
-1.079181	ါ း စ	-0.301030
-1.079181	ါ း န	-0.301030
-1.079181	ါ း မ	-0.301030
-1.079181	ါ း သ	-0.301030
-1.505150	ါ ် )	-0.301030
-1.028029	ါ ် </s>	0.000000
-1.505150	ါ ် က	-0.301030
-1.204120	ါ ် ခ	-0.477121
-1.028029	ါ ် ပ	-0.397940
-1.204120	ါ ် မ	-0.301030
-1.505150	ါ ် ယ	-0.301030
-1.505150	ါ ် ရ	-0.301030
-1.204120	ါ ် လ	-0.477121
-1.505150	ါ ် ဝ	-0.301030
-1.204120	ါ ် သ	-0.301030
-1.505150	ါ ် အ	-0.301030
-0.301030	ါ ၊ ရ	-0.301030
-0.602060	ာ ( သ	-0.301030
-0.602060	ာ ( အ	-0.301030
-0.066947	ာ ) </s>	0.000000
-0.602060	ာ - က	-0.301030
-0.602060	ာ - အ	-0.301030
-1.646730	ာ က တ	-0.602060
-2.123852	ာ က ယ	-0.301030
-1.169609	ာ က ိ	-1.000000
-1.646730	ာ က ု	-0.602060
-0.141580	ာ က ်	-0.781944
-1.044670	ာ က ျ	-0.602060
-1.822822	ာ က ွ	-0.477121
-1.105510	ာ ခ င	-0.698970
-1.707570	ာ ခ ါ	-0.301030
-0.593627	ာ ခ ိ	-1.146128
-0.862472	ာ ခ ေ	-0.903090
-1.406540	ာ ခ ံ	-0.477121
-1.008600	ာ ခ ျ	-0.425969
-0.628389	ာ ခ ြ	-1.113943
-0.051153	ာ ဂ ါ	-0.477121
-0.781584	ာ င ့	-1.342423
-0.086770	ာ င ်	-0.925754
-0.778151	ာ စ က	-0.602060
-1.255273	ာ စ စ	-0.301030
-1.255273	ာ စ တ	-0.301030
-0.410174	ာ စ ာ	-0.522879
-1.255273	ာ စ ေ	-0.301030
-0.845098	ာ ဆ န	-0.301030
-0.845098	ာ ဆ ိ	-0.477121
-0.669007	ာ ဆ ီ	-0.602060
-0.669007	ာ ဆ ေ	-0.397940
-1.301030	ာ ဏ )	-0.301030
-0.187087	ာ ဏ </s>	0.000000
-1.301030	ာ ဏ မ	-0.301030
-1.301030	ာ ဏ အ	-0.301030
-1.380211	ာ တ ပ	-0.301030
-1.380211	ာ တ ာ	-0.301030
-1.079181	ာ တ ဲ	-0.477121
-1.380211	ာ တ ံ	-0.301030
-0.477121	ာ တ ်	-0.414973
-0.681241	ာ တ ွ	-0.544068
-0.778151	ာ ထ ခ	-0.477121
-0.602060	ာ ထ ည	-0.602060
-1.079181	ာ ထ ာ	-0.301030
-0.778151	ာ ထ ဲ	-0.301030
-0.301030	ာ ဒ ါ	-0.301030
-0.433656	ာ န </s>	0.000000
-0.977724	ာ န င	-0.477121
-1.278754	ာ န ာ	-0.301030
-0.801632	ာ န ိ	-0.602060
-1.278754	ာ န ေ	-0.301030
-1.698970	ာ ပ တ	-0.301030
-1.698970	ာ ပ ထ	-0.301030
-1.698970	ာ ပ န	-0.301030
-0.795880	ာ ပ မ	-0.954243
-1.000000	ာ ပ ါ	-0.778151
-1.000000	ာ ပ ိ	-0.778151
-1.698970	ာ ပ ု	-0.301030
-1.397940	ာ ပ ေ	-0.301030
-1.698970	ာ ပ ံ	-0.301030
-0.522879	ာ ပ ြ	-0.676694
-0.778151	ာ ဖ က	-0.301030
-0.301030	ာ ဖ ြ	-0.397940
-0.301030	ာ ဗ မ	-0.301030
-1.518514	ာ မ က	-0.301030
-1.217484	ာ မ ခ	-0.477121
-1.041393	ာ မ စ	-0.602060
-1.217484	ာ မ န	-0.477121
-1.518514	ာ မ ရ	-0.301030
-1.518514	ာ မ ာ	-0.301030
-1.518514	ာ မ ိ	-0.301030
-0.615424	ာ မ ျ	-0.564271
-1.518514	ာ မ ွ	-0.301030
-1.041393	ာ မ ှ	-0.301030
-0.301030	ာ ယ က	-0.602060
-0.778151	ာ ယ ေ	-0.301030
-1.397940	ာ ရ </s>	0.000000
-1.397940	ာ ရ င	-0.477121
-1.397940	ာ ရ စ	-0.477121
-1.698970	ာ ရ ဆ	-0.301030
-1.698970	ာ ရ ည	-0.301030
-1.698970	ာ ရ ဓ	-0.301030
-1.698970	ာ ရ န	-0.301030
-1.698970	ာ ရ ပ	-0.301030
-1.698970	ာ ရ ဖ	-0.301030
-1.698970	ာ ရ ာ	-0.301030
-1.698970	ာ ရ ိ	-0.301030
-1.698970	ာ ရ ီ	-0.301030
-1.698970	ာ ရ ု	-0.301030
-0.657577	ာ ရ ေ	-0.812913
-1.698970	ာ ရ ွ	-0.301030
-0.920819	ာ ရ ှ	-0.477121
-1.041393	ာ လ က	-0.301030
-1.041393	ာ လ ည	-0.477121
-1.041393	ာ လ မ	-0.477121
-0.740363	ာ လ ု	-0.477121
-1.342423	ာ လ ေ	-0.301030
-1.342423	ာ လ ဲ	-0.301030
-1.342423	ာ လ ံ	-0.301030
-1.342423	ာ လ ှ	-0.301030
-1.096910	ာ ဝ င	-0.477121
-0.494850	ာ ဝ န	-0.954243
-0.443697	ာ ဝ မ	-1.000000
-1.096910	ာ ဝ အ	-0.301030
-1.579784	ာ သ စ	-0.301030
-1.579784	ာ သ ည	-0.301030
-1.278754	ာ သ န	-0.477121
-0.676694	ာ သ ာ	-0.414973
-0.801632	ာ သ ီ	-0.397940
-1.579784	ာ သ ု	-0.301030
-0.734686	ာ သ ေ	-0.903090
-0.977724	ာ သ ွ	-0.477121
-0.057992	ာ ဟ ာ	-0.903090
-0.918330	ာ အ က	-0.653213
-0.918330	ာ အ ခ	-0.439333
-1.763428	ာ အ င	-0.301030
-1.161368	ာ အ စ	-0.477121
-1.763428	ာ အ န	-0.301030
-1.462398	ာ အ ပ	-0.301030
-1.763428	ာ အ ရ	-0.301030
-1.763428	ာ အ ဝ	-0.301030
-1.064458	ာ အ သ	-0.425969
-1.161368	ာ အ ာ	-0.477121
-0.918330	ာ အ ိ	-0.653213
-1.286307	ာ အ ု	-0.397940
-1.462398	ာ အ ေ	-0.477121
-0.301030	ာ ဧ ည	-0.301030
-0.929419	ာ ့ </s>	0.000000
-1.230449	ာ ့ ခ	-0.301030
-1.230449	ာ ့ ဘ	-0.301030
-1.230449	ာ ့ ရ	-0.301030
-1.230449	ာ ့ လ	-0.301030
-0.929419	ာ ့ သ	-0.477121
-0.929419	ာ ့ အ	-0.301030
-1.814248	ာ း (	-0.425969
-2.036096	ာ း /	-0.301030
-0.850460	ာ း </s>	0.000000
-2.212188	ာ း ?	-0.301030
-1.257945	ာ း က	-0.602060
-0.911158	ာ း ခ	-1.041393
-2.513218	ာ း ဂ	-0.301030
-1.911158	ာ း စ	-0.477121
-2.036096	ာ း ဆ	-0.301030
-2.513218	ာ း ဌ	-0.301030
-1.668120	ာ း တ	-0.380211
-1.668120	ာ း ထ	-0.439333
-2.036096	ာ း ဓ	-0.397940
-1.735066	ာ း န	-0.477121
-1.282769	ာ း ပ	-0.643453
-1.610128	ာ း ဖ	-0.564271
-2.513218	ာ း ဘ	-0.301030
-1.170795	ာ း မ	-0.732394
-2.212188	ာ း ယ	-0.301030
-1.471825	ာ း ရ	-0.574031
-1.337126	ာ း လ	-0.544068
-2.036096	ာ း ဝ	-0.301030
-0.879749	ာ း သ	-0.912045
-1.282769	ာ း အ	-0.431364
-1.911158	ာ း ၊	-0.367977
-1.911158	ာ း ။	-0.477121
-2.513218	ာ း ၏	-0.301030
-1.911158	ာ း →	-0.477121
-0.785330	ာ ် </s>	0.000000
-1.785330	ာ ် က	-0.301030
-0.882240	ာ ် ခ	-0.954243
-1.308209	ာ ် စ	-0.397940
-1.785330	ာ ် ဆ	-0.301030
-1.484300	ာ ် တ	-0.477121
-1.484300	ာ ် ပ	-0.477121
-1.007179	ာ ် ဖ	-0.477121
-1.183270	ာ ် မ	-0.698970
-1.183270	ာ ် ရ	-0.477121
-1.086360	ာ ် လ	-0.425969
-1.785330	ာ ် သ	-0.301030
-1.785330	ာ ် အ	-0.301030
-0.301030	ာ ၊ စ	-0.301030
-0.301030	ာ ၏ အ	-0.301030
-0.698970	ိ က လ	-0.301030
-0.397940	ိ က ဟ	-0.477121
-0.801632	ိ ခ ိ	-0.602060
-1.278754	ိ ခ ျ	-0.301030
-0.199572	ိ ခ ြ	-1.113943
-0.301030	ိ ဂ ျ	-0.301030
-0.602060	ိ စ စ	-0.301030
-0.602060	ိ စ ိ	-0.301030
-0.301030	ိ ဆ န	-0.301030
-0.033000	ိ တ ်	-0.569875
-1.612784	ိ တ ွ	-0.301030
-0.301030	ိ ထ ာ	-0.301030
-1.308209	ိ န စ	-0.602060
-1.308209	ိ န ေ	-0.397940
-0.086360	ိ န ်	-0.713210
-1.785330	ိ န ှ	-0.301030
-1.748188	ိ ပ ါ	-0.301030
-1.748188	ိ ပ ေ	-0.301030
-1.748188	ိ ပ ္	-0.301030
-0.076090	ိ ပ ်	-0.664208
-1.748188	ိ ပ ြ	-0.301030
-0.079181	ိ ဘ ာ	-0.778151
-1.716003	ိ မ ရ	-0.301030
-0.937852	ိ မ ိ	-0.602060
-1.716003	ိ မ ေ	-0.301030
-1.716003	ိ မ ့	-0.301030
-0.136220	ိ မ ်	-0.619789
-0.176091	ိ ယ ာ	-0.477121
-0.954243	ိ ရ လ	-0.301030
-0.954243	ိ ရ ာ	-0.301030
-0.653213	ိ ရ ိ	-0.477121
-0.954243	ိ ရ ှ	-0.301030
-0.301030	ိ လ စ	-0.301030
-0.845098	ိ သ ည	-0.301030
-0.243038	ိ သ ာ	-0.477121
-0.096910	ိ အ ာ	-0.698970
-2.557507	ိ ု /	-0.301030
-2.557507	ိ ု </s>	0.000000
-0.885409	ိ ု က	-1.017033
-1.557507	ိ ု ခ	-0.636822
-2.557507	ိ ု ဂ	-0.301030
-0.598466	ိ ု င	-1.963788
-1.478326	ိ ု စ	-0.477121
-1.779356	ိ ု ဆ	-0.602060
-2.557507	ိ ု ည	-0.301030
-1.712409	ိ ု တ	-0.439333
-2.557507	ိ ု ထ	-0.301030
-2.080386	ိ ု န	-0.397940
-1.955447	ိ ု ပ	-0.367977
-2.256477	ိ ု ဖ	-0.301030
-2.557507	ိ ု ဘ	-0.301030
-1.712409	ိ ု မ	-0.439333
-1.177296	ိ ု ယ	-1.113943
-1.557507	ိ ု ရ	-0.544068
-2.256477	ိ ု လ	-0.301030
-2.557507	ိ ု ဝ	-0.301030
-2.557507	ိ ု သ	-0.301030
-1.955447	ိ ု အ	-0.367977
-2.557507	ိ ု ု	-0.301030
-1.110349	ိ ု ့	-0.579784
-0.724998	ိ ု း	-0.794542
-2.557507	ိ ု ၍	-0.301030
-0.301030	ိ ူ း	-0.301030
-0.301030	ိ ှ ု	-0.301030
-0.903090	ီ ( ပ	-0.301030
-0.903090	ီ ( မ	-0.301030
-0.903090	ီ ( ဝ	-0.301030
-0.903090	ီ ( အ	-0.301030
-0.124939	ီ ) </s>	0.000000
-0.301030	ီ က ွ	-0.301030
-0.433656	ီ ခ န	-0.903090
-0.977724	ီ ခ ျ	-0.477121
-0.433656	ီ ခ ြ	-0.903090
-0.079181	ီ ဂ ျ	-0.778151
-1.230449	ီ စ စ	-0.301030
-1.230449	ီ စ ာ	-0.301030
-0.276206	ီ စ ီ	-0.740363
-0.929419	ီ စ ေ	-0.477121
-0.124939	ီ ဆ ေ	-0.602060
-0.124939	ီ တ ာ	-0.397940
-1.176091	ီ ပ န	-0.301030
-1.176091	ီ ပ ါ	-0.301030
-1.176091	ီ ပ ေ	-0.301030
-1.176091	ီ ပ ံ	-0.301030
-0.698970	ီ ပ ြ	-0.397940
-0.875061	ီ ပ ွ	-0.477121
-0.602060	ီ ဖ ု	-0.301030
-0.602060	ီ ဖ ြ	-0.301030
-1.146128	ီ မ ရ	-0.301030
-1.146128	ီ မ သ	-0.301030
-0.845098	ီ မ ီ	-0.477121
-0.544068	ီ မ ံ	-0.477121
-1.146128	ီ မ ှ	-0.301030
-0.301030	ီ ယ ိ	-0.301030
-0.602060	ီ ရ င	-0.301030
-0.602060	ီ ရ ဲ	-0.301030
-0.653213	ီ လ ာ	-0.477121
-0.954243	ီ လ ိ	-0.301030
-0.954243	ီ လ ီ	-0.301030
-0.954243	ီ လ ဲ	-0.301030
-0.845098	ီ သ ာ	-0.301030
-0.544068	ီ သ ိ	-0.477121
-0.845098	ီ သ ွ	-0.301030
-0.301030	ီ အ စ	-0.845098
-0.602060	ီ အ ရ	-0.845098
-1.380211	ီ အ လ	-0.301030
-1.380211	ီ အ ဝ	-0.301030
-2.012837	ီ း (	-0.301030
-1.711807	ီ း )	-0.477121
-2.012837	ီ း /	-0.301030
-1.167739	ီ း </s>	0.000000
-1.313867	ီ း က	-0.778151
-1.313867	ီ း ခ	-0.544068
-2.012837	ီ း ဂ	-0.301030
-2.012837	ီ း စ	-0.301030
-1.711807	ီ း ဆ	-0.477121
-1.234686	ီ း တ	-0.602060
-1.313867	ီ း ထ	-0.425969
-1.535716	ီ း န	-0.602060
-1.234686	ီ း ပ	-0.477121
-1.711807	ီ း ဖ	-0.301030
-1.535716	ီ း မ	-0.397940
-1.535716	ီ း ယ	-0.397940
-1.535716	ီ း ရ	-0.602060
-1.234686	ီ း လ	-0.397940
-1.535716	ီ း ဝ	-0.602060
-1.012837	ီ း သ	-0.636822
-1.167739	ီ း အ	-0.653213
-0.301030	ီ ၊ ဆ	-0.301030
-1.000000	ု ( တ	-0.301030
-1.000000	ု ( လ	-0.301030
-1.000000	ု ( အ	-0.301030
-1.000000	ု ( ၁	-0.301030
-1.000000	ု ( ၂	-0.301030
-0.602060	ု ) </s>	0.000000
-0.602060	ု ) ၏	-0.301030
-0.301030	ု / မ	-0.301030
-1.832509	ု က စ	-0.301030
-1.230449	ု က ိ	-0.698970
-0.987411	ု က ု	-0.903090
-1.531479	ု က ူ	-0.477121
-1.832509	ု က ေ	-0.301030
-0.189056	ု က ်	-0.554881
-1.531479	ု က ြ	-0.301030
-0.819544	ု ခ ေ	-0.778151
-0.819544	ု ခ ံ	-0.778151
-0.916454	ု ခ ျ	-0.301030
-0.342423	ု ခ ြ	-1.204120
-0.301030	ု ဂ ု	-0.301030
-0.004746	ု င ်	-0.903090
-1.278754	ု စ က	-0.477121
-1.102662	ု စ စ	-0.602060
-1.278754	ု စ ည	-0.477121
-1.579784	ု စ ိ	-0.301030
-1.579784	ု စ ီ	-0.301030
-0.403692	ု စ ု	-0.676694
-0.734686	ု စ ေ	-0.903090
-1.176091	ု ဆ ရ	-0.301030
-0.875061	ု ဆ ိ	-0.477121
-1.176091	ု ဆ ု	-0.301030
-0.330993	ု ဆ ေ	-0.653213
-0.778151	ု ည ရ	-0.301030
-0.778151	ု ည ွ	-0.301030
-0.778151	ု ည ှ	-0.301030
-0.176091	ု ဌ ာ	-0.477121
-0.176091	ု ဏ ်	-0.477121
-0.985277	ု တ င	-0.845098
-1.763428	ု တ စ	-0.301030
-1.286307	ု တ ာ	-0.602060
-1.763428	ု တ ု	-0.301030
-1.763428	ု တ ေ	-0.301030
-0.183644	ု တ ်	-0.528274
-1.763428	ု တ ွ	-0.301030
-1.000000	ု ထ ာ	-0.301030
-1.000000	ု ထ ိ	-0.301030
-0.301030	ု ထ ု	-0.778151
-1.361728	ု န ေ	-0.301030
-0.621365	ု န ့	-1.079181
-0.282547	ု န ်	-0.954243
-0.963788	ု န ှ	-0.544068
-1.944483	ု ပ မ	-0.301030
-1.944483	ု ပ ါ	-0.301030
-1.944483	ု ပ ု	-0.301030
-1.467361	ု ပ ေ	-0.397940
-0.111974	ု ပ ်	-0.767686
-1.166331	ု ပ ြ	-0.602060
-1.944483	ု ပ ွ	-0.301030
-0.845098	ု ဖ န	-0.301030
-0.845098	ု ဖ ု	-0.301030
-0.544068	ု ဖ ြ	-0.477121
-0.176091	ု ဘ ွ	-0.477121
-1.447158	ု မ ည	-0.301030
-1.447158	ု မ ပ	-0.301030
-0.669007	ု မ ရ	-0.845098
-1.447158	ု မ ီ	-0.301030
-0.970037	ု မ ျ	-0.602060
-0.447158	ု မ ှ	-0.636822
-1.431364	ု ယ ့	-0.301030
-0.051153	ု ယ ်	-0.646264
-1.130334	ု ရ ခ	-0.477121
-0.954243	ု ရ သ	-0.602060
-1.431364	ု ရ ာ	-0.301030
-1.130334	ု ရ ီ	-0.301030
-0.829304	ု ရ ေ	-0.698970
-0.477121	ု ရ ှ	-0.740363
-1.491362	ု လ က	-0.301030
-1.014240	ု လ ာ	-0.602060
-0.236089	ု လ ု	-1.278754
-1.014240	ု လ ေ	-0.397940
-1.491362	ု လ ှ	-0.301030
-0.301030	ု ဝ ေ	-0.301030
-0.717855	ု သ ခ	-1.000000
-1.070038	ု သ ည	-0.698970
-0.973128	ု သ န	-0.544068
-1.672098	ု သ ပ	-0.301030
-0.525970	ု သ မ	-0.903090
-1.371068	ု သ သ	-0.477121
-1.194977	ု သ ူ	-0.397940
-1.672098	ု သ ေ	-0.301030
-0.812913	ု အ က	-0.367977
-0.716003	ု အ ခ	-0.778151
-1.414973	ု အ စ	-0.301030
-0.937852	ု အ ဆ	-0.602060
-1.113943	ု အ ပ	-0.477121
-1.414973	ု အ သ	-0.301030
-0.937852	ု အ ာ	-0.602060
-0.301030	ု ု ယ	-0.301030
-1.310238	ု ံ </s>	0.000000
-1.678215	ု ံ က	-0.301030
-1.854306	ု ံ ခ	-0.477121
-1.155336	ု ံ စ	-0.778151
-1.678215	ု ံ ဆ	-0.602060
-1.252246	ု ံ တ	-0.698970
-1.678215	ု ံ ပ	-0.397940
-0.854306	ု ံ မ	-0.884607
-1.854306	ု ံ ရ	-0.301030
-2.155336	ု ံ လ	-0.301030
-1.678215	ု ံ ့	-0.397940
-0.362944	ု ံ း	-0.710399
-1.553276	ု ံ ၁	-0.698970
-2.155336	ု ံ ၂	-0.301030
-1.301030	ု ့ ခ	-0.477121
-1.000000	ု ့ စ	-0.477121
-0.903090	ု ့ ဆ	-0.544068
-1.301030	ု ့ ည	-0.477121
-1.301030	ု ့ တ	-0.477121
-1.602060	ု ့ ထ	-0.301030
-1.602060	ု ့ န	-0.301030
-1.124939	ု ့ ပ	-0.602060
-0.698970	ု ့ မ	-0.698970
-1.301030	ု ့ သ	-0.477121
-1.607455	ု း )	-0.477121
-1.607455	ု း </s>	0.000000
-1.063387	ု း က	-0.380211
-0.546757	ု း ခ	-0.829304
-1.607455	ု း စ	-0.301030
-1.431364	ု း တ	-0.602060
-1.908485	ု း န	-0.301030
-1.908485	ု း ဖ	-0.301030
-1.607455	ု း မ	-0.301030
-0.762357	ု း ရ	-0.753328
-1.607455	ု း ဝ	-0.477121
-1.431364	ု း သ	-0.397940
-1.130334	ု း အ	-0.477121
-0.301030	ု ၊ အ	-0.301030
-0.301030	ု ၍ </s>	0.000000
-0.301030	ု ၏ ည	-0.301030
-0.301030	ူ ) </s>	0.000000
-0.301030	ူ က ြ	-0.301030
-0.801632	ူ ခ ျ	-0.602060
-0.132626	ူ ခ ြ	-1.176091
-0.301030	ူ စ က	-0.301030
-0.301030	ူ ဆ ေ	-0.301030
-0.029963	ူ ည ီ	-0.653213
-0.778151	ူ တ ည	-0.301030
-0.778151	ူ တ ာ	-0.301030
-0.778151	ူ တ ိ	-0.301030
-0.096910	ူ ထ ေ	-0.698970
-0.204120	ူ န ာ	-0.636822
-1.204120	ူ န ိ	-0.301030
-0.903090	ူ န ှ	-0.301030
-0.602060	ူ ပ ိ	-0.301030
-0.602060	ူ ပ ေ	-0.301030
-0.301030	ူ ဖ တ	-0.301030
-0.124939	ူ ဘ ေ	-0.602060
-0.301030	ူ မ မ	-0.301030
-0.778151	ူ ရ သ	-0.301030
-0.778151	ူ ရ ီ	-0.301030
-0.778151	ူ ရ ေ	-0.301030
-0.425969	ူ လ င	-0.602060
-0.903090	ူ လ ု	-0.301030
-0.903090	ူ လ ျ	-0.301030
-0.954243	ူ သ ိ	-0.301030
-0.954243	ူ သ ေ	-0.301030
-0.653213	ူ သ ံ	-0.477121
-0.954243	ူ သ ွ	-0.301030
-1.176091	ူ အ က	-0.301030
-0.875061	ူ အ ည	-0.477121
-1.176091	ူ အ ထ	-0.301030
-0.698970	ူ အ မ	-0.602060
-1.176091	ူ အ ရ	-0.301030
-1.176091	ူ အ ိ	-0.301030
-1.000000	ူ း က	-0.477121
-1.000000	ူ း ခ	-0.477121
-1.000000	ူ း စ	-0.301030
-1.301030	ူ း ဆ	-0.301030
-1.301030	ူ း မ	-0.301030
-1.301030	ူ း ယ	-0.301030
-1.301030	ူ း သ	-0.301030
-1.000000	ူ း အ	-0.477121
-0.602060	ေ ( စ	-0.301030
-0.602060	ေ ( အ	-0.301030
-0.176091	ေ ) </s>	0.000000
-0.903090	ေ က အ	-0.301030
-0.903090	ေ က ာ	-0.301030
-0.425969	ေ က ိ	-0.602060
-1.204120	ေ ခ ခ	-0.477121
-1.505150	ေ ခ အ	-0.301030
-1.204120	ေ ခ ဲ	-0.301030
-1.505150	ေ ခ ံ	-0.301030
-0.391207	ေ ခ ျ	-1.146128
-0.660052	ေ ခ ြ	-0.903090
-0.301030	ေ စ ာ	-0.301030
-0.602060	ေ ဆ က	-0.301030
-0.602060	ေ ဆ ေ	-0.301030
-0.477121	ေ တ ္	-0.477121
-0.477121	ေ တ ွ	-0.301030
-1.113943	ေ ထ ာ	-0.301030
-0.812913	ေ ထ ိ	-0.477121
-0.511883	ေ ထ ေ	-0.698970
-0.812913	ေ ထ ွ	-0.301030
-0.301030	ေ ဒ ီ	-0.301030
-0.425969	ေ ဓ ါ	-0.602060
-0.425969	ေ ဓ ာ	-0.602060
-0.653213	ေ န ပ	-0.477121
-0.954243	ေ န ီ	-0.301030
-0.477121	ေ န ွ	-0.602060
-0.681241	ေ ပ တ	-0.778151
-0.903090	ေ ပ န	-0.602060
-0.903090	ေ ပ ေ	-0.397940
-0.535113	ေ ပ ြ	-0.653213
-1.380211	ေ ပ ွ	-0.301030
-0.602060	ေ ဖ ိ	-0.301030
-0.602060	ေ ဖ ြ	-0.301030
-0.301030	ေ ဘ ာ	-0.301030
-0.301030	ေ မ ျ	-0.477121
-0.602060	ေ မ ှ	-0.477121
-0.324511	ေ ရ ာ	-0.447158
-1.278754	ေ ရ ွ	-0.301030
-0.500602	ေ ရ ှ	-0.845098
-0.954243	ေ လ ာ	-0.301030
-0.653213	ေ လ ဲ	-0.477121
-0.477121	ေ လ ှ	-0.602060
-0.602060	ေ ဝ င	-0.301030
-0.602060	ေ ဝ ဲ	-0.301030
-1.301030	ေ သ က	-0.301030
-0.698970	ေ သ ည	-0.477121
-1.301030	ေ သ တ	-0.301030
-0.698970	ေ သ န	-0.698970
-1.301030	ေ သ ဘ	-0.301030
-0.823909	ေ သ ေ	-0.602060
-0.301030	ေ ဟ န	-0.301030
-1.556303	ေ အ စ	-0.301030
-1.556303	ေ အ တ	-0.301030
-1.255273	ေ အ ထ	-0.477121
-0.277549	ေ အ န	-1.301030
-1.556303	ေ အ လ	-0.301030
-1.079181	ေ အ ာ	-0.397940
-1.255273	ေ အ ေ	-0.301030
-0.301030	ေ ဦ း	-0.301030
-1.079181	ေ ါ က	-0.698970
-0.359022	ေ ါ င	-1.342423
-0.380211	ေ ါ ်	-0.425969
-2.610660	ေ ာ (	-0.301030
-2.309630	ေ ာ )	-0.477121
-1.288441	ေ ာ </s>	0.000000
-0.619434	ေ ာ က	-1.527200
-1.832509	ေ ာ ခ	-0.477121
-1.707570	ေ ာ ဂ	-0.954243
-0.513750	ေ ာ င	-1.802774
-1.765562	ေ ာ ဆ	-0.439333
-2.133539	ေ ာ တ	-0.397940
-2.610660	ေ ာ ထ	-0.301030
-1.309630	ေ ာ ပ	-0.586266
-1.911690	ေ ာ မ	-0.352183
-2.610660	ေ ာ ယ	-0.301030
-2.610660	ေ ာ ရ	-0.301030
-2.133539	ေ ာ လ	-0.397940
-1.656418	ေ ာ ဝ	-1.000000
-2.309630	ေ ာ သ	-0.477121
-1.380211	ေ ာ အ	-0.535113
-1.707570	ေ ာ ့	-0.330993
-0.929419	ေ ာ ်	-0.671386
-2.610660	ေ ာ ၊	-0.301030
-1.243038	ေ ့ </s>	0.000000
-0.566344	ေ ့ က	-1.021189
-1.367977	ေ ့ ခ	-0.397940
-1.367977	ေ ့ စ	-0.397940
-1.544068	ေ ့ ဆ	-0.477121
-1.845098	ေ ့ ဌ	-0.301030
-1.146128	ေ ့ ပ	-0.544068
-1.845098	ေ ့ ဖ	-0.301030
-1.243038	ေ ့ ရ	-0.477121
-1.544068	ေ ့ လ	-0.301030
-1.845098	ေ ့ သ	-0.301030
-0.803705	ေ ့ အ	-0.669007
-1.845098	ေ ့ ျ	-0.301030
-2.416641	ေ း )	-0.301030
-1.054913	ေ း </s>	0.000000
-1.337459	ေ း က	-0.602060
-0.735399	ေ း ခ	-1.230449
-1.939519	ေ း င	-0.397940
-0.954243	ေ း စ	-0.765917
-1.638489	ေ း ဆ	-0.477121
-2.416641	ေ း ည	-0.301030
-1.814581	ေ း တ	-0.477121
-1.074218	ေ း ထ	-0.669007
-1.939519	ေ း ဓ	-0.397940
-1.462398	ေ း န	-0.447158
-1.161368	ေ း ပ	-0.602060
-1.571542	ေ း ဖ	-0.522879
-2.416641	ေ း ဘ	-0.301030
-1.571542	ေ း မ	-0.522879
-2.416641	ေ း ယ	-0.301030
-1.186192	ေ း ရ	-0.720159
-1.814581	ေ း လ	-0.367977
-1.638489	ေ း ဝ	-0.602060
-1.375248	ေ း သ	-0.669007
-1.814581	ေ း အ	-0.367977
-2.416641	ေ း ဦ	-0.301030
-0.301030	ဲ / အ	-0.301030
-0.096910	ဲ ? </s>	0.000000
-0.176091	ဲ က ျ	-0.477121
-1.301030	ဲ ခ င	-0.301030
-0.070581	ဲ ခ ြ	-0.977724
-0.778151	ဲ စ ာ	-0.301030
-0.778151	ဲ စ ိ	-0.301030
-0.778151	ဲ စ ေ	-0.301030
-0.176091	ဲ တ ေ	-1.041393
-0.698970	ဲ တ ွ	-0.602060
-0.096910	ဲ ထ ာ	-0.698970
-0.602060	ဲ န ေ	-0.301030
-0.602060	ဲ န ှ	-0.301030
-0.176091	ဲ ပ ြ	-0.301030
-0.698970	ဲ မ ျ	-0.301030
-0.397940	ဲ မ ှ	-0.477121
-0.397940	ဲ ရ သ	-0.477121
-0.698970	ဲ ရ ှ	-0.301030
-1.161368	ဲ လ ာ	-0.301030
-1.462398	ဲ လ ဲ	-0.301030
-0.985277	ဲ လ ျ	-0.397940
-0.183644	ဲ လ ှ	-1.301030
-0.698970	ဲ သ ည	-0.602060
-0.698970	ဲ သ လ	-0.602060
-0.574031	ဲ သ ေ	-0.477121
-1.176091	ဲ သ ွ	-0.301030
-0.875061	ဲ အ က	-0.477121
-1.176091	ဲ အ စ	-0.301030
-0.875061	ဲ အ ဖ	-0.477121
-0.875061	ဲ အ ရ	-0.477121
-1.176091	ဲ အ ဝ	-0.301030
-1.176091	ဲ အ ု	-0.301030
-0.079181	ဲ ့ အ	-0.425969
-0.301030	ဲ ၊ အ	-0.301030
-0.124939	ဲ ။ </s>	0.000000
-0.301030	ဵ အ ခ	-0.301030
-0.301030	ဵ ၍ စ	-0.301030
-0.301030	ံ ) </s>	0.000000
-0.544068	ံ က ိ	-0.301030
-0.845098	ံ က ျ	-0.301030
-0.845098	ံ က ြ	-0.301030
-0.669007	ံ ခ န	-0.602060
-0.845098	ံ ခ ျ	-0.477121
-0.367977	ံ ခ ြ	-0.602060
-0.301030	ံ ဂ ျ	-0.301030
-0.823909	ံ စ က	-0.397940
-0.823909	ံ စ ာ	-0.301030
-1.301030	ံ စ ီ	-0.301030
-0.346787	ံ စ ံ	-0.359022
-0.124939	ံ ဆ င	-0.602060
-0.516630	ံ တ က	-0.903090
-1.060698	ံ တ င	-0.477121
-1.060698	ံ တ ရ	-0.477121
-0.458638	ံ တ ွ	-0.698970
-0.301030	ံ ထ ု	-0.301030
-0.301030	ံ ဒ ီ	-0.301030
-0.301030	ံ န က	-0.301030
-0.544068	ံ ပ င	-0.698970
-1.146128	ံ ပ န	-0.301030
-0.669007	ံ ပ ါ	-0.397940
-0.845098	ံ ပ ြ	-0.477121
-0.301030	ံ ဖ ြ	-0.301030
-0.602060	ံ ဘ ီ	-0.301030
-0.602060	ံ ဘ ေ	-0.301030
-1.361728	ံ မ ဆ	-0.301030
-1.361728	ံ မ ျ	-0.301030
-0.106455	ံ မ ှ	-0.845098
-0.066947	ံ ယ ူ	-0.845098
-0.903090	ံ ရ န	-0.301030
-0.903090	ံ ရ ေ	-0.301030
-0.425969	ံ ရ ှ	-0.602060
-0.397940	ံ လ ဲ	-0.477121
-0.698970	ံ လ ှ	-0.301030
-0.698970	ံ သ လ	-0.301030
-0.397940	ံ သ ူ	-0.301030
-0.301030	ံ ဟ င	-0.301030
-0.903090	ံ အ က	-0.301030
-0.903090	ံ အ ဝ	-0.301030
-0.903090	ံ အ ီ	-0.301030
-0.903090	ံ အ ေ	-0.301030
-0.301030	ံ ု ံ	-0.301030
-0.845098	ံ ့ ဆ	-0.477121
-1.146128	ံ ့ န	-0.301030
-0.367977	ံ ့ ပ	-0.845098
-1.146128	ံ ့ မ	-0.301030
-1.041393	ံ း </s>	0.000000
-1.886491	ံ း က	-0.301030
-1.409369	ံ း ခ	-0.301030
-1.886491	ံ း ဂ	-0.301030
-1.886491	ံ း စ	-0.301030
-0.656042	ံ း ပ	-0.643453
-1.585461	ံ း ဖ	-0.301030
-1.886491	ံ း ဘ	-0.301030
-1.187521	ံ း မ	-0.425969
-1.409369	ံ း ရ	-0.397940
-1.187521	ံ း လ	-0.778151
-1.585461	ံ း ဝ	-0.477121
-1.108339	ံ း သ	-0.397940
-1.041393	ံ း အ	-0.522879
-1.886491	ံ း ၅	-0.301030
-0.176091	ံ ှ ု	-0.477121
-0.096910	ံ ၁ ပ	-0.698970
-0.301030	ံ ၂ ပ	-0.301030
-0.653213	့ ( ဆ	-0.477121
-0.653213	့ ( တ	-0.477121
-0.653213	့ ( ရ	-0.477121
-0.066947	့ က ျ	-1.278754
-1.322219	့ က ြ	-0.301030
-0.903090	့ ခ ျ	-0.301030
-0.204120	့ ခ ြ	-0.778151
-0.812913	့ စ က	-0.477121
-1.113943	့ စ စ	-0.301030
-0.812913	့ စ ဉ	-0.477121
-1.113943	့ စ ဥ	-0.301030
-0.812913	့ စ ်	-0.477121
-1.079181	့ ဆ က	-0.301030
-0.778151	့ ဆ ု	-0.477121
-0.301030	့ ဆ ေ	-0.845098
-0.176091	့ ည ှ	-0.477121
-0.301030	့ ဌ ာ	-0.301030
-0.176091	့ တ ိ	-0.477121
-0.301030	့ ထ က	-0.301030
-0.602060	့ န ယ	-0.301030
-0.602060	့ န ိ	-0.301030
-0.452298	့ ပ ိ	-0.602060
-0.385351	့ ပ ြ	-0.903090
-1.230449	့ ပ ွ	-0.301030
-0.301030	့ ဖ ျ	-0.301030
-0.301030	့ ဘ ရ	-0.301030
-0.196295	့ မ ဟ	-0.903090
-0.740363	့ မ ှ	-0.301030
-0.425969	့ ရ က	-0.602060
-0.903090	့ ရ သ	-0.301030
-0.903090	့ ရ ေ	-0.301030
-0.778151	့ လ ည	-0.301030
-0.778151	့ လ ု	-0.301030
-0.778151	့ လ ျ	-0.301030
-0.367977	့ သ ေ	-0.602060
-0.544068	့ သ ွ	-0.477121
-0.477121	့ အ က	-1.000000
-0.954243	့ အ ခ	-0.602060
-1.431364	့ အ စ	-0.301030
-1.130334	့ အ န	-0.301030
-1.431364	့ အ ပ	-0.301030
-1.431364	့ အ လ	-0.301030
-1.431364	့ အ သ	-0.301030
-1.431364	့ အ ျ	-0.301030
-2.456366	့ ် )	-0.301030
-1.456366	့ ် </s>	0.000000
-1.177612	့ ် က	-0.619789
-0.740363	့ ် ခ	-1.146128
-2.456366	့ ် ဂ	-0.301030
-2.456366	့ ် င	-0.301030
-1.502124	့ ် စ	-0.511883
-1.252246	့ ် ဆ	-0.623249
-2.456366	့ ် ဇ	-0.301030
-2.456366	့ ် ည	-0.301030
-2.456366	့ ် ဌ	-0.301030
-1.979245	့ ် တ	-0.301030
-1.979245	့ ် ထ	-0.397940
-2.155336	့ ် န	-0.301030
-0.951216	့ ် ပ	-0.698970
-1.979245	့ ် ဖ	-0.301030
-2.155336	့ ် ဘ	-0.301030
-1.553276	့ ် မ	-0.367977
-1.041393	့ ် ရ	-1.146128
-2.155336	့ ် လ	-0.301030
-1.854306	့ ် ဝ	-0.477121
-1.225917	့ ် သ	-0.643453
-0.766170	့ ် အ	-0.608793
-0.301030	့ ျ ခ	-0.301030
-1.633468	း ( d	-0.301030
-1.633468	း ( က	-0.301030
-1.633468	း ( စ	-0.301030
-1.633468	း ( ဆ	-0.301030
-1.156347	း ( ည	-0.602060
-1.633468	း ( န	-0.301030
-1.332438	း ( ပ	-0.301030
-1.156347	း ( မ	-0.397940
-1.633468	း ( ယ	-0.301030
-1.633468	း ( ရ	-0.301030
-1.633468	း ( ဝ	-0.301030
-1.633468	း ( သ	-0.301030
-0.519525	း ( အ	-0.419129
-0.019305	း ) </s>	0.000000
-0.778151	း - က	-0.397940
-1.255273	း - န	-0.301030
-0.213880	း - အ	-0.574031
-1.301030	း / က	-0.301030
-1.301030	း / စ	-0.301030
-0.823909	း / ထ	-0.602060
-1.301030	း / န	-0.301030
-1.000000	း / ပ	-0.301030
-1.000000	း / မ	-0.301030
-1.301030	း / လ	-0.301030
-1.301030	း / အ	-0.301030
-0.602060	း ? (	-0.301030
-0.602060	း ? )	-0.301030
-1.209515	း က စ	-0.778151
-0.732394	း က ပ	-1.204120
-1.908485	း က ဘ	-0.301030
-0.794542	း က ိ	-1.146128
-1.130334	း က ု	-0.602060
-1.209515	း က ူ	-0.778151
-1.607455	း က ေ	-0.477121
-1.130334	း က ျ	-0.397940
-0.732394	း က ြ	-0.602060
-1.431364	း က ွ	-0.301030
-2.303196	း ခ င	-0.301030
-2.303196	း ခ န	-0.301030
-2.303196	း ခ ပ	-0.301030
-2.303196	း ခ ု	-0.301030
-1.826075	း ခ ေ	-0.602060
-2.002166	း ခ ံ	-0.301030
-0.840798	း ခ ျ	-0.711204
-0.127105	း ခ ြ	-1.707570
-1.701136	း ခ ွ	-0.477121
-0.199572	း ဂ ဏ	-1.113943
-1.278754	း ဂ ိ	-0.301030
-1.278754	း ဂ ု	-0.301030
-1.278754	း ဂ ေ	-0.301030
-0.301030	း င ယ	-0.845098
-0.477121	း င ွ	-0.698970
-1.210853	း စ က	-0.477121
-1.210853	း စ စ	-0.698970
-1.511883	း စ ဉ	-0.477121
-1.812913	း စ ည	-0.301030
-1.812913	း စ န	-0.301030
-1.812913	း စ ပ	-0.301030
-1.812913	း စ သ	-0.301030
-1.511883	း စ ဥ	-0.477121
-0.967815	း စ ာ	-0.522879
-0.733732	း စ ိ	-0.845098
-1.511883	း စ ီ	-0.301030
-1.335792	း စ ု	-0.301030
-1.511883	း စ ေ	-0.477121
-0.858671	း စ ွ	-0.740363
-1.662758	း ဆ </s>	0.000000
-1.662758	း ဆ ည	-0.301030
-1.185637	း ဆ န	-0.602060
-1.662758	း ဆ ရ	-0.301030
-0.662758	း ဆ ိ	-1.041393
-1.361728	း ဆ ီ	-0.301030
-0.817660	း ဆ ု	-0.653213
-0.759668	း ဆ ေ	-0.564271
-1.060698	း ဆ ွ	-0.698970
-0.698970	း ည ွ	-0.301030
-0.397940	း ည ှ	-0.477121
-0.301030	း ဌ ာ	-0.301030
-1.096910	း တ က	-0.698970
-1.698970	း တ င	-0.301030
-1.221849	း တ စ	-0.602060
-0.698970	း တ န	-1.041393
-1.096910	း တ ပ	-0.698970
-1.698970	း တ မ	-0.301030
-1.698970	း တ ာ	-0.301030
-1.000000	း တ ိ	-0.778151
-1.096910	း တ ု	-0.477121
-1.698970	း တ ူ	-0.301030
-1.000000	း တ ွ	-0.778151
-1.755875	း ထ စ	-0.301030
-0.551755	း ထ ည	-1.230449
-1.755875	း ထ မ	-0.301030
-0.910777	း ထ ာ	-0.903090
-0.910777	း ထ ိ	-0.903090
-1.755875	း ထ ု	-0.301030
-1.454845	း ထ ူ	-0.301030
-1.278754	း ထ ေ	-0.602060
-1.278754	း ထ ဲ	-0.397940
-0.977724	း ထ ွ	-0.845098
-0.301030	း ဒ ေ	-0.301030
-0.425969	း ဓ ါ	-0.602060
-0.425969	း ဓ ာ	-0.602060
-1.690196	း န ည	-0.301030
-1.690196	း န ယ	-0.301030
-0.648803	း န ိ	-1.079181
-1.690196	း န ီ	-0.301030
-0.912045	း န ေ	-0.397940
-1.213075	း န ွ	-0.397940
-0.411442	း န ှ	-0.865301
-1.752048	း ပ င	-0.477121
-1.752048	း ပ စ	-0.477121
-1.752048	း ပ ည	-0.477121
-1.752048	း ပ မ	-0.477121
-2.053078	း ပ လ	-0.301030
-1.752048	း ပ သ	-0.477121
-1.098836	း ပ ါ	-0.511883
-1.053078	း ပ ိ	-0.778151
-1.575957	း ပ ု	-0.602060
-2.053078	း ပ ူ	-0.301030
-1.053078	း ပ ေ	-0.778151
-2.053078	း ပ ဲ	-0.301030
-2.053078	း ပ ံ	-0.301030
-2.053078	း ပ ျ	-0.301030
-0.440295	း ပ ြ	-0.836143
-1.098836	း ပ ွ	-0.740363
-1.462398	း ဖ န	-0.301030
-1.161368	း ဖ ာ	-0.477121
-0.763428	း ဖ ိ	-0.425969
-1.161368	း ဖ ေ	-0.477121
-0.383217	း ဖ ြ	-0.433656
-1.462398	း ဖ ွ	-0.301030
-0.176091	း ဗ ိ	-0.477121
-1.113943	း ဘ က	-0.301030
-0.335792	း ဘ ီ	-0.477121
-1.113943	း ဘ ု	-0.301030
-1.113943	း ဘ ဲ	-0.301030
-1.944483	း မ က	-0.301030
-1.467361	း မ စ	-0.602060
-1.245513	း မ ထ	-0.778151
-1.944483	း မ ပ	-0.301030
-1.944483	း မ ဖ	-0.301030
-1.944483	း မ မ	-0.301030
-1.467361	း မ ရ	-0.301030
-1.944483	း မ သ	-0.301030
-1.245513	း မ ာ	-0.544068
-1.342423	း မ ီ	-0.367977
-1.944483	း မ ူ	-0.301030
-1.643453	း မ ေ	-0.301030
-1.944483	း မ ်	-0.301030
-1.342423	း မ ျ	-0.477121
-1.467361	း မ ြ	-0.397940
-0.388180	း မ ှ	-0.913814
-1.113943	း ယ စ	-0.301030
-0.812913	း ယ ပ	-0.301030
-1.113943	း ယ ာ	-0.301030
-1.113943	း ယ ိ	-0.301030
-1.113943	း ယ ံ	-0.301030
-1.113943	း ယ ွ	-0.301030
-1.986772	း ရ င	-0.301030
-1.986772	း ရ စ	-0.301030
-1.509650	း ရ န	-0.602060
-1.986772	း ရ မ	-0.301030
-1.685742	း ရ သ	-0.477121
-1.509650	း ရ ာ	-0.397940
-1.685742	း ရ ိ	-0.477121
-0.907590	း ရ ု	-1.113943
-0.296576	း ရ ေ	-0.962211
-1.986772	း ရ ံ	-0.301030
-1.208620	း ရ ွ	-0.342423
-1.384712	း ရ ှ	-0.477121
-1.550228	း လ က	-0.301030
-1.851258	း လ င	-0.301030
-1.550228	း လ စ	-0.301030
-1.851258	း လ န	-0.301030
-1.249198	း လ မ	-0.698970
-1.851258	း လ ာ	-0.301030
-1.851258	း လ ိ	-0.301030
-0.897016	း လ ု	-0.740363
-1.851258	း လ ူ	-0.301030
-1.374137	း လ ေ	-0.602060
-0.572505	း လ ဲ	-0.865301
-0.851258	း လ ျ	-0.778151
-1.249198	း လ ှ	-0.477121
-1.041393	း ဝ င	-0.477121
-1.342423	း ဝ တ	-0.301030
-1.342423	း ဝ န	-0.301030
-0.643453	း ဝ မ	-0.778151
-1.041393	း ဝ ယ	-0.477121
-0.643453	း ဝ ါ	-0.544068
-2.096910	း သ က	-0.301030
-0.754487	း သ ည	-1.079181
-1.397940	း သ တ	-0.544068
-1.619789	း သ န	-0.397940
-1.795880	း သ ပ	-0.477121
-1.795880	း သ မ	-0.477121
-2.096910	း သ ယ	-0.301030
-1.795880	း သ ာ	-0.477121
-1.017729	း သ ိ	-0.845098
-1.494850	း သ ု	-0.698970
-1.619789	း သ ူ	-0.301030
-0.494850	း သ ေ	-1.612784
-0.920819	း သ ွ	-0.778151
-1.954243	း အ က	-0.301030
-1.000000	း အ ခ	-0.740363
-1.954243	း အ င	-0.301030
-0.912850	း အ စ	-0.669007
-1.255273	း အ ဆ	-0.544068
-1.255273	း အ တ	-0.544068
-1.954243	း အ ထ	-0.301030
-1.352183	း အ န	-0.477121
-1.954243	း အ ပ	-0.301030
-1.255273	း အ ဖ	-0.544068
-1.954243	း အ မ	-0.301030
-1.255273	း အ ရ	-0.425969
-1.109144	း အ လ	-0.301030
-1.477121	း အ သ	-0.397940
-1.477121	း အ ာ	-0.602060
-0.954243	း အ ိ	-0.544068
-1.954243	း အ ု	-0.301030
-0.301030	း ဦ း	-0.301030
-0.397940	း ့ </s>	0.000000
-0.698970	း ့ စ	-0.301030
-0.301030	း ျ ခ	-0.301030
-0.301030	း ၅ ဦ	-0.301030
-1.079181	း ၊ U	-0.301030
-1.079181	း ၊ ည	-0.301030
-0.778151	း ၊ ဒ	-0.477121
-1.079181	း ၊ ရ	-0.301030
-0.778151	း ၊ အ	-0.301030
-0.301030	း ။ </s>	0.000000
-0.778151	း ။ စ	-0.301030
-0.301030	း ၏ ဒ	-0.301030
-0.477121	း → ည	-0.477121
-0.477121	း → ပ	-0.477121
-0.301030	း （ ℃	-0.301030
-0.243038	္ က ူ	-0.477121
-0.845098	္ က ျ	-0.301030
-0.255273	္ ခ ဏ	-0.778151
-0.653213	္ ခ ဒ	-0.477121
-0.301030	္ ဂ ါ	-0.301030
-0.124939	္ စ ည	-0.602060
-0.301030	္ ဌ ာ	-0.301030
-0.778151	္ တ ခ	-0.301030
-0.778151	္ တ ာ	-0.301030
-0.778151	္ တ ံ	-0.301030
-0.602060	္ ဒ </s>	0.000000
-0.602060	္ ဒ အ	-0.301030
-0.045757	္ ဓ ာ	-0.602060
-0.301030	္ မ ီ	-0.301030
-0.602060	် ( v	-0.301030
-0.602060	် ( စ	-0.301030
-0.037789	် ) </s>	0.000000
-0.176091	် - အ	-0.301030
-0.602060	် / မ	-0.301030
-0.602060	် / လ	-0.301030
-0.301030	် v i	-0.301030
-1.278754	် က စ	-0.778151
-1.676694	် က န	-0.301030
-1.977724	် က ပ	-0.301030
-1.977724	် က ယ	-0.301030
-1.676694	် က ာ	-0.301030
-0.655504	် က ိ	-1.060698
-0.698970	် က ု	-0.865301
-1.500602	် က ူ	-0.397940
-1.977724	် က း	-0.301030
-1.023481	် က ျ	-0.447158
-0.722451	် က ြ	-0.602060
-1.977724	် က ွ	-0.301030
-2.176091	် ခ င	-0.477121
-1.330993	် ခ န	-0.753328
-2.477121	် ခ မ	-0.301030
-2.000000	် ခ ရ	-0.397940
-2.000000	် ခ ါ	-0.602060
-1.875061	် ခ ု	-0.367977
-2.477121	် ခ ေ	-0.301030
-2.477121	် ခ ဲ	-0.301030
-1.363178	် ခ ံ	-0.500602
-1.154902	် ခ ျ	-0.653213
-0.132729	် ခ ြ	-2.047275
-1.875061	် ခ ွ	-0.477121
-0.544068	် ဂ ဏ	-0.477121
-0.845098	် ဂ ျ	-0.301030
-0.845098	် ဂ ွ	-0.301030
-0.301030	် င ွ	-0.301030
-0.987411	် စ က	-0.653213
-1.355388	် စ င	-0.602060
-1.230449	် စ ဉ	-0.698970
-1.832509	် စ မ	-0.301030
-1.531479	် စ ဥ	-0.477121
-0.929419	် စ ာ	-0.477121
-1.054358	် စ ိ	-0.845098
-1.230449	် စ ု	-0.367977
-0.832509	် စ ေ	-0.636822
-0.718566	် စ ွ	-0.556303
-1.995635	် ဆ က	-0.301030
-0.819544	် ဆ င	-1.204120
-1.995635	် ဆ န	-0.301030
-1.518514	် ဆ ရ	-0.602060
-1.995635	် ဆ ာ	-0.301030
-1.041393	် ဆ ိ	-0.740363
-1.092545	် ဆ ီ	-0.564271
-1.393575	် ဆ ု	-0.477121
-1.518514	် ဆ ူ	-0.602060
-0.415852	် ဆ ေ	-1.301030
-1.995635	် ဆ ံ	-0.301030
-1.518514	် ဆ ွ	-0.397940
-0.301030	် ဇ ယ	-0.301030
-1.146128	် ည စ	-0.301030
-1.146128	် ည မ	-0.301030
-0.845098	် ည အ	-0.477121
-1.146128	် ည ီ	-0.301030
-1.146128	် ည ွ	-0.301030
-0.845098	် ည ှ	-0.301030
-0.176091	် ဌ ာ	-0.477121
-1.472269	် တ က	-0.397940
-1.648360	် တ င	-0.477121
-1.104292	် တ စ	-0.903090
-1.648360	် တ ဆ	-0.477121
-1.949390	် တ ည	-0.301030
-1.949390	် တ န	-0.301030
-1.648360	် တ ပ	-0.477121
-0.745270	် တ မ	-1.230449
-1.648360	် တ ာ	-0.301030
-0.907997	် တ ိ	-0.812913
-1.104292	် တ ီ	-0.653213
-1.648360	် တ ေ	-0.477121
-1.949390	် တ ဲ	-0.301030
-1.648360	် တ ံ	-0.301030
-0.773299	် တ ွ	-0.778151
-1.332438	် ထ ည	-0.477121
-1.332438	် ထ မ	-0.477121
-0.429348	် ထ ာ	-1.230449
-1.156347	် ထ ိ	-0.602060
-1.156347	် ထ ု	-0.602060
-1.031408	် ထ ူ	-0.698970
-0.855317	် ထ ွ	-0.845098
-0.301030	် ဒ ဏ	-0.301030
-1.851258	် န က	-0.301030
-1.073107	် န ည	-0.845098
-1.374137	် န ယ	-0.602060
-1.073107	် န ာ	-0.477121
-0.851258	် န ိ	-1.041393
-1.851258	် န ု	-0.301030
-1.006160	် န ေ	-0.439333
-1.851258	် န ံ	-0.301030
-1.550228	် န ွ	-0.477121
-0.471047	် န ှ	-0.845098
-1.740363	် ပ စ	-0.397940
-1.372386	် ပ တ	-0.903090
-2.217484	် ပ န	-0.301030
-2.217484	် ပ မ	-0.301030
-1.916454	် ပ လ	-0.301030
-1.314394	် ပ ါ	-0.477121
-1.176091	် ပ ိ	-1.079181
-1.518514	် ပ ု	-0.544068
-0.755086	် ပ ေ	-0.916454
-2.217484	် ပ ဲ	-0.301030
-2.217484	် ပ ံ	-0.301030
-1.372386	် ပ ျ	-0.522879
-0.446632	် ပ ြ	-0.838849
-1.013364	် ပ ွ	-0.801632
-1.220108	် ဖ က	-0.778151
-1.919078	် ဖ တ	-0.301030
-1.919078	် ဖ ရ	-0.301030
-0.964836	် ဖ ိ	-1.000000
-1.441957	် ဖ ီ	-0.397940
-1.618048	် ဖ ူ	-0.301030
-0.839897	် ဖ ေ	-1.113943
-1.919078	် ဖ ်	-0.301030
-1.618048	် ဖ ျ	-0.477121
-0.400564	် ဖ ြ	-0.880814
-1.441957	် ဖ ွ	-0.602060
-0.301030	် ဗ မ	-0.301030
-0.653213	် ဘ ယ	-0.477121
-0.954243	် ဘ ာ	-0.301030
-0.954243	် ဘ ိ	-0.301030
-0.954243	် ဘ ေ	-0.301030
-2.176091	် မ က	-0.301030
-1.875061	် မ ဆ	-0.477121
-1.875061	် မ ည	-0.301030
-2.176091	် မ တ	-0.301030
-2.176091	် မ ထ	-0.301030
-1.330993	် မ ပ	-0.653213
-1.574031	် မ ဖ	-0.698970
-1.477121	် မ ရ	-0.352183
-1.698970	် မ သ	-0.301030
-1.477121	် မ ဟ	-0.778151
-1.477121	် မ ာ	-0.425969
-2.176091	် မ ိ	-0.301030
-1.875061	် မ ီ	-0.301030
-1.330993	် မ ု	-0.653213
-2.176091	် မ ူ	-0.301030
-0.713693	် မ ျ	-1.477121
-1.477121	် မ ြ	-0.352183
-0.468521	် မ ှ	-0.918330
-1.447158	် ယ မ	-0.301030
-0.271067	် ယ ာ	-0.425969
-1.447158	် ယ ိ	-0.301030
-0.602060	် ယ ူ	-0.522879
-2.181844	် ရ ခ	-0.301030
-2.181844	် ရ င	-0.301030
-1.482874	် ရ ည	-0.778151
-1.336746	် ရ န	-0.903090
-1.880814	် ရ ပ	-0.477121
-1.579784	် ရ မ	-0.698970
-2.181844	် ရ လ	-0.301030
-1.579784	် ရ သ	-0.698970
-0.839421	် ရ ာ	-0.477121
-1.579784	် ရ ိ	-0.477121
-2.181844	် ရ ီ	-0.301030
-0.977724	် ရ ေ	-0.698970
-1.140451	် ရ ွ	-0.812913
