\data\
ngram 1=113
ngram 2=1232
ngram 3=4076
ngram 4=7487
ngram 5=10330

\1-grams:
-2.518623	%
-3.076646	(
-3.076646	)
-3.691295	-
-2.237797	.
-2.155331	/
-1.660957	</s>
-1.660957	<s>
-4.921744	<unk>
-4.921744	=
-4.018654	?
-4.444622	A
-4.620714	B
-4.444622	D
-4.921744	E
-4.444622	G
-4.620714	H
-4.921744	L
-4.620714	N
-4.620714	O
-4.620714	P
-4.620714	S
-4.319684	T
-4.620714	U
-4.620714	Z
-4.018654	a
-4.620714	c
-4.143592	d
-4.143592	e
-4.018654	g
-3.506770	i
-4.018654	l
-4.620714	m
-4.076646	n
-4.222774	o
-4.620714	p
-4.143592	r
-3.967501	s
-3.967501	t
-4.620714	u
-4.319684	v
-4.620714	w
-4.620714	y
-1.601597	က
-1.421782	ခ
-1.874858	ဂ
-1.418771	င
-2.115564	စ
-1.996432	ဆ
-4.620714	ဇ
-4.620714	ဈ
-3.474586	ဉ
-2.367861	ည
-4.222774	ဌ
-3.108830	ဏ
-2.012723	တ
-2.373969	ထ
-2.153846	ဒ
-3.416594	ဓ
-1.198534	န
-1.578729	ပ
-2.597461	ဖ
-4.018654	ဗ
-3.082895	ဘ
-1.920443	မ
-1.984728	ယ
-1.695144	ရ
-1.883919	လ
-2.785023	ဝ
-1.833962	သ
-2.661672	ဟ
-1.627939	အ
-3.490380	ဦ
-4.620714	ဧ
-1.967984	ါ
-1.529927	ာ
-1.449133	ိ
-1.626397	ီ
-1.277207	ု
-2.086053	ူ
-1.458598	ေ
-2.525544	ဲ
-4.620714	ဵ
-1.991304	ံ
-2.120340	့
-1.200428	း
-3.390265	္
-0.954992	်
-1.609990	ျ
-1.861424	ြ
-1.914850	ွ
-1.568597	ှ
-4.143592	ဿ
-1.778417	၀
-1.821373	၁
-2.548832	၂
-2.036948	၃
-2.597461	၄
-1.884317	၅
-2.195016	၆
-2.194202	၇
-2.103518	၈
-1.997982	၉
-1.697211	၊
-2.165869	။
-4.620714	၌
-3.775616	၍
-3.921744	၏
-4.319684	—
-4.921744	℃
-4.222774	→
-4.921744	（
-4.921744	）

\2-grams:
-0.307869	% </s>	-1.931119
-2.408240	% ရ	-1.931119
-0.307869	% ၊	-1.931119
-1.676694	( N	-0.579784
-1.375664	( d	-0.579784
-1.676694	( v	-0.579784
-1.977724	( က	-0.579784
-1.132626	( စ	-0.579784
-1.676694	( ဆ	-0.579784
-1.500602	( ည	-0.579784
-1.676694	( တ	-0.579784
-1.676694	( ဒ	-0.579784
-1.977724	( န	-0.579784
-1.278754	( ပ	-0.579784
-1.375664	( မ	-0.579784
-1.977724	( ယ	-0.579784
-1.676694	( ရ	-0.579784
-1.977724	( လ	-0.579784
-1.676694	( ဝ	-0.579784
-1.676694	( သ	-0.579784
-0.722451	( အ	-0.579784
-1.676694	( ၁	-0.579784
-1.676694	( ၂	-0.579784
-1.977724	( ၃	-0.579784
-1.977724	( ၄	-0.579784
-1.977724	( ၅	-0.579784
-1.977724	( ၆	-0.579784
-1.977724	( ၇	-0.579784
-0.216386	) </s>	-0.943385
-1.295567	) စ	-0.943385
-1.596597	) တ	-0.943385
-1.596597	) ဒ	-0.943385
-1.897627	) ပ	-0.943385
-1.596597	) ဖ	-0.943385
-1.897627	) မ	-0.943385
-0.943385	) အ	-0.943385
-1.897627	) ၏	-0.943385
-0.698970	- က	-0.823909
-1.301030	- န	-0.823909
-0.221849	- အ	-0.823909
-0.967689	. ၁	-1.737723
-1.100900	. ၂	-1.737723
-1.038753	. ၃	-1.737723
-1.019867	. ၄	-1.737723
-0.906635	. ၅	-1.737723
-0.913814	. ၆	-1.737723
-0.872421	. ၇	-1.737723
-0.943777	. ၈	-1.737723
-0.943777	. ၉	-1.737723
-2.776701	/ က	-1.630573
-2.475671	/ စ	-1.630573
-2.299580	/ ထ	-1.630573
-2.776701	/ န	-1.630573
-2.475671	/ ပ	-1.630573
-2.077731	/ မ	-1.630573
-2.475671	/ လ	-1.630573
-2.174641	/ အ	-1.630573
-0.723623	/ ၁	-1.630573
-0.751395	/ ၅	-1.630573
-0.832219	/ ၆	-1.630573
-0.832219	/ ၇	-1.630573
-0.827311	/ ၈	-1.630573
-0.873611	/ ၉	-1.630573
-2.426511	<s> (	-1.608851
-3.271609	<s> A	-1.608851
-3.271609	<s> B	-1.608851
-2.970579	<s> D	-1.608851
-2.970579	<s> O	-1.608851
-3.271609	<s> P	-1.608851
-3.271609	<s> S	-1.608851
-3.271609	<s> U	-1.608851
-0.483441	<s> က	-1.608851
-1.703408	<s> ခ	-1.608851
-2.230217	<s> ဂ	-1.608851
-2.970579	<s> င	-1.608851
-1.727541	<s> စ	-1.608851
-1.572639	<s> ဆ	-1.608851
-2.970579	<s> ဈ	-1.608851
-1.970579	<s> ည	-1.608851
-1.740130	<s> တ	-1.608851
-1.128595	<s> ထ	-1.608851
-2.125481	<s> ဒ	-1.608851
-1.131730	<s> န	-1.608851
-1.465429	<s> ပ	-1.608851
-2.125481	<s> ဖ	-1.608851
-2.970579	<s> ဗ	-1.608851
-2.095518	<s> ဘ	-1.608851
-1.452065	<s> မ	-1.608851
-2.794488	<s> ယ	-1.608851
-1.508181	<s> ရ	-1.608851
-1.479218	<s> လ	-1.608851
-2.067489	<s> ဝ	-1.608851
-1.171239	<s> သ	-1.608851
-2.794488	<s> ဟ	-1.608851
-0.875410	<s> အ	-1.608851
-2.493458	<s> ဦ	-1.608851
-3.271609	<s> ဧ	-1.608851
-3.271609	<s> ှ	-1.608851
-3.271609	<s> ၀	-1.608851
-2.572639	<s> ၁	-1.608851
-2.572639	<s> ၂	-1.608851
-2.493458	<s> ၃	-1.608851
-3.271609	<s> ၄	-1.608851
-2.970579	<s> ၅	-1.608851
-3.271609	<s> ၆	-1.608851
-3.271609	<s> ၇	-1.608851
-3.271609	<s> ၈	-1.608851
-3.271609	<s> ၉	-1.608851
-3.271609	<s> →	-1.608851
-0.301030	= က	-0.301030
-0.740363	? (	-0.564271
-0.740363	? )	-0.564271
-0.439333	? </s>	-0.564271
-0.698970	A D	-0.397940
-0.397940	A T	-0.397940
-0.176091	B r	-0.477121
-0.698970	D L	-0.397940
-0.397940	D i	-0.397940
-0.301030	E G	-0.301030
-0.397940	G T	-0.397940
-0.698970	G ပ	-0.397940
-0.176091	H A	-0.477121
-0.301030	L လ	-0.301030
-0.176091	N G	-0.477121
-0.176091	O H	-0.477121
-0.602060	P </s>	-0.301030
-0.602060	P E	-0.301030
-0.602060	S P	-0.301030
-0.602060	S S	-0.301030
-0.477121	T )	-0.477121
-0.477121	T အ	-0.477121
-0.176091	U n	-0.477121
-0.176091	Z a	-0.477121
-0.439333	a l	-0.564271
-0.740363	a p	-0.564271
-0.740363	a w	-0.564271
-0.176091	c o	-0.477121
-0.301030	d e	-0.602060
-0.602060	d i	-0.602060
-0.653213	e l	-0.477121
-0.653213	e r	-0.477121
-0.653213	e သ	-0.477121
-0.740363	g i	-0.564271
-0.439333	g n	-0.564271
-0.740363	g y	-0.564271
-1.243038	i a	-0.589826
-1.243038	i c	-0.589826
-0.765917	i g	-0.589826
-1.544068	i o	-0.589826
-1.243038	i r	-0.589826
-1.243038	i s	-0.589826
-0.698970	i t	-0.589826
-1.243038	i u	-0.589826
-1.243038	i သ	-0.589826
-0.740363	l i	-0.564271
-0.439333	l s	-0.564271
-0.740363	l အ	-0.564271
-0.176091	m )	-0.477121
-0.740363	n )	-0.439333
-0.740363	n i	-0.439333
-1.041393	n s	-0.439333
-0.740363	n သ	-0.439333
-0.602060	o d	-0.425969
-0.602060	o l	-0.425969
-0.903090	o ဆ	-0.425969
-0.176091	p e	-0.477121
-0.301030	r i	-0.602060
-0.602060	r လ	-0.602060
-0.812913	s )	-0.511883
-0.511883	s i	-0.511883
-0.812913	s t	-0.511883
-1.113943	s ိ	-0.511883
-0.511883	t a	-0.511883
-1.113943	t i	-0.511883
-0.812913	t o	-0.511883
-0.812913	t s	-0.511883
-0.176091	u m	-0.477121
-0.096910	v i	-0.698970
-0.176091	w g	-0.477121
-0.176091	y i	-0.477121
-3.325721	က </s>	-1.894357
-3.325721	က င	-1.894357
-2.325721	က စ	-1.894357
-2.723661	က တ	-1.894357
-3.024691	က ထ	-1.894357
-2.422631	က န	-1.894357
-2.121601	က ပ	-1.894357
-3.325721	က ဗ	-1.894357
-3.325721	က ဘ	-1.894357
-3.024691	က ယ	-1.894357
-3.325721	က လ	-1.894357
-3.024691	က ဟ	-1.894357
-3.325721	က အ	-1.894357
-1.807207	က ာ	-1.894357
-0.515488	က ိ	-1.894357
-2.626751	က ီ	-1.894357
-1.562293	က ု	-1.894357
-1.769418	က ူ	-1.894357
-1.848600	က ေ	-1.894357
-2.547570	က ဲ	-1.894357
-2.848600	က ံ	-1.894357
-3.325721	က း	-1.894357
-2.179593	က ္	-1.894357
-0.342095	က ်	-1.894357
-1.325721	က ျ	-1.894357
-1.215131	က ြ	-1.894357
-2.121601	က ွ	-1.894357
-2.724822	ခ က	-2.160550
-3.201943	ခ ခ	-2.160550
-2.224219	ခ င	-2.160550
-2.599883	ခ ဏ	-2.160550
-3.201943	ခ တ	-2.160550
-3.201943	ခ ဒ	-2.160550
-1.971494	ခ န	-2.160550
-3.502973	ခ ပ	-2.160550
-3.201943	ခ မ	-2.160550
-2.804003	ခ ရ	-2.160550
-3.502973	ခ အ	-2.160550
-2.141245	ခ ါ	-2.160550
-0.777879	ခ ိ	-2.160550
-0.739545	ခ ု	-2.160550
-2.180754	ခ ေ	-2.160550
-1.525249	ခ ဲ	-2.160550
-3.201943	ခ ဵ	-2.160550
-1.984459	ခ ံ	-2.160550
-3.502973	ခ ်	-2.160550
-0.400883	ခ ျ	-2.160550
-0.786970	ခ ြ	-2.160550
-2.548731	ခ ွ	-2.160550
-1.771626	ဂ ဏ	-2.096137
-0.311599	ဂ ရ	-2.096137
-3.050380	ဂ လ	-2.096137
-2.147290	ဂ ါ	-2.096137
-2.749350	ဂ ိ	-2.096137
-2.448320	ဂ ု	-2.096137
-2.573259	ဂ ေ	-2.096137
-0.332709	ဂ ျ	-2.096137
-2.205282	ဂ ွ	-2.096137
-2.424746	င ယ	-2.658829
-3.503927	င ိ	-2.658829
-1.268398	င ့	-2.658829
-3.202897	င း	-2.658829
-0.028692	င ်	-2.658829
-2.804957	င ြ	-2.658829
-2.804957	င ွ	-2.658829
-1.178061	စ က	-1.459786
-1.821514	စ င	-1.459786
-1.459786	စ စ	-1.459786
-1.459786	စ ဉ	-1.459786
-1.867271	စ ည	-1.459786
-2.344392	စ တ	-1.459786
-2.520484	စ န	-1.459786
-2.344392	စ ပ	-1.459786
-2.219454	စ မ	-1.459786
-2.520484	စ လ	-1.459786
-2.821514	စ သ	-1.459786
-2.821514	စ အ	-1.459786
-0.639670	စ ာ	-1.459786
-1.265211	စ ိ	-1.459786
-1.149416	စ ီ	-1.459786
-1.230449	စ ု	-1.459786
-2.821514	စ ူ	-1.459786
-1.241730	စ ေ	-1.459786
-1.645422	စ ံ	-1.459786
-2.520484	စ း	-1.459786
-2.520484	စ ္	-1.459786
-0.628389	စ ်	-1.459786
-1.390150	စ ွ	-1.459786
-2.934498	ဆ </s>	-1.679226
-2.934498	ဆ n	-1.679226
-1.934498	ဆ က	-1.679226
-1.253257	ဆ င	-1.679226
-2.633468	ဆ စ	-1.679226
-2.934498	ဆ ည	-1.679226
-2.633468	ဆ ထ	-1.679226
-1.980256	ဆ န	-1.679226
-2.934498	ဆ ယ	-1.679226
-2.156347	ဆ ရ	-1.679226
-2.156347	ဆ ာ	-1.679226
-1.378196	ဆ ိ	-1.679226
-0.188643	ဆ ီ	-1.679226
-1.820555	ဆ ု	-1.679226
-2.235528	ဆ ူ	-1.679226
-0.817227	ဆ ေ	-1.679226
-2.332438	ဆ ံ	-1.679226
-1.980256	ဆ ွ	-1.679226
-0.176091	ဇ ယ	-0.477121
-0.176091	ဈ ေ	-0.477121
-0.015240	ဉ ်	-1.462398
-2.571709	ည </s>	-1.395618
-1.341260	ည စ	-1.395618
-2.270679	ည ဆ	-1.395618
-2.270679	ည န	-1.395618
-1.793558	ည ဘ	-1.395618
-2.270679	ည မ	-1.395618
-2.571709	ည ရ	-1.395618
-1.617466	ည အ	-1.395618
-1.793558	ည ာ	-1.395618
-2.571709	ည ိ	-1.395618
-1.173769	ည ီ	-1.395618
-0.485349	ည ့	-1.395618
-0.392732	ည ်	-1.395618
-1.726611	ည ွ	-1.395618
-1.793558	ည ှ	-1.395618
-0.079181	ဌ ာ	-0.778151
-1.880814	ဏ )	-0.839421
-0.766870	ဏ </s>	-0.839421
-1.579784	ဏ စ	-0.839421
-0.602060	ဏ န	-0.839421
-1.579784	ဏ ပ	-0.839421
-1.880814	ဏ မ	-0.839421
-1.579784	ဏ လ	-0.839421
-1.403692	ဏ အ	-0.839421
-0.977724	ဏ ာ	-0.839421
-0.801632	ဏ ်	-0.839421
-1.579784	ဏ ၂	-0.839421
-1.559438	တ က	-1.559438
-2.921166	တ ခ	-1.559438
-1.402652	တ င	-1.559438
-1.277713	တ စ	-1.559438
-2.620136	တ ဆ	-1.559438
-1.775038	တ ည	-1.559438
-1.807223	တ န	-1.559438
-1.642412	တ ပ	-1.559438
-1.540955	တ မ	-1.559438
-0.813956	တ ယ	-1.559438
-2.444045	တ ရ	-1.559438
-1.277713	တ ာ	-1.559438
-1.196890	တ ိ	-1.559438
-2.076068	တ ီ	-1.559438
-1.745075	တ ု	-1.559438
-2.319106	တ ူ	-1.559438
-1.642412	တ ေ	-1.559438
-2.143015	တ ဲ	-1.559438
-2.444045	တ ံ	-1.559438
-2.921166	တ း	-1.559438
-2.620136	တ ္	-1.559438
-0.539149	တ ်	-1.559438
-0.871948	တ ွ	-1.559438
-1.720750	ထ က	-1.389757
-2.264818	ထ ခ	-1.389757
-2.565848	ထ စ	-1.389757
-1.074486	ထ ည	-1.389757
-2.088727	ထ ပ	-1.389757
-0.435514	ထ မ	-1.389757
-2.264818	ထ ရ	-1.389757
-0.817660	ထ ာ	-1.389757
-0.922395	ထ ိ	-1.389757
-1.787697	ထ ု	-1.389757
-1.611605	ထ ူ	-1.389757
-1.335399	ထ ေ	-1.389757
-1.866878	ထ ဲ	-1.389757
-1.662758	ထ ံ	-1.389757
-1.134484	ထ ွ	-1.389757
-2.773786	ဒ </s>	-1.870696
-1.773786	ဒ ဏ	-1.870696
-2.472756	ဒ ရ	-1.870696
-2.773786	ဒ အ	-1.870696
-1.819544	ဒ ါ	-1.870696
-2.074816	ဒ ိ	-1.870696
-0.031061	ဒ ီ	-1.870696
-2.074816	ဒ ေ	-1.870696
-0.765917	ဓ ါ	-1.066947
-0.182340	ဓ ာ	-1.066947
-1.066947	ဓ ိ	-1.066947
-3.025879	န </s>	-2.423819
-2.879751	န က	-2.423819
-3.423819	န င	-2.423819
-2.879751	န စ	-2.423819
-2.168547	န ည	-2.423819
-3.423819	န ပ	-2.423819
-3.724849	န မ	-2.423819
-2.879751	န ယ	-2.423819
-3.423819	န ဦ	-2.423819
-1.968974	န ာ	-2.423819
-2.091381	န ိ	-2.423819
-2.548758	န ီ	-2.423819
-3.122789	န ု	-2.423819
-1.575630	န ေ	-2.423819
-3.247728	န ံ	-2.423819
-1.984486	န ့	-2.423819
-2.645668	န ္	-2.423819
-0.230555	န ်	-2.423819
-2.610906	န ွ	-2.423819
-0.480819	န ှ	-2.423819
-2.870014	ပ က	-2.024915
-2.267954	ပ င	-2.024915
-2.870014	ပ စ	-2.024915
-2.870014	ပ ည	-2.024915
-2.068381	ပ တ	-2.024915
-3.347135	ပ ထ	-2.024915
-2.267954	ပ န	-2.024915
-1.932161	ပ မ	-2.024915
-2.870014	ပ လ	-2.024915
-3.347135	ပ သ	-2.024915
-1.000782	ပ ါ	-2.024915
-1.734351	ပ ိ	-2.024915
-1.540955	ပ ု	-2.024915
-0.607562	ပ ူ	-2.024915
-0.523661	ပ ေ	-2.024915
-3.046105	ပ ဲ	-2.024915
-2.502037	ပ ံ	-2.024915
-1.068381	ပ ်	-2.024915
-2.143015	ပ ျ	-2.024915
-0.827307	ပ ြ	-2.024915
-1.841985	ပ ွ	-2.024915
-1.449093	ဖ က	-1.206054
-1.875061	ဖ တ	-1.206054
-1.750123	ဖ န	-1.206054
-2.352183	ဖ ရ	-1.206054
-2.051153	ဖ ာ	-1.206054
-1.051153	ဖ ိ	-1.206054
-1.875061	ဖ ီ	-1.206054
-1.507084	ဖ ု	-1.206054
-2.051153	ဖ ူ	-1.206054
-1.096910	ဖ ေ	-1.206054
-2.352183	ဖ ်	-1.206054
-1.397940	ဖ ျ	-1.206054
-0.244973	ဖ ြ	-1.206054
-1.653213	ဖ ွ	-1.206054
-0.564271	ဗ မ	-0.564271
-0.439333	ဗ ိ	-0.564271
-1.041393	ဗ ျ	-0.564271
-0.856234	ဘ က	-0.897627
-0.856234	ဘ ယ	-0.897627
-1.897627	ဘ ရ	-0.897627
-0.783684	ဘ ာ	-0.897627
-1.897627	ဘ ိ	-0.897627
-0.693507	ဘ ီ	-0.897627
-1.897627	ဘ ု	-0.897627
-0.897627	ဘ ေ	-0.897627
-1.420506	ဘ ဲ	-0.897627
-1.596597	ဘ ွ	-0.897627
-2.112270	မ က	-1.496846
-2.714330	မ ခ	-1.496846
-0.901416	မ င	-1.496846
-1.936179	မ စ	-1.496846
-2.714330	မ ဆ	-1.496846
-1.714330	မ ည	-1.496846
-2.170262	မ တ	-1.496846
-2.237209	မ ထ	-1.496846
-2.170262	မ န	-1.496846
-2.112270	မ ပ	-1.496846
-2.413300	မ ဖ	-1.496846
-2.714330	မ မ	-1.496846
-2.714330	မ ယ	-1.496846
-1.471292	မ ရ	-1.496846
-2.714330	မ လ	-1.496846
-2.112270	မ သ	-1.496846
-1.600386	မ ဟ	-1.496846
-2.714330	မ အ	-1.496846
-3.015360	မ ဦ	-1.496846
-1.307790	မ ာ	-1.496846
-1.523998	မ ိ	-1.496846
-1.435576	မ ီ	-1.496846
-2.015360	မ ု	-1.496846
-2.237209	မ ူ	-1.496846
-2.112270	မ ေ	-1.496846
-2.413300	မ ံ	-1.496846
-2.316390	မ ့	-1.496846
-3.015360	မ း	-1.496846
-0.777314	မ ်	-1.496846
-1.033089	မ ျ	-1.496846
-1.459057	မ ြ	-1.496846
-1.901416	မ ွ	-1.496846
-0.622663	မ ှ	-1.496846
-2.466373	ယ က	-1.829551
-2.943495	ယ စ	-1.829551
-2.943495	ယ န	-1.829551
-2.943495	ယ ပ	-1.829551
-2.943495	ယ မ	-1.829551
-1.601072	ယ ာ	-1.829551
-2.098396	ယ ိ	-1.829551
-1.688222	ယ ူ	-1.829551
-2.642465	ယ ေ	-1.829551
-2.466373	ယ ံ	-1.829551
-2.943495	ယ ့	-1.829551
-0.038238	ယ ်	-1.829551
-2.943495	ယ ွ	-1.829551
-2.755875	ရ </s>	-1.835056
-2.191603	ရ က	-1.835056
-2.534026	ရ ခ	-1.835056
-2.056905	ရ င	-1.835056
-2.454845	ရ စ	-1.835056
-3.232996	ရ ဆ	-1.835056
-2.119053	ရ ည	-1.835056
-3.232996	ရ ဓ	-1.835056
-1.954243	ရ န	-1.835056
-1.890573	ရ ပ	-1.835056
-3.232996	ရ ဖ	-1.835056
-2.191603	ရ မ	-1.835056
-2.630936	ရ ရ	-1.835056
-2.931966	ရ လ	-1.835056
-2.931966	ရ ဝ	-1.835056
-2.119053	ရ သ	-1.835056
-0.457022	ရ ာ	-1.835056
-2.002547	ရ ိ	-1.835056
-0.489486	ရ ီ	-1.835056
-1.801632	ရ ု	-1.835056
-0.977724	ရ ေ	-1.835056
-2.387898	ရ ဲ	-1.835056
-2.931966	ရ ံ	-1.835056
-1.676694	ရ ွ	-1.835056
-1.099457	ရ ှ	-1.835056
-3.046105	လ </s>	-1.723885
-1.374007	လ က	-1.723885
-2.091862	လ င	-1.723885
-2.568984	လ စ	-1.723885
-1.684377	လ ည	-1.723885
-2.568984	လ တ	-1.723885
-2.745075	လ ထ	-1.723885
-2.568984	လ န	-1.723885
-1.899977	လ မ	-1.723885
-2.004712	လ ယ	-1.723885
-1.305742	လ ာ	-1.723885
-1.583707	လ ိ	-1.723885
-1.364864	လ ီ	-1.723885
-0.237219	လ ု	-1.723885
-2.091862	လ ူ	-1.723885
-1.527591	လ ေ	-1.723885
-1.305742	လ ဲ	-1.723885
-3.046105	လ ်	-1.723885
-1.489802	လ ျ	-1.723885
-1.966924	လ ွ	-1.723885
-1.321829	လ ှ	-1.723885
-2.184691	ဝ %	-0.980571
-2.184691	ဝ </s>	-0.980571
-1.883661	ဝ က	-0.980571
-1.230449	ဝ င	-0.980571
-1.707570	ဝ စ	-0.980571
-0.503450	ဝ တ	-0.980571
-0.980571	ဝ န	-0.980571
-1.883661	ဝ ပ	-0.980571
-0.604908	ဝ မ	-0.980571
-1.883661	ဝ ယ	-0.980571
-2.184691	ဝ ရ	-0.980571
-1.582631	ဝ အ	-0.980571
-1.406540	ဝ ါ	-0.980571
-2.184691	ဝ ိ	-0.980571
-1.883661	ဝ ေ	-0.980571
-2.184691	ဝ ဲ	-0.980571
-1.604505	သ က	-1.734139
-2.141624	သ ခ	-1.734139
-2.141624	သ င	-1.734139
-2.618745	သ စ	-1.734139
-1.166448	သ ည	-1.734139
-1.817113	သ တ	-1.734139
-1.680893	သ န	-1.734139
-2.618745	သ ပ	-1.734139
-1.753444	သ ဖ	-1.734139
-2.396896	သ ဘ	-1.734139
-1.949738	သ မ	-1.734139
-2.618745	သ ယ	-1.734139
-3.095866	သ ရ	-1.734139
-1.604505	သ လ	-1.734139
-2.618745	သ သ	-1.734139
-1.472617	သ ာ	-1.734139
-1.325014	သ ိ	-1.734139
-2.141624	သ ီ	-1.734139
-1.396896	သ ု	-1.734139
-1.734139	သ ူ	-1.734139
-1.016685	သ ေ	-1.734139
-2.250768	သ ံ	-1.734139
-0.282953	သ ွ	-1.734139
-0.154570	ဟ င	-1.572872
-1.970812	ဟ စ	-1.572872
-1.669782	ဟ န	-1.572872
-0.993088	ဟ ာ	-1.572872
-0.856868	ဟ ု	-1.572872
-3.299943	အ =	-1.852785
-3.299943	အ i	-1.852785
-1.454845	အ က	-1.852785
-1.250725	အ ခ	-1.852785
-2.454845	အ င	-1.852785
-1.231757	အ စ	-1.852785
-1.957520	အ ဆ	-1.852785
-2.258550	အ ည	-1.852785
-1.794793	အ တ	-1.852785
-1.902003	အ ထ	-1.852785
-2.822822	အ ဓ	-1.852785
-1.407848	အ န	-1.852785
-0.538015	အ ပ	-1.852785
-1.998913	အ ဖ	-1.852785
-1.822822	အ မ	-1.852785
-1.567549	အ ရ	-1.852785
-1.676694	အ လ	-1.852785
-1.687159	အ ဝ	-1.852785
-1.592373	အ သ	-1.852785
-2.998913	အ အ	-1.852785
-3.299943	အ ဦ	-1.852785
-1.618702	အ ာ	-1.852785
-1.442610	အ ိ	-1.852785
-2.998913	အ ီ	-1.852785
-2.521792	အ ု	-1.852785
-0.570778	အ ေ	-1.852785
-2.998913	အ ဲ	-1.852785
-2.822822	အ ျ	-1.852785
-1.462398	ဦ ရ	-1.161368
-0.047425	ဦ း	-1.161368
-0.176091	ဧ ည	-0.477121
-2.663230	ါ (	-1.621837
-1.663230	ါ </s>	-1.621837
-2.663230	ါ Z	-1.621837
-1.964260	ါ က	-1.621837
-2.964260	ါ ခ	-1.621837
-0.193408	ါ င	-1.621837
-2.964260	ါ ဆ	-1.621837
-2.964260	ါ ဇ	-1.621837
-0.833926	ါ တ	-1.621837
-2.964260	ါ န	-1.621837
-1.964260	ါ ပ	-1.621837
-2.964260	ါ ဖ	-1.621837
-1.885078	ါ မ	-1.621837
-2.362200	ါ ရ	-1.621837
-2.186108	ါ ဝ	-1.621837
-1.384476	ါ သ	-1.621837
-2.362200	ါ အ	-1.621837
-2.964260	ါ ဦ	-1.621837
-1.964260	ါ း	-1.621837
-1.472898	ါ ်	-1.621837
-2.487138	ါ ၊	-1.621837
-1.760140	ါ ။	-1.621837
-2.796227	ာ (	-1.830086
-2.620136	ာ )	-1.830086
-3.097257	ာ -	-1.830086
-3.097257	ာ /	-1.830086
-1.627435	ာ </s>	-1.830086
-0.565778	ာ က	-1.830086
-0.650099	ာ ခ	-1.830086
-2.699317	ာ ဂ	-1.830086
-1.131116	ာ င	-1.830086
-2.194167	ာ စ	-1.830086
-2.356895	ာ ဆ	-1.830086
-3.097257	ာ ည	-1.830086
-1.983314	ာ ဏ	-1.830086
-1.879773	ာ တ	-1.830086
-2.398287	ာ ထ	-1.830086
-2.921166	ာ ဒ	-1.830086
-2.284344	ာ န	-1.830086
-1.547029	ာ ပ	-1.830086
-2.796227	ာ ဖ	-1.830086
-3.097257	ာ ဗ	-1.830086
-3.097257	ာ ဘ	-1.830086
-1.841985	ာ မ	-1.830086
-2.620136	ာ ယ	-1.830086
-1.612957	ာ ရ	-1.830086
-2.194167	ာ လ	-1.830086
-2.018076	ာ ဝ	-1.830086
-1.764819	ာ သ	-1.830086
-2.167838	ာ ဟ	-1.830086
-1.634859	ာ အ	-1.830086
-3.398287	ာ ဧ	-1.830086
-3.097257	ာ ေ	-1.830086
-2.076068	ာ ့	-1.830086
-0.763810	ာ း	-1.830086
-1.726189	ာ ်	-1.830086
-3.097257	ာ ၊	-1.830086
-3.398287	ာ ။	-1.830086
-2.921166	ာ ၏	-1.830086
-2.434133	ိ </s>	-2.174496
-2.998405	ိ က	-2.174496
-2.220253	ိ ခ	-2.174496
-3.475526	ိ ဂ	-2.174496
-3.174496	ိ စ	-2.174496
-3.475526	ိ ဆ	-2.174496
-1.842057	ိ တ	-2.174496
-3.475526	ိ ထ	-2.174496
-0.404381	ိ န	-2.174496
-1.606294	ိ ပ	-2.174496
-2.630428	ိ ဘ	-2.174496
-1.567041	ိ မ	-2.174496
-3.174496	ိ ယ	-2.174496
-2.630428	ိ ရ	-2.174496
-3.475526	ိ လ	-2.174496
-2.245077	ိ သ	-2.174496
-2.572436	ိ အ	-2.174496
-0.296261	ိ ု	-2.174496
-3.475526	ိ ူ	-2.174496
-3.174496	ိ ၍	-2.174496
-2.698101	ီ (	-1.957738
-2.823039	ီ )	-1.957738
-1.551973	ီ </s>	-1.957738
-3.300161	ီ က	-1.957738
-2.096041	ီ ခ	-1.957738
-0.274445	ီ ဂ	-1.957738
-2.186217	ီ စ	-1.957738
-2.823039	ီ ဆ	-1.957738
-1.823039	ီ တ	-1.957738
-2.397071	ီ န	-1.957738
-2.096041	ီ ပ	-1.957738
-2.999131	ီ ဖ	-1.957738
-2.345918	ီ မ	-1.957738
-3.300161	ီ ယ	-1.957738
-2.397071	ီ ရ	-1.957738
-1.559798	ီ လ	-1.957738
-2.522009	ီ သ	-1.957738
-2.044888	ီ အ	-1.957738
-1.118317	ီ း	-1.957738
-0.596869	ီ ၊	-1.957738
-2.823039	ီ ။	-1.957738
-2.698101	ီ ၍	-1.957738
-2.802578	ု (	-2.142526
-3.346646	ု )	-2.142526
-3.647676	ု /	-2.142526
-2.249736	ု </s>	-2.142526
-1.802578	ု က	-2.142526
-2.216313	ု ခ	-2.142526
-2.802578	ု ဂ	-2.142526
-0.830772	ု င	-2.142526
-2.116197	ု စ	-2.142526
-2.471585	ု ဆ	-2.142526
-3.170555	ု ည	-2.142526
-3.647676	ု ဌ	-2.142526
-3.346646	ု ဏ	-2.142526
-1.728598	ု တ	-2.142526
-2.568495	ု ထ	-2.142526
-0.413665	ု န	-2.142526
-1.634839	ု ပ	-2.142526
-3.045616	ု ဖ	-2.142526
-3.346646	ု ဘ	-2.142526
-2.170555	ု မ	-2.142526
-0.886501	ု ယ	-2.142526
-2.392404	ု ရ	-2.142526
-2.004224	ု လ	-2.142526
-3.647676	ု ဝ	-2.142526
-2.034892	ု သ	-2.142526
-2.156315	ု အ	-2.142526
-0.768007	ု ံ	-2.142526
-1.966435	ု ့	-2.142526
-1.693434	ု း	-2.142526
-3.647676	ု ၊	-2.142526
-3.647676	ု ၍	-2.142526
-3.170555	ု ၏	-2.142526
-2.847573	ူ )	-1.568819
-1.944483	ူ </s>	-1.568819
-2.370451	ူ က	-1.568819
-0.100161	ူ ခ	-1.568819
-2.847573	ူ စ	-1.568819
-2.370451	ူ ဆ	-1.568819
-1.525353	ူ ည	-1.568819
-2.069421	ူ တ	-1.568819
-2.245513	ူ ထ	-1.568819
-1.432599	ူ န	-1.568819
-2.546543	ူ ပ	-1.568819
-2.847573	ူ ဖ	-1.568819
-2.370451	ူ ဘ	-1.568819
-2.370451	ူ မ	-1.568819
-2.370451	ူ ရ	-1.568819
-2.002475	ူ လ	-1.568819
-1.944483	ူ သ	-1.568819
-1.806180	ူ အ	-1.568819
-1.671481	ူ း	-1.568819
-3.167022	ေ (	-1.949538
-3.167022	ေ )	-1.949538
-2.354108	ေ </s>	-1.949538
-2.513809	ေ က	-1.949538
-1.990931	ေ ခ	-1.949538
-2.769082	ေ စ	-1.949538
-3.167022	ေ ဆ	-1.949538
-2.689901	ေ တ	-1.949538
-2.426659	ေ ထ	-1.949538
-3.468052	ေ ဒ	-1.949538
-2.426659	ေ ဓ	-1.949538
-2.689901	ေ န	-1.949538
-1.899850	ေ ပ	-1.949538
-2.990931	ေ ဖ	-1.949538
-3.468052	ေ ဘ	-1.949538
-2.564962	ေ မ	-1.949538
-2.053078	ေ ရ	-1.949538
-2.622954	ေ လ	-1.949538
-3.167022	ေ ဝ	-1.949538
-2.106324	ေ သ	-1.949538
-2.689901	ေ ဟ	-1.949538
-1.743776	ေ အ	-1.949538
-3.468052	ေ ဦ	-1.949538
-0.672172	ေ ါ	-1.949538
-0.464591	ေ ာ	-1.949538
-1.494924	ေ ့	-1.949538
-0.513809	ေ း	-1.949538
-2.990931	ေ ၁	-1.949538
-3.167022	ေ ၂	-1.949538
-3.167022	ေ ၃	-1.949538
-3.167022	ေ ၄	-1.949538
-3.167022	ေ ၅	-1.949538
-3.167022	ေ ၍	-1.949538
-2.431364	ဲ /	-1.109144
-1.227244	ဲ </s>	-1.109144
-1.829304	ဲ ?	-1.109144
-1.732394	ဲ က	-1.109144
-1.152610	ဲ ခ	-1.109144
-2.130334	ဲ ဂ	-1.109144
-1.954243	ဲ စ	-1.109144
-2.130334	ဲ ဆ	-1.109144
-1.200915	ဲ တ	-1.109144
-1.829304	ဲ ထ	-1.109144
-1.829304	ဲ န	-1.109144
-1.352183	ဲ ပ	-1.109144
-1.653213	ဲ ဖ	-1.109144
-1.477121	ဲ မ	-1.109144
-2.130334	ဲ ရ	-1.109144
-1.033424	ဲ လ	-1.109144
-1.389971	ဲ သ	-1.109144
-1.477121	ဲ အ	-1.109144
-0.458236	ဲ ့	-1.109144
-2.431364	ဲ ၊	-1.109144
-1.954243	ဲ ။	-1.109144
-0.602060	ဵ အ	-0.301030
-0.602060	ဵ ၍	-0.301030
-2.943495	ံ )	-1.528521
-1.943495	ံ </s>	-1.528521
-2.040405	ံ က	-1.528521
-1.829551	ံ ခ	-1.528521
-2.943495	ံ ဂ	-1.528521
-1.739375	ံ စ	-1.528521
-2.341435	ံ ဆ	-1.528521
-1.545555	ံ တ	-1.528521
-2.943495	ံ ထ	-1.528521
-2.466373	ံ ဒ	-1.528521
-2.943495	ံ န	-1.528521
-1.943495	ံ ပ	-1.528521
-2.943495	ံ ဖ	-1.528521
-2.642465	ံ ဘ	-1.528521
-1.310026	ံ မ	-1.528521
-2.244525	ံ ယ	-1.528521
-1.943495	ံ ရ	-1.528521
-2.642465	ံ လ	-1.528521
-2.098396	ံ သ	-1.528521
-2.943495	ံ ဟ	-1.528521
-2.165343	ံ အ	-1.528521
-2.943495	ံ ု	-1.528521
-1.797366	ံ ့	-1.528521
-0.122637	ံ း	-1.528521
-2.341435	ံ ၁	-1.528521
-2.943495	ံ ၂	-1.528521
-2.337792	့ (	-1.513883
-1.969815	့ </s>	-1.513883
-1.323551	့ က	-1.513883
-1.814913	့ ခ	-1.513883
-2.115943	့ စ	-1.513883
-1.735732	့ ဆ	-1.513883
-2.814913	့ ည	-1.513883
-2.814913	့ ဌ	-1.513883
-2.212853	့ တ	-1.513883
-2.814913	့ ထ	-1.513883
-1.860671	့ န	-1.513883
-0.758008	့ ပ	-1.513883
-2.814913	့ ဘ	-1.513883
-1.559641	့ မ	-1.513883
-1.610793	့ ရ	-1.513883
-1.638822	့ လ	-1.513883
-1.860671	့ သ	-1.513883
-1.513883	့ အ	-1.513883
-0.264685	့ ်	-1.513883
-2.814913	့ ျ	-1.513883
-2.220108	း (	-2.044017
-2.446504	း )	-2.044017
-2.611315	း -	-2.044017
-2.579130	း /	-2.044017
-1.012608	း </s>	-2.044017
-3.123198	း ?	-2.044017
-1.785739	း က	-2.044017
-0.585694	း ခ	-2.044017
-2.521138	း ဂ	-2.044017
-2.521138	း င	-2.044017
-1.822168	း စ	-2.044017
-1.992864	း ဆ	-2.044017
-3.123198	း ည	-2.044017
-3.725258	း ဌ	-2.044017
-1.780775	း တ	-2.044017
-1.912345	း ထ	-2.044017
-3.123198	း ဒ	-2.044017
-2.771016	း ဓ	-2.044017
-1.880160	း န	-2.044017
-0.850197	း ပ	-2.044017
-2.193779	း ဖ	-2.044017
-3.424228	း ဗ	-2.044017
-2.771016	း ဘ	-2.044017
-1.576039	း မ	-2.044017
-2.521138	း ယ	-2.044017
-1.687832	း ရ	-2.044017
-1.785739	း လ	-2.044017
-2.446504	း ဝ	-2.044017
-1.546281	း သ	-2.044017
-1.653376	း အ	-2.044017
-3.725258	း ဦ	-2.044017
-3.248137	း ့	-2.044017
-3.725258	း ျ	-2.044017
-2.382835	း ၀	-2.044017
-1.371150	း ၁	-2.044017
-2.382835	း ၂	-2.044017
-2.345047	း ၃	-2.044017
-2.345047	း ၄	-2.044017
-1.708225	း ၅	-2.044017
-1.720937	း ၆	-2.044017
-1.752130	း ၇	-2.044017
-1.712421	း ၈	-2.044017
-1.676040	း ၉	-2.044017
-2.880160	း ၊	-2.044017
-1.021108	း ။	-2.044017
-3.424228	း ၏	-2.044017
-3.123198	း →	-2.044017
-3.725258	း （	-2.044017
-0.767686	္ က	-0.767686
-0.612784	္ ခ	-0.767686
-1.612784	္ ဂ	-0.767686
-1.311754	္ စ	-0.767686
-1.010724	္ တ	-0.767686
-1.311754	္ ဒ	-0.767686
-0.709694	္ ဓ	-0.767686
-3.123992	် (	-2.270120
-2.764970	် )	-2.270120
-3.668060	် -	-2.270120
-3.668060	် /	-2.270120
-1.728540	် </s>	-2.270120
-3.668060	် v	-2.270120
-1.790113	် က	-2.270120
-1.441460	် ခ	-2.270120
-3.066000	် ဂ	-2.270120
-3.491968	် င	-2.270120
-1.986818	် စ	-2.270120
-1.169060	် ဆ	-2.270120
-3.969090	် ဇ	-2.270120
-3.066000	် ည	-2.270120
-3.668060	် ဌ	-2.270120
-1.931663	် တ	-2.270120
-2.205662	် ထ	-2.270120
-3.270120	် ဒ	-2.270120
-0.893908	် န	-2.270120
-1.592513	် ပ	-2.270120
-2.034591	် ဖ	-2.270120
-3.969090	် ဗ	-2.270120
-2.855146	် ဘ	-2.270120
-1.736093	် မ	-2.270120
-2.588878	် ယ	-2.270120
-1.751606	် ရ	-2.270120
-1.964768	် လ	-2.270120
-2.738641	် ဝ	-2.270120
-1.787246	် သ	-2.270120
-3.491968	် ဟ	-2.270120
-1.075328	် အ	-2.270120
-3.014847	် ဦ	-2.270120
-3.969090	် ာ	-2.270120
-3.367030	် ့	-2.270120
-0.496187	် း	-2.270120
-3.367030	် ္	-2.270120
-1.210935	် ၁	-2.270120
-3.367030	် ၂	-2.270120
-1.231102	် ၃	-2.270120
-3.668060	် ၄	-2.270120
-3.668060	် ၅	-2.270120
-3.668060	် ၆	-2.270120
-2.050012	် ၈	-2.270120
-1.338662	် ၉	-2.270120
-2.537726	် ၊	-2.270120
-2.356306	် ။	-2.270120
-3.668060	် ၌	-2.270120
-3.367030	် ၍	-2.270120
-3.969090	် ၏	-2.270120
-3.367030	် —	-2.270120
-1.560724	ျ က	-1.954871
-2.471501	ျ ခ	-1.954871
-0.563783	ျ င	-1.954871
-3.316599	ျ စ	-1.954871
-2.714539	ျ ဆ	-1.954871
-2.617629	ျ ဉ	-1.954871
-2.538448	ျ ည	-1.954871
-3.015569	ျ တ	-1.954871
-3.316599	ျ ထ	-1.954871
-2.086150	ျ န	-1.954871
-2.839478	ျ ပ	-1.954871
-3.316599	ျ မ	-1.954871
-2.362357	ျ ယ	-1.954871
-3.015569	ျ ရ	-1.954871
-1.441538	ျ ာ	-1.954871
-0.242515	ျ ိ	-1.954871
-2.714539	ျ ီ	-1.954871
-2.538448	ျ ု	-1.954871
-2.617629	ျ ူ	-1.954871
-1.635358	ျ ေ	-1.954871
-3.015569	ျ ဲ	-1.954871
-2.037846	ျ ွ	-1.954871
-1.936388	ျ ှ	-1.954871
-2.767898	ြ က	-1.707200
-2.466868	ြ ခ	-1.707200
-0.324635	ြ င	-1.707200
-1.445678	ြ စ	-1.707200
-1.591806	ြ ည	-1.707200
-2.223830	ြ တ	-1.707200
-3.068928	ြ ထ	-1.707200
-1.361357	ြ န	-1.707200
-2.767898	ြ ပ	-1.707200
-2.466868	ြ မ	-1.707200
-2.767898	ြ ယ	-1.707200
-2.767898	ြ သ	-1.707200
-1.352924	ြ ာ	-1.707200
-1.550414	ြ ိ	-1.707200
-1.119538	ြ ီ	-1.707200
-1.171301	ြ ု	-1.707200
-2.290776	ြ ူ	-1.707200
-0.889951	ြ ေ	-1.707200
-2.223830	ြ ဲ	-1.707200
-2.767898	ြ ံ	-1.707200
-1.922800	ြ ွ	-1.707200
-2.165838	ြ ှ	-1.707200
-2.290776	ြ ဿ	-1.707200
-1.357935	ွ က	-2.011147
-1.019921	ွ င	-2.011147
-2.011147	ွ တ	-2.011147
-1.442946	ွ န	-2.011147
-1.835056	ွ မ	-2.011147
-1.807027	ွ ယ	-2.011147
-1.255273	ွ ာ	-2.011147
-0.188979	ွ ေ	-2.011147
-1.329906	ွ ဲ	-2.011147
-1.596174	ွ ှ	-2.011147
-3.056524	ှ က	-1.995826
-3.357554	ှ ခ	-1.995826
-1.465459	ှ င	-1.995826
-2.243610	ှ စ	-1.995826
-2.243610	ှ ဆ	-1.995826
-2.755494	ှ ည	-1.995826
-1.895156	ှ တ	-1.995826
-2.880432	ှ ထ	-1.995826
-1.641550	ှ န	-1.995826
-2.403311	ှ ပ	-1.995826
-3.056524	ှ ဘ	-1.995826
-2.316161	ှ မ	-1.995826
-2.078800	ှ ယ	-1.995826
-0.597886	ှ လ	-1.995826
-2.880432	ှ အ	-1.995826
-1.839040	ှ ာ	-1.995826
-1.538010	ှ ိ	-1.995826
-3.056524	ှ ီ	-1.995826
-0.257183	ှ ု	-1.995826
-2.316161	ှ ူ	-1.995826
-1.594126	ှ ေ	-1.995826
-2.357554	ှ ဲ	-1.995826
-3.357554	ှ ်	-1.995826
-0.066947	ဿ န	-0.845098
-0.747510	၀ %	-1.893638
-0.670344	၀ /	-1.893638
-1.546851	၀ </s>	-1.893638
-2.546851	၀ စ	-1.893638
-1.768700	၀ မ	-1.893638
-1.131878	၀ ရ	-1.893638
-2.449941	၀ ဝ	-1.893638
-0.884093	၀ ၀	-1.893638
-2.303813	၀ ၁	-1.893638
-2.148911	၀ ၂	-1.893638
-2.148911	၀ ၃	-1.893638
-2.148911	၀ ၄	-1.893638
-1.219492	၀ ၅	-1.893638
-2.194668	၀ ၆	-1.893638
-2.449941	၀ ၇	-1.893638
-2.370760	၀ ၈	-1.893638
-2.194668	၀ ၉	-1.893638
-0.635693	၀ ၊	-1.893638
-2.805161	၁ )	-1.875742
-2.261093	၁ </s>	-1.875742
-2.805161	၁ က	-1.875742
-1.381915	၁ ဒ	-1.875742
-2.504131	၁ ပ	-1.875742
-1.493407	၁ ရ	-1.875742
-0.482942	၁ ၀	-1.875742
-0.807338	၁ ၁	-1.875742
-1.225377	၁ ၂	-1.875742
-1.320861	၁ ၃	-1.875742
-1.300011	၁ ၄	-1.875742
-1.045493	၁ ၅	-1.875742
-1.320861	၁ ၆	-1.875742
-1.328040	၁ ၇	-1.875742
-1.493407	၁ ၈	-1.875742
-2.064798	၁ ၉	-1.875742
-1.472722	၁ ၊	-1.875742
-2.091667	၂ )	-1.351304
-1.547599	၂ </s>	-1.351304
-2.091667	၂ က	-1.351304
-0.824495	၂ ဒ	-1.351304
-1.915576	၂ ပ	-1.351304
-2.091667	၂ ဖ	-1.351304
-0.848629	၂ ရ	-1.351304
-0.586517	၂ ၀	-1.351304
-0.887547	၂ ၅	-1.351304
-2.091667	၂ ၈	-1.351304
-0.693727	၂ ၊	-1.351304
-2.891537	၃ )	-1.812356
-2.046439	၃ </s>	-1.812356
-1.238325	၃ ဒ	-1.812356
-2.414416	၃ ပ	-1.812356
-1.400176	၃ ရ	-1.812356
-1.143349	၃ ၀	-1.812356
-0.701206	၃ ၅	-1.812356
-0.748523	၃ ၆	-1.812356
-0.754817	၃ ၇	-1.812356
-0.777594	၃ ၈	-1.812356
-1.745409	၃ ၉	-1.812356
-1.201341	၃ ၊	-1.812356
-2.340444	၄ )	-1.437354
-1.437354	၄ </s>	-1.437354
-0.668346	၄ ဒ	-1.437354
-2.039414	၄ ယ	-1.437354
-0.849082	၄ ရ	-1.437354
-0.592256	၄ ၀	-1.437354
-0.909080	၄ ၅	-1.437354
-0.749380	၄ ၊	-1.437354
-3.044932	၅ )	-1.766178
-0.988027	၅ .	-1.766178
-0.631632	၅ /	-1.766178
-1.488629	၅ </s>	-1.766178
-1.187599	၅ ဒ	-1.766178
-2.743902	၅ ဖ	-1.766178
-1.488629	၅ ရ	-1.766178
-3.044932	၅ ဦ	-1.766178
-0.948022	၅ ၀	-1.766178
-2.266780	၅ ၁	-1.766178
-2.345962	၅ ၂	-1.766178
-2.199834	၅ ၃	-1.766178
-2.442872	၅ ၄	-1.766178
-1.067208	၅ ၅	-1.766178
-1.965750	၅ ၆	-1.766178
-2.141842	၅ ၇	-1.766178
-1.840812	၅ ၈	-1.766178
-2.141842	၅ ၉	-1.766178
-0.593145	၅ ၊	-1.766178
-2.739572	၆ )	-1.535452
-0.628983	၆ .	-1.535452
-1.894474	၆ </s>	-1.535452
-0.894474	၆ ဒ	-1.535452
-1.248211	၆ ရ	-1.535452
-0.694249	၆ ၀	-1.535452
-1.836482	၆ ၁	-1.535452
-1.894474	၆ ၂	-1.535452
-1.698180	၆ ၃	-1.535452
-2.040602	၆ ၄	-1.535452
-0.876249	၆ ၅	-1.535452
-1.836482	၆ ၆	-1.535452
-2.040602	၆ ၇	-1.535452
-1.660391	၆ ၈	-1.535452
-1.836482	၆ ၉	-1.535452
-1.067474	၆ ၊	-1.535452
-2.740363	၇ )	-1.536243
-0.643453	၇ .	-1.536243
-1.895265	၇ </s>	-1.536243
-0.848268	၇ ဒ	-1.536243
-1.149298	၇ ရ	-1.536243
-0.740363	၇ ၀	-1.536243
-2.041393	၇ ၁	-1.536243
-1.962211	၇ ၂	-1.536243
-2.263241	၇ ၃	-1.536243
-1.698970	၇ ၄	-1.536243
-0.842736	၇ ၅	-1.536243
-2.138303	၇ ၆	-1.536243
-1.786120	၇ ၇	-1.536243
-1.698970	၇ ၈	-1.536243
-1.895265	၇ ၉	-1.536243
-1.050167	၇ ၊	-1.536243
-0.768606	၈ .	-1.598855
-2.227244	၈ /	-1.598855
-1.926214	၈ </s>	-1.598855
-0.978045	၈ ဒ	-1.598855
-2.528274	၈ န	-1.598855
-0.905024	၈ ရ	-1.598855
-0.783981	၈ ၀	-1.598855
-2.051153	၈ ၁	-1.598855
-1.829304	၈ ၂	-1.598855
-1.875061	၈ ၃	-1.598855
-2.130334	၈ ၄	-1.598855
-1.166546	၈ ၅	-1.598855
-1.984206	၈ ၆	-1.598855
-1.829304	၈ ၇	-1.598855
-1.157206	၈ ၈	-1.598855
-1.096910	၈ ၉	-1.598855
-0.990455	၈ ၊	-1.598855
-2.085851	၉ </s>	-1.784821
-1.085851	၉ ဒ	-1.784821
-0.967161	၉ ရ	-1.784821
-0.781730	၉ ၀	-1.784821
-1.231979	၉ ၁	-1.784821
-1.277737	၉ ၂	-1.784821
-1.318165	၉ ၃	-1.784821
-1.386881	၉ ၄	-1.784821
-0.909760	၉ ၅	-1.784821
-1.328889	၉ ၆	-1.784821
-1.231979	၉ ၇	-1.784821
-1.145619	၉ ၈	-1.784821
-1.214946	၉ ၉	-1.784821
-1.231979	၉ ၊	-1.784821
-3.229426	၊ B	-1.950672
-3.229426	၊ U	-1.950672
-3.229426	၊ က	-1.950672
-3.229426	၊ ခ	-1.950672
-3.229426	၊ ဂ	-1.950672
-3.229426	၊ စ	-1.950672
-2.752305	၊ ဆ	-1.950672
-2.752305	၊ ည	-1.950672
-3.229426	၊ တ	-1.950672
-2.752305	၊ ဒ	-1.950672
-0.526995	၊ န	-1.950672
-2.530456	၊ ပ	-1.950672
-2.928396	၊ မ	-1.950672
-3.229426	၊ ယ	-1.950672
-2.627366	၊ ရ	-1.950672
-3.229426	၊ ဝ	-1.950672
-0.527858	၊ သ	-1.950672
-1.136004	၊ ဟ	-1.950672
-0.515935	၊ အ	-1.950672
-0.006851	။ </s>	-2.060698
-2.759668	။ စ	-2.060698
-2.759668	။ ထ	-2.060698
-2.759668	။ မ	-2.060698
-2.759668	။ ဝ	-2.060698
-0.176091	၌ အ	-0.477121
-1.361728	၍ </s>	-0.407485
-1.060698	၍ က	-0.407485
-1.361728	၍ စ	-0.407485
-1.361728	၍ ဆ	-0.407485
-1.361728	၍ တ	-0.407485
-1.060698	၍ ပ	-0.407485
-1.060698	၍ ဖ	-0.407485
-1.060698	၍ လ	-0.407485
-1.060698	၍ သ	-0.407485
-0.669007	၏ ည	-0.544068
-0.845098	၏ ဒ	-0.544068
-1.146128	၏ န	-0.544068
-0.544068	၏ အ	-0.544068
-0.096910	— ဦ	-0.698970
-0.301030	℃ ）	-0.301030
-0.602060	→ ည	-0.425969
-0.602060	→ ပ	-0.425969
-0.903090	→ အ	-0.425969
-0.301030	（ ℃	-0.301030
-0.301030	） </s>	-0.301030

\3-grams:
-0.301030	% ရ ာ	-0.301030
-2.110590	% ၊ ရ	-1.633468
-0.017168	% ၊ ဟ	-1.633468
-2.110590	% ၊ အ	-1.633468
-0.176091	( N G	-0.477121
-0.477121	( d e	-0.477121
-0.477121	( d i	-0.477121
-0.176091	( v i	-0.477121
-0.301030	( က ီ	-0.301030
-1.079181	( စ င	-0.380211
-1.079181	( စ မ	-0.380211
-0.778151	( စ ိ	-0.380211
-0.778151	( စ ီ	-0.380211
-1.079181	( စ ေ	-0.380211
-0.602060	( ဆ န	-0.301030
-0.602060	( ဆ ေ	-0.301030
-0.124939	( ည စ	-0.602060
-0.602060	( တ စ	-0.301030
-0.602060	( တ ု	-0.301030
-0.176091	( ဒ ါ	-0.477121
-0.301030	( န ှ	-0.301030
-0.845098	( ပ မ	-0.544068
-0.243038	( ပ ု	-0.544068
-0.845098	( မ ာ	-0.367977
-0.845098	( မ ီ	-0.367977
-0.544068	( မ ှ	-0.367977
-0.301030	( ယ န	-0.301030
-0.602060	( ရ ာ	-0.301030
-0.602060	( ရ ိ	-0.301030
-0.301030	( လ ှ	-0.301030
-0.176091	( ဝ မ	-0.477121
-0.602060	( သ တ	-0.301030
-0.602060	( သ ေ	-0.301030
-1.447158	( အ =	-0.447158
-1.447158	( အ က	-0.447158
-1.146128	( အ ခ	-0.447158
-0.748188	( အ စ	-0.447158
-1.146128	( အ ဆ	-0.447158
-1.146128	( အ တ	-0.447158
-1.146128	( အ န	-0.447158
-1.447158	( အ ပ	-0.447158
-1.447158	( အ ိ	-0.447158
-1.447158	( အ ေ	-0.447158
-0.176091	( ၁ )	-0.477121
-0.176091	( ၂ )	-0.477121
-0.301030	( ၃ )	-0.301030
-0.301030	( ၄ )	-0.301030
-0.301030	( ၅ )	-0.301030
-0.301030	( ၆ )	-0.301030
-0.301030	( ၇ )	-0.301030
-0.544068	) စ စ	-0.367977
-0.845098	) စ မ	-0.367977
-0.845098	) စ ေ	-0.367977
-0.176091	) တ ွ	-0.477121
-0.176091	) ဒ ါ	-0.477121
-0.301030	) ပ ု	-0.301030
-0.176091	) ဖ ြ	-0.477121
-0.301030	) မ ာ	-0.301030
-0.511883	) အ က	-0.511883
-0.812913	) အ န	-0.511883
-0.812913	) အ ဖ	-0.511883
-1.113943	) အ ရ	-0.511883
-0.301030	) ၏ န	-0.301030
-0.778151	- က ိ	-0.477121
-0.301030	- က ူ	-0.477121
-0.301030	- န ေ	-0.301030
-0.726999	- အ ခ	-0.602060
-0.903090	- အ ထ	-0.602060
-1.204120	- အ မ	-0.602060
-0.425969	- အ သ	-0.602060
-0.008118	. ၁ ဒ	-1.732394
-1.311754	. ၂ က	-1.311754
-0.044582	. ၂ ဒ	-1.311754
-0.009545	. ၃ ဒ	-1.662758
-0.009143	. ၄ ဒ	-1.681241
-0.007062	. ၅ ဒ	-1.792392
-0.007179	. ၆ ဒ	-1.785330
-0.006531	. ၇ ဒ	-1.826075
-0.007687	. ၈ ဒ	-1.755875
-0.007687	. ၉ ဒ	-1.755875
-0.301030	/ က ျ	-0.301030
-0.176091	/ စ ာ	-0.477121
-0.124939	/ ထ ိ	-0.602060
-0.301030	/ န ည	-0.301030
-0.602060	/ ပ ြ	-0.301030
-0.602060	/ ပ ွ	-0.301030
-0.954243	/ မ လ	-0.352183
-0.954243	/ မ အ	-0.352183
-0.954243	/ မ ိ	-0.352183
-0.653213	/ မ ြ	-0.352183
-0.602060	/ လ က	-0.301030
-0.602060	/ လ ဲ	-0.301030
-0.845098	/ အ က	-0.367977
-0.544068	/ အ ခ	-0.367977
-0.845098	/ အ ဝ	-0.367977
-0.131279	/ ၁ ၀	-1.759668
-0.613540	/ ၁ ၁	-1.759668
-0.352183	/ ၅ ၀	-1.732394
-0.269996	/ ၅ ၅	-1.732394
-0.301030	/ ၆ ၀	-1.653213
-0.320774	/ ၆ ၅	-1.653213
-0.330993	/ ၇ ၀	-1.653213
-0.291485	/ ၇ ၅	-1.653213
-0.268845	/ ၈ ၀	-1.658011
-0.356981	/ ၈ ၅	-1.658011
-0.285610	/ ၉ ၀	-1.441957
-0.375010	/ ၉ ၅	-1.441957
-1.618048	/ ၉ ၈	-1.441957
-1.146128	<s> ( ၁	-0.301030
-1.146128	<s> ( ၂	-0.301030
-1.146128	<s> ( ၃	-0.301030
-1.146128	<s> ( ၄	-0.301030
-1.146128	<s> ( ၅	-0.301030
-1.146128	<s> ( ၆	-0.301030
-1.146128	<s> ( ၇	-0.301030
-0.301030	<s> A D	-0.301030
-0.301030	<s> B r	-0.301030
-0.176091	<s> D i	-0.477121
-0.176091	<s> O H	-0.477121
-0.301030	<s> P E	-0.301030
-0.301030	<s> S S	-0.301030
-0.301030	<s> U n	-0.301030
-2.796574	<s> က င	-1.717393
-2.796574	<s> က တ	-1.717393
-2.495544	<s> က န	-1.717393
-2.796574	<s> က ပ	-1.717393
-2.796574	<s> က ဗ	-1.717393
-2.097604	<s> က ာ	-1.717393
-0.046066	<s> က ိ	-1.717393
-2.018423	<s> က ု	-1.717393
-2.194514	<s> က ူ	-1.717393
-1.951476	<s> က ေ	-1.717393
-1.682631	<s> က ျ	-1.717393
-1.796574	<s> က ြ	-1.717393
-0.944483	<s> ခ န	-0.798355
-1.342423	<s> ခ ရ	-0.798355
-1.166331	<s> ခ ါ	-0.798355
-1.166331	<s> ခ ေ	-0.798355
-0.944483	<s> ခ ံ	-0.798355
-0.467361	<s> ခ ျ	-0.798355
-1.041393	<s> ခ ြ	-0.798355
-1.230449	<s> ဂ ဏ	-0.452298
-1.230449	<s> ဂ ရ	-0.452298
-1.230449	<s> ဂ လ	-0.452298
-1.230449	<s> ဂ ိ	-0.452298
-1.230449	<s> ဂ ျ	-0.452298
-0.452298	<s> ဂ ွ	-0.452298
-0.602060	<s> င ိ	-0.301030
-0.602060	<s> င ြ	-0.301030
-1.204120	<s> စ က	-0.567298
-1.380211	<s> စ စ	-0.567298
-1.681241	<s> စ ည	-0.567298
-1.380211	<s> စ တ	-0.567298
-1.681241	<s> စ ပ	-0.567298
-1.681241	<s> စ မ	-0.567298
-1.681241	<s> စ အ	-0.567298
-0.903090	<s> စ ာ	-0.567298
-0.982271	<s> စ ိ	-0.567298
-1.681241	<s> စ ီ	-0.567298
-0.903090	<s> စ ု	-0.567298
-1.204120	<s> စ ေ	-0.567298
-1.204120	<s> စ ံ	-0.567298
-1.763428	<s> ဆ န	-0.860338
-1.763428	<s> ဆ ယ	-0.860338
-1.763428	<s> ဆ ရ	-0.860338
-1.763428	<s> ဆ ာ	-0.860338
-0.484674	<s> ဆ ီ	-0.860338
-0.401700	<s> ဆ ေ	-0.860338
-1.286307	<s> ဆ ံ	-0.860338
-1.763428	<s> ဆ ွ	-0.860338
-0.176091	<s> ဈ ေ	-0.477121
-1.447158	<s> ည </s>	-0.544068
-0.845098	<s> ည စ	-0.544068
-1.146128	<s> ည ဆ	-0.544068
-1.447158	<s> ည န	-0.544068
-0.845098	<s> ည ဘ	-0.544068
-1.447158	<s> ည မ	-0.544068
-0.748188	<s> ည အ	-0.544068
-1.146128	<s> ည ာ	-0.544068
-0.290565	<s> တ စ	-0.767686
-1.311754	<s> တ ည	-0.767686
-1.612784	<s> တ န	-0.767686
-1.612784	<s> တ ယ	-0.767686
-1.612784	<s> တ ာ	-0.767686
-1.010724	<s> တ ိ	-0.767686
-1.010724	<s> တ ု	-0.767686
-1.860338	<s> ထ ည	-1.383217
-0.057564	<s> ထ မ	-1.383217
-1.383217	<s> ထ ိ	-1.383217
-2.161368	<s> ထ ု	-1.383217
-2.161368	<s> ထ ေ	-1.383217
-1.860338	<s> ထ ွ	-1.383217
-0.977724	<s> ဒ ဏ	-0.579784
-0.977724	<s> ဒ ါ	-0.579784
-1.278754	<s> ဒ ိ	-0.579784
-0.500602	<s> ဒ ီ	-0.579784
-0.801632	<s> ဒ ေ	-0.579784
-1.696065	<s> န ည	-1.131794
-2.173186	<s> န မ	-1.131794
-2.173186	<s> န ယ	-1.131794
-1.131794	<s> န ာ	-1.131794
-1.696065	<s> န ိ	-1.131794
-1.872156	<s> န ီ	-1.131794
-2.173186	<s> န ု	-1.131794
-0.741823	<s> န ေ	-1.131794
-2.173186	<s> န ံ	-1.131794
-1.872156	<s> န ွ	-1.131794
-0.238688	<s> န ှ	-1.131794
-1.892095	<s> ပ က	-0.745967
-1.892095	<s> ပ င	-0.745967
-1.892095	<s> ပ ည	-0.745967
-1.414973	<s> ပ တ	-0.745967
-1.591065	<s> ပ န	-0.745967
-1.193125	<s> ပ မ	-0.745967
-1.290035	<s> ပ ါ	-0.745967
-1.591065	<s> ပ ိ	-0.745967
-0.687975	<s> ပ ု	-0.745967
-1.414973	<s> ပ ေ	-0.745967
-1.892095	<s> ပ ံ	-0.745967
-1.892095	<s> ပ ျ	-0.745967
-0.549672	<s> ပ ြ	-0.745967
-1.591065	<s> ပ ွ	-0.745967
-1.278754	<s> ဖ ိ	-0.579784
-0.977724	<s> ဖ ု	-0.579784
-0.801632	<s> ဖ ေ	-0.579784
-0.801632	<s> ဖ ျ	-0.579784
-0.579784	<s> ဖ ြ	-0.579784
-0.176091	<s> ဗ ိ	-0.477121
-0.579784	<s> ဘ ယ	-0.676694
-1.278754	<s> ဘ ာ	-0.676694
-0.579784	<s> ဘ ီ	-0.676694
-0.676694	<s> ဘ ေ	-0.676694
-1.436693	<s> မ က	-0.709694
-1.913814	<s> မ စ	-0.709694
-1.135663	<s> မ တ	-0.709694
-1.214844	<s> မ န	-0.709694
-1.913814	<s> မ ပ	-0.709694
-1.913814	<s> မ ရ	-0.709694
-1.913814	<s> မ လ	-0.709694
-0.658541	<s> မ ိ	-0.709694
-1.612784	<s> မ ီ	-0.709694
-1.612784	<s> မ ု	-0.709694
-1.612784	<s> မ ူ	-0.709694
-1.612784	<s> မ ေ	-0.709694
-0.767686	<s> မ ျ	-0.709694
-1.612784	<s> မ ြ	-0.709694
-1.612784	<s> မ ွ	-0.709694
-1.311754	<s> မ ှ	-0.709694
-0.778151	<s> ယ ာ	-0.301030
-0.778151	<s> ယ ိ	-0.301030
-0.778151	<s> ယ ေ	-0.301030
-1.511883	<s> ရ က	-0.967815
-1.812913	<s> ရ င	-0.967815
-1.511883	<s> ရ ာ	-0.967815
-1.113943	<s> ရ ု	-0.967815
-0.210853	<s> ရ ေ	-0.967815
-1.335792	<s> ရ ွ	-0.967815
-1.113943	<s> ရ ှ	-0.967815
-1.875061	<s> လ </s>	-0.761118
-0.574031	<s> လ က	-0.761118
-1.875061	<s> လ စ	-0.761118
-1.875061	<s> လ န	-0.761118
-1.096910	<s> လ မ	-0.761118
-1.176091	<s> လ ိ	-0.761118
-1.574031	<s> လ ု	-0.761118
-1.574031	<s> လ ူ	-0.761118
-1.029963	<s> လ ေ	-0.761118
-1.574031	<s> လ ဲ	-0.761118
-1.273001	<s> လ ျ	-0.761118
-1.397940	<s> လ ွ	-0.761118
-0.971971	<s> လ ှ	-0.761118
-1.278754	<s> ဝ တ	-0.801632
-0.977724	<s> ဝ န	-0.801632
-0.164810	<s> ဝ မ	-0.801632
-1.547159	<s> သ က	-0.973128
-1.450249	<s> သ င	-0.973128
-1.371068	<s> သ တ	-0.973128
-1.848189	<s> သ န	-0.973128
-2.149219	<s> သ မ	-0.973128
-2.149219	<s> သ ယ	-0.973128
-2.149219	<s> သ ရ	-0.973128
-2.149219	<s> သ လ	-0.973128
-1.547159	<s> သ ာ	-0.973128
-1.547159	<s> သ ိ	-0.973128
-1.848189	<s> သ ီ	-0.973128
-1.672098	<s> သ ု	-0.973128
-1.371068	<s> သ ူ	-0.973128
-1.547159	<s> သ ေ	-0.973128
-0.235405	<s> သ ွ	-0.973128
-0.124939	<s> ဟ င	-0.602060
-2.434569	<s> အ i	-1.072841
-1.957448	<s> အ က	-1.072841
-1.092146	<s> အ ခ	-1.072841
-2.133539	<s> အ င	-1.072841
-0.903090	<s> အ စ	-1.072841
-1.735599	<s> အ ဆ	-1.072841
-1.531479	<s> အ ည	-1.072841
-2.434569	<s> အ တ	-1.072841
-1.589471	<s> အ ထ	-1.072841
-1.957448	<s> အ ဓ	-1.072841
-1.355388	<s> အ န	-1.072841
-1.480326	<s> အ ပ	-1.072841
-1.656418	<s> အ ဖ	-1.072841
-1.288441	<s> အ မ	-1.072841
-1.133539	<s> အ ရ	-1.072841
-1.434569	<s> အ လ	-1.072841
-1.288441	<s> အ ဝ	-1.072841
-1.179296	<s> အ သ	-1.072841
-2.133539	<s> အ အ	-1.072841
-1.288441	<s> အ ာ	-1.072841
-1.019596	<s> အ ိ	-1.072841
-1.204120	<s> အ ေ	-1.072841
-2.434569	<s> အ ျ	-1.072841
-0.066947	<s> ဦ း	-0.845098
-0.301030	<s> ဧ ည	-0.301030
-0.301030	<s> ှ ု	-0.301030
-0.301030	<s> ၀ မ	-0.301030
-0.243038	<s> ၁ ၀	-0.544068
-0.845098	<s> ၁ ၅	-0.544068
-0.602060	<s> ၂ ပ	-0.425969
-0.602060	<s> ၂ ၀	-0.425969
-0.903090	<s> ၂ ၅	-0.425969
-0.477121	<s> ၃ ပ	-0.477121
-0.653213	<s> ၃ ၀	-0.477121
-0.954243	<s> ၃ ၅	-0.477121
-0.301030	<s> ၄ ၀	-0.301030
-0.176091	<s> ၅ ၀	-0.477121
-0.301030	<s> ၆ ၀	-0.301030
-0.301030	<s> ၇ ၀	-0.301030
-0.301030	<s> ၈ ၀	-0.301030
-0.301030	<s> ၉ ၀	-0.301030
-0.301030	<s> → အ	-0.301030
-0.301030	= က ိ	-0.301030
-0.176091	? ( ဒ	-0.477121
-0.176091	? ) </s>	-0.477121
-0.301030	A D L	-0.301030
-0.176091	A T အ	-0.477121
-0.176091	B r i	-0.477121
-0.301030	D L လ	-0.301030
-0.176091	D i a	-0.477121
-0.301030	E G ပ	-0.301030
-0.176091	G T )	-0.477121
-0.301030	G ပ ိ	-0.301030
-0.176091	H A T	-0.477121
-0.301030	L လ ေ	-0.301030
-0.176091	N G T	-0.477121
-0.176091	O H A	-0.477121
-0.301030	P E G	-0.301030
-0.301030	S P </s>	-0.301030
-0.301030	S S P	-0.301030
-0.176091	T ) ဖ	-0.477121
-0.176091	T အ က	-0.477121
-0.176091	U n i	-0.477121
-0.176091	Z a w	-0.477121
-0.096910	a l s	-0.698970
-0.176091	a p e	-0.477121
-0.176091	a w g	-0.477121
-0.176091	c o d	-0.477121
-0.477121	d e l	-0.477121
-0.477121	d e သ	-0.477121
-0.176091	d i g	-0.477121
-0.176091	e l i	-0.477121
-0.176091	e r လ	-0.477121
-0.176091	e သ ု	-0.477121
-0.176091	g i t	-0.477121
-0.477121	g n )	-0.477121
-0.477121	g n သ	-0.477121
-0.176091	g y i	-0.477121
-0.176091	i a p	-0.477121
-0.176091	i c o	-0.477121
-0.602060	i g i	-0.602060
-0.301030	i g n	-0.602060
-0.301030	i o ဆ	-0.301030
-0.176091	i r i	-0.477121
-0.176091	i s t	-0.477121
-0.397940	i t a	-0.522879
-1.000000	i t i	-0.522879
-0.698970	i t s	-0.522879
-0.176091	i u m	-0.477121
-0.176091	i သ ု	-0.477121
-0.176091	l i r	-0.477121
-0.096910	l s i	-0.698970
-0.176091	l အ မ	-0.477121
-0.176091	m ) တ	-0.477121
-0.176091	n ) ဒ	-0.477121
-0.176091	n i c	-0.477121
-0.301030	n s ိ	-0.301030
-0.176091	n သ ိ	-0.477121
-0.176091	o d e	-0.477121
-0.176091	o l အ	-0.477121
-0.301030	o ဆ n	-0.301030
-0.176091	p e r	-0.477121
-0.477121	r i s	-0.477121
-0.477121	r i u	-0.477121
-0.176091	r လ ဲ	-0.477121
-0.176091	s ) အ	-0.477121
-0.096910	s i g	-0.698970
-0.176091	s t o	-0.477121
-0.301030	s ိ ု	-0.301030
-0.096910	t a l	-0.698970
-0.301030	t i o	-0.301030
-0.176091	t o l	-0.477121
-0.176091	t s )	-0.477121
-0.176091	u m )	-0.477121
-0.096910	v i t	-0.698970
-0.176091	w g y	-0.477121
-0.176091	y i သ	-0.477121
-0.301030	က င ်	-0.301030
-0.041393	က စ ာ	-1.041393
-0.096910	က တ ်	-0.698970
-0.176091	က ထ က	-0.477121
-0.812913	က န ဦ	-0.414973
-0.812913	က န ေ	-0.414973
-1.113943	က န ့	-0.414973
-1.113943	က န ်	-0.414973
-0.812913	က န ှ	-0.414973
-0.026329	က ပ ်	-1.230449
-0.301030	က ဗ ျ	-0.301030
-0.301030	က ဘ ာ	-0.301030
-0.176091	က ယ ်	-0.477121
-0.301030	က လ က	-0.301030
-0.176091	က ဟ င	-0.477121
-0.301030	က အ ခ	-0.301030
-0.676694	က ာ က	-0.880814
-1.102662	က ာ ယ	-0.880814
-1.102662	က ာ ရ	-0.880814
-0.977724	က ာ အ	-0.880814
-0.403692	က ာ း	-0.880814
-1.734400	က ိ န	-2.114611
-2.813581	က ိ မ	-2.114611
-2.512551	က ိ ရ	-2.114611
-2.512551	က ိ သ	-2.114611
-0.014930	က ိ ု	-2.114611
-0.079181	က ီ လ	-0.778151
-1.806180	က ု ဌ	-1.028029
-0.660052	က ု တ	-1.028029
-1.505150	က ု ထ	-1.028029
-1.204120	က ု န	-1.028029
-0.851937	က ု လ	-1.028029
-0.359022	က ု သ	-1.028029
-1.146128	က ူ </s>	-0.845098
-0.344496	က ူ ည	-0.845098
-1.146128	က ူ ဘ	-0.845098
-1.146128	က ူ သ	-0.845098
-1.146128	က ူ အ	-0.845098
-0.924279	က ူ း	-0.845098
-1.518514	က ေ </s>	-1.041393
-0.087150	က ေ ာ	-1.041393
-1.217484	က ေ း	-1.041393
-0.066947	က ဲ ဖ	-0.845098
-0.124939	က ံ ရ	-0.602060
-0.301030	က း မ	-0.301030
-0.602060	က ္ က	-0.903090
-0.204120	က ္ ခ	-0.903090
-2.694166	က ် (	-1.580223
-2.694166	က ် )	-1.580223
-1.716443	က ် </s>	-1.580223
-1.532798	က ် က	-1.580223
-1.162687	က ် ခ	-1.580223
-2.694166	က ် ဂ	-1.580223
-1.633468	က ် စ	-1.580223
-0.269285	က ် ဆ	-1.580223
-2.694166	က ် ည	-1.580223
-1.614985	က ် တ	-1.580223
-2.518075	က ် ထ	-1.580223
-2.393136	က ် ဒ	-1.580223
-1.819105	က ် န	-1.580223
-1.426995	က ် ပ	-1.580223
-1.849068	က ် ဖ	-1.580223
-1.382412	က ် မ	-1.580223
-2.694166	က ် ယ	-1.580223
-1.503835	က ် ရ	-1.580223
-1.563833	က ် လ	-1.580223
-2.518075	က ် ဝ	-1.580223
-1.404132	က ် သ	-1.580223
-1.476682	က ် အ	-1.580223
-2.694166	က ် ၁	-1.580223
-2.694166	က ် ၂	-1.580223
-2.518075	က ် ၍	-1.580223
-2.393136	က ် —	-1.580223
-1.473487	က ျ က	-0.796793
-2.075547	က ျ ခ	-0.796793
-0.570397	က ျ င	-0.796793
-1.473487	က ျ ဆ	-0.796793
-1.598426	က ျ ဉ	-0.796793
-1.774517	က ျ တ	-0.796793
-2.075547	က ျ ထ	-0.796793
-0.845098	က ျ န	-0.796793
-1.774517	က ျ ပ	-0.796793
-1.774517	က ျ ယ	-0.796793
-1.774517	က ျ ရ	-0.796793
-1.774517	က ျ ာ	-0.796793
-1.473487	က ျ ိ	-0.796793
-2.075547	က ျ ီ	-0.796793
-2.075547	က ျ ု	-0.796793
-2.075547	က ျ ူ	-0.796793
-1.075547	က ျ ေ	-0.796793
-1.774517	က ျ ဲ	-0.796793
-1.121304	က ျ ွ	-0.796793
-0.870466	က ြ ည	-1.070038
-1.848189	က ြ ပ	-1.070038
-2.149219	က ြ မ	-1.070038
-1.848189	က ြ ယ	-1.070038
-0.717855	က ြ ာ	-1.070038
-0.734246	က ြ ိ	-1.070038
-1.246129	က ြ ီ	-1.070038
-2.149219	က ြ ု	-1.070038
-0.558155	က ြ ေ	-1.070038
-2.149219	က ြ ဲ	-1.070038
-1.848189	က ြ ံ	-1.070038
-2.149219	က ြ ွ	-1.070038
-1.021189	က ွ က	-0.623249
-0.845098	က ွ န	-0.623249
-0.419129	က ွ ယ	-0.623249
-1.021189	က ွ ာ	-0.623249
-1.322219	က ွ ဲ	-0.623249
-0.301030	ခ က ်	-0.602060
-0.602060	ခ က ြ	-0.602060
-0.176091	ခ ခ ဵ	-0.477121
-1.021189	ခ င း	-1.021189
-0.091770	ခ င ်	-1.021189
-0.051153	ခ ဏ ာ	-0.954243
-0.176091	ခ တ ်	-0.477121
-0.176091	ခ ဒ ိ	-0.477121
-0.526809	ခ န ့	-1.091080
-0.665112	ခ န ္	-1.091080
-0.392110	ခ န ်	-1.091080
-0.301030	ခ ပ ်	-0.301030
-0.176091	ခ မ ်	-0.477121
-0.954243	ခ ရ စ	-0.352183
-0.954243	ခ ရ မ	-0.352183
-0.954243	ခ ရ ိ	-0.352183
-0.653213	ခ ရ ီ	-0.352183
-0.301030	ခ အ န	-0.301030
-1.204120	ခ ါ Z	-0.550907
-1.505150	ခ ါ ဆ	-0.550907
-1.505150	ခ ါ ဖ	-0.550907
-1.204120	ခ ါ ရ	-0.550907
-1.204120	ခ ါ ဝ	-0.550907
-0.660052	ခ ါ သ	-0.550907
-1.028029	ခ ါ အ	-0.550907
-1.505150	ခ ါ ဦ	-0.550907
-0.903090	ခ ါ း	-0.550907
-0.000817	ခ ိ ု	-2.725912
-2.164353	ခ ု က	-2.164353
-0.007501	ခ ု န	-2.164353
-2.766413	ခ ု ဖ	-2.164353
-2.766413	ခ ု ံ	-2.164353
-1.361728	ခ ေ တ	-1.060698
-0.060698	ခ ေ ါ	-1.060698
-2.004321	ခ ဲ /	-1.226170
-1.703291	ခ ဲ ပ	-1.226170
-2.004321	ခ ဲ မ	-1.226170
-1.703291	ခ ဲ သ	-1.226170
-1.527200	ခ ဲ အ	-1.226170
-0.069823	ခ ဲ ့	-1.226170
-0.602060	ခ ဵ အ	-0.301030
-0.602060	ခ ဵ ၍	-0.301030
-1.010724	ခ ံ ခ	-0.709694
-0.913814	ခ ံ စ	-0.709694
-0.466656	ခ ံ တ	-0.709694
-1.612784	ခ ံ ဘ	-0.709694
-0.913814	ခ ံ ယ	-0.709694
-1.612784	ခ ံ လ	-0.709694
-1.311754	ခ ံ သ	-0.709694
-1.612784	ခ ံ အ	-0.709694
-0.301030	ခ ် က	-0.301030
-1.537989	ခ ျ က	-2.027010
-2.504131	ခ ျ ခ	-2.027010
-1.902071	ခ ျ င	-2.027010
-2.328040	ခ ျ ည	-2.027010
-3.106191	ခ ျ မ	-2.027010
-2.261093	ခ ျ ယ	-2.027010
-0.039492	ခ ျ ိ	-2.027010
-2.805161	ခ ျ ီ	-2.027010
-2.407221	ခ ျ ု	-2.027010
-2.805161	ခ ျ ူ	-2.027010
-2.106191	ခ ျ ေ	-2.027010
-2.151948	ခ ျ ွ	-2.027010
-0.062275	ခ ြ င	-2.117271
-1.605388	ခ ြ ာ	-2.117271
-2.719331	ခ ြ ု	-2.117271
-1.003328	ခ ြ ေ	-2.117271
-0.778151	ခ ွ င	-0.602060
-0.778151	ခ ွ ာ	-0.602060
-0.380211	ခ ွ ဲ	-0.602060
-0.022276	ဂ ဏ န	-1.301030
-2.440122	ဂ ရ မ	-2.264030
-0.006352	ဂ ရ ီ	-2.264030
-2.264030	ဂ ရ ု	-2.264030
-0.301030	ဂ လ ူ	-0.301030
-0.263241	ဂ ါ က	-0.564271
-1.041393	ဂ ါ န	-0.564271
-1.041393	ဂ ါ မ	-0.564271
-0.602060	ဂ ိ မ	-0.301030
-0.602060	ဂ ိ ု	-0.301030
-0.477121	ဂ ု ခ	-0.477121
-0.477121	ဂ ု ဏ	-0.477121
-0.397940	ဂ ေ ဟ	-0.397940
-0.698970	ဂ ေ ါ	-0.397940
-0.007481	ဂ ျ င	-2.022841
-2.721811	ဂ ျ ပ	-2.022841
-2.721811	ဂ ျ ိ	-2.022841
-2.721811	ဂ ျ ီ	-2.022841
-2.721811	ဂ ျ ွ	-2.022841
-0.057992	ဂ ွ မ	-0.903090
-0.034762	င ယ ်	-1.113943
-0.301030	င ိ ု	-0.301030
-0.002518	င ့ ်	-2.238046
-0.176091	င း ့	-0.477121
-3.178545	င ် -	-2.002454
-2.249126	င ် </s>	-2.002454
-3.178545	င ် v	-2.002454
-2.249126	င ် က	-2.002454
-1.628317	င ် ခ	-2.002454
-3.002454	င ် ဂ	-2.002454
-2.333447	င ် စ	-2.002454
-2.117847	င ် ဆ	-2.002454
-2.877515	င ် တ	-2.002454
-2.365632	င ် ထ	-2.002454
-0.744775	င ် န	-2.002454
-1.866791	င ် ပ	-2.002454
-2.701424	င ် ဖ	-2.002454
-2.877515	င ် ဘ	-2.002454
-1.911374	င ် မ	-2.002454
-2.877515	င ် ယ	-2.002454
-1.899792	င ် ရ	-2.002454
-2.877515	င ် လ	-2.002454
-3.178545	င ် ဝ	-2.002454
-2.137153	င ် သ	-2.002454
-2.017177	င ် အ	-2.002454
-0.284784	င ် း	-2.002454
-2.877515	င ် ္	-2.002454
-1.747182	င ် ၁	-2.002454
-3.178545	င ် ၂	-2.002454
-3.178545	င ် ၄	-2.002454
-1.560497	င ် ၈	-2.002454
-0.902084	င ် ၉	-2.002454
-3.479575	င ် ၊	-2.002454
-3.479575	င ် ၏	-2.002454
-0.845098	င ြ င	-0.544068
-0.243038	င ြ ိ	-0.544068
-0.079181	င ွ ေ	-0.778151
-1.690196	စ က တ	-0.991226
-0.648803	စ က ာ	-0.991226
-1.389166	စ က ေ	-0.991226
-1.088136	စ က ္	-0.991226
-0.275223	စ က ်	-0.991226
-0.041393	စ င ်	-1.041393
-1.096910	စ စ း	-1.096910
-0.075721	စ စ ်	-1.096910
-0.018483	စ ဉ ်	-1.380211
-0.045757	စ ည ်	-1.000000
-0.397940	စ တ င	-0.397940
-0.698970	စ တ ာ	-0.397940
-0.176091	စ န စ	-0.477121
-0.778151	စ ပ ေ	-0.301030
-0.778151	စ ပ ်	-0.301030
-0.778151	စ ပ ြ	-0.301030
-0.845098	စ မ တ	-0.367977
-0.845098	စ မ ်	-0.367977
-0.544068	စ မ ြ	-0.367977
-0.176091	စ လ ု	-0.477121
-0.301030	စ သ ည	-0.301030
-0.301030	စ အ ိ	-0.301030
-1.921686	စ ာ (	-1.046625
-1.268474	စ ာ </s>	-1.046625
-1.921686	စ ာ က	-1.046625
-2.222716	စ ာ ခ	-1.046625
-1.523746	စ ာ စ	-1.046625
-2.222716	စ ာ တ	-1.046625
-1.745595	စ ာ ထ	-1.046625
-1.921686	စ ာ န	-1.046625
-1.620656	စ ာ ပ	-1.046625
-1.444565	စ ာ မ	-1.046625
-1.319626	စ ာ ရ	-1.046625
-1.745595	စ ာ လ	-1.046625
-1.620656	စ ာ သ	-1.046625
-0.943963	စ ာ အ	-1.046625
-0.303638	စ ာ း	-1.046625
-0.210853	စ ိ တ	-1.113943
-1.113943	စ ိ မ	-1.113943
-0.636822	စ ိ ု	-1.113943
-1.748188	စ ီ (	-0.793946
-1.447158	စ ီ )	-0.793946
-0.793946	စ ီ ခ	-0.793946
-0.748188	စ ီ စ	-0.793946
-1.748188	စ ီ ဆ	-0.793946
-1.146128	စ ီ မ	-0.793946
-1.748188	စ ီ ရ	-0.793946
-0.544068	စ ီ အ	-0.793946
-1.271067	စ ီ း	-0.793946
-1.698970	စ ု </s>	-0.657577
-1.096910	စ ု က	-0.657577
-0.795880	စ ု စ	-0.657577
-1.221849	စ ု ဆ	-0.657577
-1.397940	စ ု တ	-0.657577
-0.920819	စ ု ထ	-0.657577
-1.397940	စ ု န	-0.657577
-0.698970	စ ု ပ	-0.657577
-1.698970	စ ု မ	-0.657577
-1.698970	စ ု အ	-0.657577
-1.698970	စ ု ံ	-0.657577
-0.301030	စ ူ း	-0.301030
-1.322219	စ ေ ခ	-1.021189
-0.146128	စ ေ ာ	-1.021189
-1.146128	စ ေ ့	-1.021189
-1.146128	စ ေ း	-1.021189
-1.380211	စ ံ )	-0.425969
-1.380211	စ ံ </s>	-0.425969
-1.079181	စ ံ က	-0.425969
-0.778151	စ ံ ခ	-0.425969
-1.380211	စ ံ ဂ	-0.425969
-1.380211	စ ံ စ	-0.425969
-1.380211	စ ံ ဒ	-0.425969
-1.380211	စ ံ ဘ	-0.425969
-0.903090	စ ံ အ	-0.425969
-0.602060	စ း ဆ	-0.301030
-0.602060	စ း ျ	-0.301030
-0.176091	စ ္ စ	-0.477121
-1.939519	စ ် )	-0.985277
-2.240549	စ ် </s>	-0.985277
-1.036429	စ ် က	-0.985277
-1.010100	စ ် ခ	-0.985277
-1.638489	စ ် စ	-0.985277
-0.918330	စ ် ဆ	-0.985277
-1.939519	စ ် ည	-0.985277
-1.939519	စ ် ထ	-0.985277
-1.337459	စ ် န	-0.985277
-0.660766	စ ် ပ	-0.985277
-1.541579	စ ် ဖ	-0.985277
-1.939519	စ ် မ	-0.985277
-1.939519	စ ် ရ	-0.985277
-1.638489	စ ် လ	-0.985277
-1.939519	စ ် ဝ	-0.985277
-1.240549	စ ် သ	-0.985277
-1.199157	စ ် အ	-0.985277
-1.286307	စ ် ဦ	-0.985277
-0.903090	စ ွ က	-0.806180
-0.550907	စ ွ န	-0.806180
-0.660052	စ ွ မ	-0.806180
-0.726999	စ ွ ာ	-0.806180
-1.505150	စ ွ ဲ	-0.806180
-0.301030	ဆ n s	-0.301030
-0.041393	ဆ က ်	-1.041393
-1.000000	ဆ င ့	-1.397940
-0.065502	ဆ င ်	-1.397940
-0.176091	ဆ စ ်	-0.477121
-0.301030	ဆ ည ်	-0.301030
-0.176091	ဆ ထ ိ	-0.477121
-1.079181	ဆ န ့	-0.602060
-0.778151	ဆ န ္	-0.602060
-0.301030	ဆ န ်	-0.602060
-0.301030	ဆ ယ ်	-0.301030
-0.066947	ဆ ရ ာ	-0.845098
-1.000000	ဆ ာ ဆ	-0.397940
-0.698970	ဆ ာ ပ	-0.397940
-1.000000	ဆ ာ လ	-0.397940
-0.698970	ဆ ာ ေ	-0.397940
-1.579784	ဆ ိ တ	-1.278754
-0.035716	ဆ ိ ု	-1.278754
-0.034633	ဆ ီ ဂ	-2.146903
-2.748963	ဆ ီ ပ	-2.146903
-2.447933	ဆ ီ သ	-2.146903
-1.192660	ဆ ီ း	-2.146903
-1.204120	ဆ ု ပ	-0.726999
-1.204120	ဆ ု ဘ	-0.726999
-0.162727	ဆ ု ံ	-0.726999
-0.079181	ဆ ူ လ	-0.778151
-0.664707	ဆ ေ ာ	-1.649984
-2.127105	ဆ ေ ့	-1.649984
-0.122783	ဆ ေ း	-1.649984
-0.096910	ဆ ံ ပ	-0.698970
-0.564271	ဆ ွ ေ	-0.740363
-0.263241	ဆ ွ ဲ	-0.740363
-0.602060	ဇ ယ ာ	-0.301030
-0.602060	ဇ ယ ်	-0.301030
-0.176091	ဈ ေ း	-0.477121
-1.602060	ဉ ် </s>	-0.522879
-1.602060	ဉ ် က	-0.522879
-1.602060	ဉ ် ခ	-0.522879
-1.602060	ဉ ် ဆ	-0.522879
-1.602060	ဉ ် တ	-0.522879
-1.301030	ဉ ် န	-0.522879
-1.000000	ဉ ် မ	-0.522879
-1.301030	ဉ ် ရ	-0.522879
-1.301030	ဉ ် လ	-0.522879
-1.602060	ဉ ် သ	-0.522879
-1.124939	ဉ ် အ	-0.522879
-0.647817	ဉ ် း	-0.522879
-0.977724	ည စ ာ	-0.977724
-0.102662	ည စ ်	-0.977724
-0.176091	ည ဆ ိ	-0.477121
-0.176091	ည န ေ	-0.477121
-0.066947	ည ဘ က	-0.845098
-0.602060	ည မ အ	-0.301030
-0.602060	ည မ ်	-0.301030
-0.301030	ည ရ ာ	-0.301030
-0.045757	ည အ ိ	-1.000000
-1.000000	ည ာ ပ	-0.397940
-1.000000	ည ာ ဖ	-0.397940
-0.698970	ည ာ ဘ	-0.397940
-0.698970	ည ာ ရ	-0.397940
-0.301030	ည ိ ု	-0.301030
-1.518514	ည ီ </s>	-0.615424
-0.819544	ည ီ ခ	-0.615424
-1.217484	ည ီ စ	-0.615424
-1.217484	ည ီ ဆ	-0.615424
-0.564271	ည ီ ပ	-0.615424
-1.518514	ည ီ ဖ	-0.615424
-1.518514	ည ီ မ	-0.615424
-0.916454	ည ီ ၍	-0.615424
-0.003545	ည ့ ်	-2.089905
-2.238046	ည ် )	-0.895623
-2.238046	ည ် /	-0.895623
-1.158865	ည ် </s>	-0.895623
-1.937016	ည ် က	-0.895623
-1.760925	ည ် ခ	-0.895623
-1.937016	ည ် င	-0.895623
-1.937016	ည ် စ	-0.895623
-2.238046	ည ် ဆ	-0.895623
-1.635986	ည ် ထ	-0.895623
-1.283804	ည ် န	-0.895623
-1.539076	ည ် ပ	-0.895623
-1.283804	ည ် ဖ	-0.895623
-1.091918	ည ် မ	-0.895623
-1.760925	ည ် ရ	-0.895623
-1.539076	ည ် လ	-0.895623
-2.238046	ည ် ဝ	-0.895623
-1.238046	ည ် သ	-0.895623
-1.760925	ည ် အ	-0.895623
-0.467194	ည ် း	-0.895623
-1.937016	ည ် ၁	-0.895623
-1.937016	ည ် ၃	-0.895623
-2.238046	ည ် ၍	-0.895623
-0.057992	ည ွ ှ	-0.903090
-1.000000	ည ှ င	-0.397940
-1.000000	ည ှ စ	-0.397940
-0.698970	ည ှ ပ	-0.397940
-0.698970	ည ှ ိ	-0.397940
-0.079181	ဌ ာ န	-0.778151
-0.301030	ဏ ) </s>	-0.301030
-0.176091	ဏ စ စ	-0.477121
-0.022276	ဏ န ်	-1.301030
-0.176091	ဏ ပ ု	-0.477121
-0.301030	ဏ မ ျ	-0.301030
-0.176091	ဏ လ ည	-0.477121
-0.397940	ဏ အ လ	-0.397940
-0.698970	ဏ အ ာ	-0.397940
-1.079181	ဏ ာ </s>	-0.477121
-0.477121	ဏ ာ မ	-0.477121
-1.079181	ဏ ာ ရ	-0.477121
-0.778151	ဏ ာ အ	-0.477121
-0.845098	ဏ ် ပ	-0.845098
-0.146128	ဏ ် ရ	-0.845098
-0.176091	ဏ ၂ ၀	-0.477121
-0.055517	တ က ်	-1.096910
-1.397940	တ က ျ	-1.096910
-0.301030	တ ခ ွ	-0.301030
-0.012965	တ င ်	-1.531479
-1.662758	တ စ ိ	-1.361728
-0.029289	တ စ ်	-1.361728
-0.176091	တ ဆ ထ	-0.477121
-0.029963	တ ည ်	-1.176091
-0.032185	တ န ်	-1.146128
-0.066947	တ ပ ်	-1.021189
-1.322219	တ ပ ြ	-1.021189
-1.414973	တ မ း	-1.113943
-0.053246	တ မ ်	-1.113943
-0.003380	တ ယ ်	-2.110590
-0.397940	တ ရ ာ	-0.397940
-0.698970	တ ရ ွ	-0.397940
-1.477121	တ ာ )	-0.574031
-0.698970	တ ာ </s>	-0.574031
-1.477121	တ ာ က	-0.574031
-1.176091	တ ာ ခ	-0.574031
-1.778151	တ ာ စ	-0.574031
-1.477121	တ ာ ည	-0.574031
-1.778151	တ ာ တ	-0.574031
-1.477121	တ ာ ထ	-0.574031
-1.477121	တ ာ န	-0.574031
-1.477121	တ ာ ပ	-0.574031
-1.176091	တ ာ မ	-0.574031
-1.778151	တ ာ ဝ	-0.574031
-1.000000	တ ာ သ	-0.574031
-1.778151	တ ာ ၊	-0.574031
-1.778151	တ ာ ။	-0.574031
-1.778151	တ ာ ၏	-0.574031
-1.763428	တ ိ န	-1.064458
-1.064458	တ ိ ပ	-1.064458
-1.763428	တ ိ ရ	-1.064458
-1.763428	တ ိ လ	-1.064458
-0.110215	တ ိ ု	-1.064458
-0.954243	တ ီ မ	-0.653213
-0.176091	တ ီ း	-0.653213
-0.255273	တ ု န	-0.778151
-1.255273	တ ု သ	-0.778151
-0.653213	တ ု ံ	-0.778151
-0.477121	တ ူ ည	-0.477121
-0.477121	တ ူ အ	-0.477121
-0.022276	တ ေ ာ	-1.301030
-0.066947	တ ဲ ့	-0.845098
-0.778151	တ ံ </s>	-0.301030
-0.778151	တ ံ တ	-0.301030
-0.778151	တ ံ ဖ	-0.301030
-0.301030	တ း တ	-0.301030
-0.176091	တ ္ တ	-0.477121
-1.821186	တ ် )	-1.043035
-1.277118	တ ် </s>	-1.043035
-1.578148	တ ် က	-1.043035
-1.043035	တ ် ခ	-1.043035
-2.122216	တ ် ဂ	-1.043035
-1.247155	တ ် စ	-1.043035
-1.381853	တ ် ဆ	-1.043035
-2.423246	တ ် ည	-1.043035
-0.821186	တ ် တ	-1.043035
-1.578148	တ ် ထ	-1.043035
-2.423246	တ ် ဒ	-1.043035
-1.469003	တ ် န	-1.043035
-1.344065	တ ် ပ	-1.043035
-1.469003	တ ် ဖ	-1.043035
-2.122216	တ ် ဘ	-1.043035
-1.344065	တ ် မ	-1.043035
-1.645095	တ ် ရ	-1.043035
-1.578148	တ ် လ	-1.043035
-2.122216	တ ် ဝ	-1.043035
-1.309303	တ ် သ	-1.043035
-0.855044	တ ် အ	-1.043035
-2.122216	တ ် ၃	-1.043035
-2.122216	တ ် ၆	-1.043035
-2.122216	တ ် ၌	-1.043035
-1.110215	တ ွ က	-1.462398
-0.177967	တ ွ င	-1.462398
-0.666518	တ ွ ေ	-1.462398
-2.064458	တ ွ ဲ	-1.462398
-0.057992	ထ က ်	-0.903090
-0.176091	ထ ခ ြ	-0.477121
-0.301030	ထ စ ်	-0.301030
-0.156786	ထ ည ့	-1.217484
-0.615424	ထ ည ်	-1.217484
-0.124939	ထ ပ ်	-0.602060
-0.032669	ထ မ င	-1.662758
-2.139879	ထ မ ဦ	-1.662758
-1.361728	ထ မ ်	-1.662758
-0.176091	ထ ရ န	-0.477121
-0.007687	ထ ာ း	-1.755875
-1.221849	ထ ိ ခ	-0.920819
-1.397940	ထ ိ တ	-0.920819
-0.744727	ထ ိ န	-0.920819
-1.698970	ထ ိ ရ	-0.920819
-1.698970	ထ ိ သ	-0.920819
-0.251812	ထ ိ ု	-0.920819
-0.425969	ထ ု တ	-0.602060
-0.425969	ထ ု ံ	-0.602060
-1.079181	ထ ူ ခ	-0.602060
-0.477121	ထ ူ ထ	-0.602060
-0.477121	ထ ူ း	-0.602060
-0.024824	ထ ေ ာ	-1.255273
-0.425969	ထ ဲ တ	-0.425969
-0.903090	ထ ဲ ရ	-0.425969
-0.903090	ထ ဲ သ	-0.425969
-0.778151	ထ ံ ဒ	-0.477121
-0.778151	ထ ံ မ	-0.477121
-0.778151	ထ ံ သ	-0.477121
-0.778151	ထ ံ အ	-0.477121
-0.207125	ထ ွ က	-1.161368
-0.508155	ထ ွ ေ	-1.161368
-0.041393	ဒ ဏ ်	-1.041393
-0.176091	ဒ ရ က	-0.477121
-0.301030	ဒ အ လ	-0.301030
-0.138303	ဒ ါ မ	-0.740363
-1.041393	ဒ ါ ရ	-0.740363
-0.544068	ဒ ိ န	-0.544068
-0.367977	ဒ ိ ု	-0.544068
-2.745855	ဒ ီ (	-2.143795
-0.011055	ဒ ီ ဂ	-2.143795
-1.842765	ဒ ီ န	-2.143795
-2.745855	ဒ ီ ယ	-2.143795
-0.367977	ဒ ေ သ	-0.544068
-0.544068	ဒ ေ ါ	-0.544068
-0.066947	ဓ ါ တ	-0.845098
-0.732394	ဓ ာ က	-0.829304
-1.431364	ဓ ာ ဆ	-0.829304
-0.255273	ဓ ာ တ	-0.829304
-1.130334	ဓ ာ အ	-0.829304
-0.124939	ဓ ိ က	-0.602060
-0.057992	န က ်	-0.903090
-0.176091	န င ်	-0.477121
-0.057992	န စ ်	-0.903090
-0.011899	န ည ်	-1.568202
-0.176091	န ပ ်	-0.477121
-0.301030	န မ ိ	-0.301030
-0.057992	န ယ ်	-0.903090
-0.176091	န ဦ း	-0.477121
-1.217484	န ာ </s>	-0.865301
-0.643453	န ာ က	-0.865301
-1.819544	န ာ ခ	-0.865301
-0.705601	န ာ ပ	-0.865301
-1.041393	န ာ မ	-0.865301
-1.041393	န ာ ရ	-0.865301
-1.518514	န ာ အ	-0.865301
-1.819544	န ာ ဧ	-0.865301
-0.865301	န ာ း	-0.865301
-1.352183	န ိ မ	-1.352183
-0.040429	န ိ ု	-1.352183
-0.410174	န ီ ရ	-0.778151
-0.954243	န ီ လ	-0.778151
-0.477121	န ီ း	-0.778151
-0.096910	န ု တ	-0.698970
-2.204120	န ေ (	-0.925366
-1.903090	န ေ )	-0.925366
-1.425969	န ေ </s>	-0.925366
-1.425969	န ေ က	-0.925366
-1.903090	န ေ ခ	-0.925366
-1.602060	န ေ စ	-0.925366
-2.204120	န ေ တ	-0.925366
-1.602060	န ေ ထ	-0.925366
-1.162727	န ေ ပ	-0.925366
-1.903090	န ေ ဖ	-0.925366
-1.726999	န ေ မ	-0.925366
-0.973671	န ေ ရ	-0.925366
-1.505150	န ေ လ	-0.925366
-1.124939	န ေ သ	-0.925366
-1.602060	န ေ ဟ	-0.925366
-1.124939	န ေ အ	-0.925366
-1.028029	န ေ ာ	-0.925366
-0.698970	န ေ ့	-0.925366
-1.903090	န ေ ၍	-0.925366
-0.698970	န ံ န	-0.397940
-0.397940	န ံ ပ	-0.397940
-0.007825	န ့ ်	-1.748188
-0.875061	န ္ တ	-0.698970
-0.875061	န ္ ဒ	-0.698970
-0.273001	န ္ ဓ	-0.698970
-3.197143	န ် (	-2.051015
-3.021051	န ် )	-2.051015
-2.267724	န ် </s>	-2.051015
-2.294053	န ် က	-2.051015
-2.498173	န ် ခ	-2.051015
-2.653075	န ် စ	-2.051015
-2.543930	န ် ဆ	-2.051015
-3.197143	န ် ည	-2.051015
-2.322081	န ် တ	-2.051015
-2.384229	န ် ထ	-2.051015
-0.737750	န ် န	-2.051015
-2.021051	န ် ပ	-2.051015
-2.117961	န ် ဖ	-2.051015
-3.021051	န ် ဘ	-2.051015
-2.242900	န ် မ	-2.051015
-2.896113	န ် ရ	-2.051015
-2.100233	န ် လ	-2.051015
-3.197143	န ် ဝ	-2.051015
-2.595083	န ် သ	-2.051015
-3.498173	န ် ဟ	-2.051015
-2.418991	န ် အ	-2.051015
-2.896113	န ် ့	-2.051015
-0.415387	န ် း	-2.051015
-0.786365	န ် ၁	-2.051015
-0.763373	န ် ၃	-2.051015
-3.197143	န ် ၅	-2.051015
-1.807977	န ် ၉	-2.051015
-3.498173	န ် ၊	-2.051015
-1.204120	န ွ မ	-0.726999
-0.204120	န ွ ေ	-0.726999
-0.903090	န ွ ှ	-0.726999
-1.643699	န ှ င	-2.400661
-2.166578	န ှ စ	-2.400661
-0.486092	န ှ လ	-2.400661
-2.291517	န ှ ာ	-2.400661
-2.342669	န ှ ိ	-2.400661
-0.203578	န ှ ု	-2.400661
-2.342669	န ှ ေ	-2.400661
-0.124939	ပ က ်	-0.602060
-0.845098	ပ င ့	-0.845098
-0.146128	ပ င ်	-0.845098
-0.397940	ပ စ ္	-0.397940
-0.698970	ပ စ ်	-0.397940
-0.124939	ပ ည ာ	-0.602060
-0.022276	ပ တ ်	-1.301030
-0.301030	ပ ထ မ	-0.301030
-0.034762	ပ န ်	-1.113943
-0.016390	ပ မ ာ	-1.431364
-0.778151	ပ လ မ	-0.301030
-0.778151	ပ လ ာ	-0.301030
-0.778151	ပ လ ှ	-0.301030
-0.301030	ပ သ ည	-0.301030
-2.070038	ပ ါ (	-1.257125
-1.115795	ပ ါ </s>	-1.257125
-2.371068	ပ ါ ခ	-1.257125
-2.371068	ပ ါ ဇ	-1.257125
-0.260478	ပ ါ တ	-1.257125
-1.371068	ပ ါ ပ	-1.257125
-1.893947	ပ ါ မ	-1.257125
-1.769008	ပ ါ ဝ	-1.257125
-0.879706	ပ ါ သ	-1.257125
-2.371068	ပ ါ အ	-1.257125
-1.893947	ပ ါ း	-1.257125
-1.893947	ပ ါ ၊	-1.257125
-1.166948	ပ ါ ။	-1.257125
-1.643453	ပ ိ တ	-1.166331
-0.052388	ပ ိ ု	-1.166331
-1.643453	ပ ိ ူ	-1.166331
-1.819544	ပ ု တ	-1.518514
-0.020203	ပ ု ံ	-1.518514
-0.005532	ပ ူ ခ	-2.140665
-2.742725	ပ ူ တ	-2.140665
-2.742725	ပ ူ ပ	-2.140665
-2.742725	ပ ူ အ	-2.140665
-2.348954	ပ ေ ခ	-2.224015
-2.525045	ပ ေ သ	-2.224015
-0.046478	ပ ေ ါ	-2.224015
-1.055223	ပ ေ း	-2.224015
-0.602060	ပ ဲ စ	-0.301030
-0.602060	ပ ဲ ့	-0.301030
-0.057992	ပ ံ ့	-0.903090
-1.716003	ပ ် </s>	-1.062791
-1.238882	ပ ် က	-1.062791
-0.726999	ပ ် ခ	-1.062791
-1.414973	ပ ် စ	-1.062791
-1.276671	ပ ် ဆ	-1.062791
-2.318063	ပ ် ဌ	-1.062791
-2.017033	ပ ် တ	-1.062791
-1.276671	ပ ် ထ	-1.062791
-1.363821	ပ ် န	-1.062791
-1.171935	ပ ် ပ	-1.062791
-2.318063	ပ ် ဖ	-1.062791
-1.276671	ပ ် မ	-1.062791
-1.141972	ပ ် ယ	-1.062791
-0.937852	ပ ် ရ	-1.062791
-2.017033	ပ ် လ	-1.062791
-2.318063	ပ ် ဝ	-1.062791
-1.363821	ပ ် သ	-1.062791
-1.113943	ပ ် အ	-1.062791
-1.000000	ပ ျ က	-0.698970
-1.301030	ပ ျ စ	-0.698970
-1.000000	ပ ျ ူ	-0.698970
-0.259637	ပ ျ ေ	-0.698970
-2.240549	ပ ြ က	-1.311130
-1.939519	ပ ြ ခ	-1.311130
-1.094421	ပ ြ င	-1.311130
-2.240549	ပ ြ စ	-1.311130
-1.939519	ပ ြ ည	-1.311130
-2.541579	ပ ြ ထ	-1.311130
-0.908111	ပ ြ န	-1.311130
-2.064458	ပ ြ မ	-1.311130
-2.240549	ပ ြ သ	-1.311130
-1.462398	ပ ြ ာ	-1.311130
-2.541579	ပ ြ ိ	-1.311130
-0.633094	ပ ြ ီ	-1.311130
-0.655089	ပ ြ ု	-1.311130
-0.834009	ပ ြ ေ	-1.311130
-2.541579	ပ ြ ဲ	-1.311130
-1.427636	ပ ြ ွ	-1.311130
-1.763428	ပ ြ ဿ	-1.311130
-1.568202	ပ ွ င	-0.869232
-1.568202	ပ ွ တ	-0.869232
-1.568202	ပ ွ န	-0.869232
-1.091080	ပ ွ ာ	-0.869232
-0.153228	ပ ွ ဲ	-0.869232
-0.051153	ဖ က ်	-0.954243
-0.124939	ဖ တ ်	-0.602060
-0.477121	ဖ န ေ	-0.477121
-0.477121	ဖ န ်	-0.477121
-0.301030	ဖ ရ င	-0.301030
-0.176091	ဖ ာ ခ	-0.477121
-1.380211	ဖ ိ ထ	-0.778151
-1.380211	ဖ ိ န	-0.778151
-0.602060	ဖ ိ အ	-0.778151
-0.301030	ဖ ိ ု	-0.778151
-0.698970	ဖ ီ </s>	-0.397940
-0.397940	ဖ ီ း	-0.397940
-0.255273	ဖ ု န	-0.653213
-0.653213	ဖ ု ံ	-0.653213
-0.602060	ဖ ူ လ	-0.301030
-0.602060	ဖ ူ း	-0.301030
-0.023481	ဖ ေ ာ	-1.278754
-0.301030	ဖ ် (	-0.301030
-1.079181	ဖ ျ က	-0.602060
-0.301030	ဖ ျ ာ	-0.602060
-0.778151	ဖ ျ ေ	-0.602060
-0.341775	ဖ ြ င	-1.348954
-0.536040	ဖ ြ စ	-1.348954
-1.282007	ဖ ြ ည	-1.348954
-1.282007	ဖ ြ တ	-1.348954
-1.348954	ဖ ြ ူ	-1.348954
-1.224015	ဖ ြ ေ	-1.348954
-0.425969	ဖ ွ တ	-0.425969
-0.903090	ဖ ွ ာ	-0.425969
-0.903090	ဖ ွ ဲ	-0.425969
-0.124939	ဗ မ ာ	-0.602060
-0.096910	ဗ ိ ု	-0.698970
-0.301030	ဗ ျ ာ	-0.301030
-0.037789	ဘ က ်	-1.079181
-0.037789	ဘ ယ ်	-1.079181
-0.301030	ဘ ရ ပ	-0.301030
-0.903090	ဘ ာ တ	-0.726999
-0.602060	ဘ ာ ဝ	-0.726999
-0.359022	ဘ ာ သ	-0.726999
-0.301030	ဘ ိ ု	-0.301030
-1.322219	ဘ ီ (	-0.623249
-0.720159	ဘ ီ </s>	-0.623249
-1.322219	ဘ ီ သ	-0.623249
-0.367977	ဘ ီ း	-0.623249
-1.322219	ဘ ီ ၊	-0.623249
-0.301030	ဘ ု ရ	-0.301030
-0.041393	ဘ ေ ာ	-1.041393
-0.397940	ဘ ဲ ဆ	-0.397940
-0.698970	ဘ ဲ န	-0.397940
-0.176091	ဘ ွ န	-0.477121
-1.079181	မ က ိ	-0.477121
-0.778151	မ က ေ	-0.477121
-1.079181	မ က ်	-0.477121
-0.477121	မ က ျ	-0.477121
-0.176091	မ ခ ံ	-0.477121
-0.013364	မ င ်	-1.819544
-1.819544	မ င ြ	-1.819544
-0.544068	မ စ င	-0.845098
-0.243038	မ စ ာ	-0.845098
-0.602060	မ ဆ င	-0.301030
-0.602060	မ ဆ ွ	-0.301030
-1.361728	မ ည စ	-0.884607
-0.516630	မ ည ့	-0.884607
-0.282547	မ ည ်	-0.884607
-0.698970	မ တ ည	-0.522879
-0.698970	မ တ ေ	-0.522879
-0.522879	မ တ ်	-0.522879
-0.903090	မ ထ ာ	-0.602060
-0.204120	မ ထ ိ	-0.602060
-0.740363	မ န က	-0.439333
-1.041393	မ န ည	-0.439333
-0.740363	မ န ေ	-0.439333
-0.740363	မ န ်	-0.439333
-1.041393	မ ပ ါ	-0.564271
-1.041393	မ ပ ျ	-0.564271
-0.263241	မ ပ ြ	-0.564271
-0.301030	မ ဖ ေ	-0.477121
-0.778151	မ ဖ ြ	-0.477121
-0.602060	မ မ ျ	-0.301030
-0.602060	မ မ ှ	-0.301030
-0.176091	မ ယ ်	-0.477121
-1.602060	မ ရ </s>	-0.903090
-1.301030	မ ရ ပ	-0.903090
-1.602060	မ ရ သ	-0.903090
-1.124939	မ ရ ေ	-0.903090
-0.154902	မ ရ ှ	-0.903090
-0.602060	မ လ ိ	-0.301030
-0.602060	မ လ ှ	-0.301030
-1.079181	မ သ က	-0.477121
-0.778151	မ သ ာ	-0.477121
-0.778151	မ သ ိ	-0.477121
-0.602060	မ သ ွ	-0.477121
-0.016390	မ ဟ ု	-1.431364
-0.602060	မ အ ိ	-0.301030
-0.602060	မ အ ီ	-0.301030
-0.301030	မ ဦ း	-0.301030
-1.447158	မ ာ က	-1.049218
-0.903090	မ ာ စ	-1.049218
-0.333215	မ ာ ဏ	-1.049218
-0.669007	မ ာ ရ	-1.049218
-1.146128	မ ာ သ	-1.049218
-1.591065	မ ိ ဂ	-0.687975
-1.591065	မ ိ ဆ	-0.687975
-1.591065	မ ိ တ	-0.687975
-1.113943	မ ိ န	-0.687975
-0.892095	မ ိ ဘ	-0.687975
-0.812913	မ ိ မ	-0.687975
-0.511883	မ ိ သ	-0.687975
-1.290035	မ ိ ု	-0.687975
-1.352183	မ ီ </s>	-0.808114
-1.653213	မ ီ က	-0.808114
-1.176091	မ ီ တ	-0.808114
-1.653213	မ ီ ပ	-0.808114
-0.273001	မ ီ လ	-0.808114
-1.352183	မ ီ သ	-0.808114
-0.954243	မ ီ း	-0.808114
-1.113943	မ ု တ	-0.636822
-0.210853	မ ု န	-0.636822
-1.113943	မ ု ံ	-0.636822
-0.698970	မ ူ ဆ	-0.397940
-1.000000	မ ူ တ	-0.397940
-1.000000	မ ူ မ	-0.397940
-0.698970	မ ူ း	-0.397940
-0.740363	မ ေ ာ	-0.564271
-0.740363	မ ေ ့	-0.564271
-0.439333	မ ေ း	-0.564271
-0.778151	မ ံ က	-0.477121
-0.301030	မ ံ ခ	-0.477121
-0.079181	မ ့ ်	-0.778151
-0.301030	မ း ့	-0.301030
-2.271842	မ ် /	-1.125714
-2.271842	မ ် </s>	-1.125714
-1.572872	မ ် က	-1.125714
-1.970812	မ ် ခ	-1.125714
-1.493690	မ ် တ	-1.125714
-1.230449	မ ် ပ	-1.125714
-1.426744	မ ် ဖ	-1.125714
-2.271842	မ ် မ	-1.125714
-1.970812	မ ် ရ	-1.125714
-1.493690	မ ် သ	-1.125714
-1.970812	မ ် အ	-1.125714
-2.271842	မ ် ာ	-1.125714
-0.168038	မ ် း	-1.125714
-2.271842	မ ် ။	-1.125714
-0.890378	မ ျ က	-1.305351
-1.703291	မ ျ ဉ	-1.305351
-0.191408	မ ျ ာ	-1.305351
-0.828230	မ ျ ိ	-1.305351
-2.004321	မ ျ ှ	-1.305351
-0.592076	မ ြ င	-0.788370
-1.633468	မ ြ စ	-0.788370
-0.730378	မ ြ န	-0.788370
-1.332438	မ ြ ိ	-0.788370
-1.633468	မ ြ ေ	-0.788370
-0.934498	မ ြ ဲ	-0.788370
-0.730378	မ ြ ှ	-0.788370
-1.204120	မ ွ တ	-0.726999
-0.602060	မ ွ န	-0.726999
-0.301030	မ ွ ေ	-0.726999
-2.113943	မ ှ က	-1.301030
-2.414973	မ ှ ခ	-1.301030
-1.301030	မ ှ ဆ	-1.301030
-0.952575	မ ှ တ	-1.301030
-1.937852	မ ှ ထ	-1.301030
-0.812913	မ ှ န	-1.301030
-1.812913	မ ှ ပ	-1.301030
-2.113943	မ ှ ဘ	-1.301030
-1.511883	မ ှ မ	-1.301030
-2.113943	မ ှ အ	-1.301030
-1.460731	မ ှ ာ	-1.301030
-2.414973	မ ှ ိ	-1.301030
-0.291122	မ ှ ု	-1.301030
-0.124939	ယ က ံ	-0.602060
-0.301030	ယ စ ်	-0.301030
-0.301030	ယ န ်	-0.301030
-0.301030	ယ ပ ်	-0.301030
-0.301030	ယ မ ်	-0.301030
-1.518514	ယ ာ (	-0.477121
-1.217484	ယ ာ </s>	-0.477121
-1.041393	ယ ာ ခ	-0.477121
-1.217484	ယ ာ ထ	-0.477121
-1.217484	ယ ာ န	-0.477121
-1.518514	ယ ာ ပ	-0.477121
-1.518514	ယ ာ ရ	-0.477121
-1.217484	ယ ာ လ	-0.477121
-1.217484	ယ ာ ဝ	-0.477121
-1.518514	ယ ာ အ	-0.477121
-0.819544	ယ ာ း	-0.477121
-0.653213	ယ ိ မ	-0.653213
-0.255273	ယ ိ ု	-0.653213
-0.342423	ယ ူ ခ	-0.740363
-0.643453	ယ ူ န	-0.740363
-1.342423	ယ ူ ပ	-0.740363
-1.041393	ယ ူ သ	-0.740363
-0.176091	ယ ေ ာ	-0.477121
-0.397940	ယ ံ မ	-0.397940
-0.698970	ယ ံ သ	-0.397940
-0.301030	ယ ့ ်	-0.301030
-1.109747	ယ ် </s>	-1.614897
-2.216957	ယ ် က	-1.614897
-1.347725	ယ ် ခ	-1.614897
-2.137776	ယ ် စ	-1.614897
-2.438806	ယ ် ဆ	-1.614897
-2.313867	ယ ် တ	-1.614897
-2.137776	ယ ် န	-1.614897
-2.137776	ယ ် ပ	-1.614897
-2.915927	ယ ် ဖ	-1.614897
-2.915927	ယ ် ဗ	-1.614897
-2.614897	ယ ် ဘ	-1.614897
-1.961685	ယ ် မ	-1.614897
-2.614897	ယ ် ယ	-1.614897
-1.915927	ယ ် ရ	-1.614897
-1.769799	ယ ် လ	-1.614897
-2.216957	ယ ် သ	-1.614897
-2.614897	ယ ် ဟ	-1.614897
-0.166191	ယ ် အ	-1.614897
-1.517987	ယ ် ၊	-1.614897
-1.313867	ယ ် ။	-1.614897
-0.301030	ယ ွ င	-0.301030
-0.159701	ရ က ်	-0.812913
-0.812913	ရ က ျ	-0.812913
-0.602060	ရ ခ က	-0.425969
-0.602060	ရ ခ ါ	-0.425969
-0.903090	ရ ခ ြ	-0.425969
-1.230449	ရ င ့	-0.929419
-0.084321	ရ င ်	-0.929419
-0.653213	ရ စ စ	-0.477121
-0.653213	ရ စ ီ	-0.477121
-0.653213	ရ စ ်	-0.477121
-0.301030	ရ ဆ ိ	-0.301030
-0.032185	ရ ည ်	-1.146128
-0.301030	ရ ဓ ာ	-0.301030
-0.022276	ရ န ်	-1.301030
-1.113943	ရ ပ ည	-0.812913
-0.414973	ရ ပ ါ	-0.812913
-0.511883	ရ ပ ်	-0.812913
-1.113943	ရ ပ ြ	-0.812913
-0.301030	ရ ဖ ြ	-0.301030
-0.544068	ရ မ ည	-0.669007
-0.447158	ရ မ ်	-0.669007
-0.845098	ရ မ ှ	-0.669007
-0.477121	ရ ရ ည	-0.477121
-0.477121	ရ ရ ှ	-0.477121
-0.602060	ရ လ ာ	-0.301030
-0.602060	ရ လ ွ	-0.301030
-0.176091	ရ ဝ မ	-0.477121
-0.726999	ရ သ ည	-0.726999
-0.903090	ရ သ ဖ	-0.726999
-0.301030	ရ သ ေ	-0.726999
-2.487845	ရ ာ -	-1.533603
-2.487845	ရ ာ /	-1.533603
-1.943777	ရ ာ </s>	-1.533603
-2.089905	ရ ာ က	-1.533603
-0.066241	ရ ာ ခ	-1.533603
-2.010724	ရ ာ တ	-1.533603
-2.487845	ရ ာ ထ	-1.533603
-2.311754	ရ ာ ဒ	-1.533603
-2.788875	ရ ာ န	-1.533603
-1.885785	ရ ာ ပ	-1.533603
-2.089905	ရ ာ မ	-1.533603
-2.487845	ရ ာ ယ	-1.533603
-2.186815	ရ ာ ရ	-1.533603
-2.010724	ရ ာ ဝ	-1.533603
-2.010724	ရ ာ သ	-1.533603
-1.943777	ရ ာ အ	-1.533603
-2.788875	ရ ာ း	-1.533603
-2.487845	ရ ာ ၏	-1.533603
-1.301030	ရ ိ တ	-0.823909
-1.000000	ရ ိ ယ	-0.823909
-0.154902	ရ ိ ု	-0.823909
-2.748963	ရ ီ )	-1.903865
-1.115494	ရ ီ </s>	-1.903865
-2.748963	ရ ီ စ	-1.903865
-2.146903	ရ ီ တ	-1.903865
-2.748963	ရ ီ ပ	-1.903865
-2.447933	ရ ီ း	-1.903865
-0.048259	ရ ီ ၊	-1.903865
-1.190332	ရ ု စ	-0.889302
-1.014240	ရ ု တ	-0.889302
-0.713210	ရ ု ပ	-0.889302
-0.287242	ရ ု ံ	-0.889302
-2.301030	ရ ေ </s>	-1.000000
-2.301030	ရ ေ က	-1.000000
-1.096910	ရ ေ ခ	-1.000000
-2.301030	ရ ေ စ	-1.000000
-2.000000	ရ ေ ဆ	-1.000000
-1.823909	ရ ေ တ	-1.000000
-2.301030	ရ ေ ဒ	-1.000000
-1.259637	ရ ေ ဓ	-1.000000
-1.698970	ရ ေ န	-1.000000
-1.022276	ရ ေ ပ	-1.000000
-2.301030	ရ ေ ဝ	-1.000000
-1.698970	ရ ေ သ	-1.000000
-2.301030	ရ ေ အ	-1.000000
-0.732828	ရ ေ ာ	-1.000000
-0.474955	ရ ေ း	-1.000000
-1.823909	ရ ေ ၁	-1.000000
-2.000000	ရ ေ ၂	-1.000000
-2.000000	ရ ေ ၃	-1.000000
-2.000000	ရ ေ ၄	-1.000000
-2.000000	ရ ေ ၅	-1.000000
-0.698970	ရ ဲ န	-0.522879
-0.397940	ရ ဲ မ	-0.522879
-1.000000	ရ ဲ လ	-0.522879
-0.602060	ရ ံ ဟ	-0.301030
-0.602060	ရ ံ ု	-0.301030
-0.581857	ရ ွ က	-0.845098
-1.623249	ရ ွ တ	-0.845098
-1.021189	ရ ွ ယ	-0.845098
-1.322219	ရ ွ ာ	-0.845098
-0.845098	ရ ွ ေ	-0.845098
-0.544068	ရ ွ ှ	-0.845098
-0.659203	ရ ှ င	-1.164353
-1.863323	ရ ှ ည	-1.164353
-2.164353	ရ ှ န	-1.164353
-2.164353	ရ ှ မ	-1.164353
-0.988262	ရ ှ ာ	-1.164353
-0.423990	ရ ှ ိ	-1.164353
-1.386202	ရ ှ ု	-1.164353
-1.122960	ရ ှ ူ	-1.164353
-1.085172	ရ ှ ေ	-1.164353
-2.164353	ရ ှ ်	-1.164353
-0.787106	လ က ္	-1.389166
-0.099131	လ က ်	-1.389166
-0.045757	လ င ်	-1.000000
-0.397940	လ စ ဉ	-0.397940
-0.698970	လ စ ်	-0.397940
-0.018483	လ ည ်	-1.380211
-0.124939	လ တ ်	-0.602060
-0.176091	လ ထ က	-0.477121
-0.124939	လ န ်	-0.602060
-0.029963	လ မ ်	-1.176091
-0.037789	လ ယ ်	-1.079181
-1.806180	လ ာ </s>	-0.851937
-1.107210	လ ာ ခ	-0.851937
-1.806180	လ ာ စ	-0.851937
-1.806180	လ ာ န	-0.851937
-0.903090	လ ာ ပ	-0.851937
-1.505150	လ ာ မ	-0.851937
-1.505150	လ ာ ရ	-0.851937
-1.107210	လ ာ သ	-0.851937
-0.329059	လ ာ း	-0.851937
-0.806180	လ ိ ပ	-1.028029
-0.726999	လ ိ မ	-1.028029
-0.249877	လ ိ ု	-1.028029
-0.354276	လ ီ တ	-1.113943
-1.716003	လ ီ ဖ	-1.113943
-1.716003	လ ီ မ	-1.113943
-0.354276	လ ီ လ	-1.113943
-2.509874	လ ု တ	-2.333783
-1.208844	လ ု ပ	-2.333783
-0.031308	လ ု ံ	-2.333783
-0.778151	လ ူ တ	-0.602060
-0.301030	လ ူ န	-0.602060
-1.079181	လ ူ း	-0.602060
-1.612784	လ ေ ထ	-0.709694
-1.311754	လ ေ ပ	-0.709694
-1.612784	လ ေ ဖ	-0.709694
-1.612784	လ ေ ဝ	-0.709694
-1.612784	လ ေ အ	-0.709694
-1.612784	လ ေ ာ	-0.709694
-0.311754	လ ေ ့	-0.709694
-0.834633	လ ေ း	-0.709694
-1.329059	လ ဲ </s>	-0.851937
-1.204120	လ ဲ ?	-0.851937
-1.107210	လ ဲ က	-0.851937
-0.764787	လ ဲ ခ	-0.851937
-1.204120	လ ဲ ပ	-0.851937
-1.505150	လ ဲ မ	-0.851937
-0.463757	လ ဲ လ	-0.851937
-1.806180	လ ဲ ၊	-0.851937
-1.329059	လ ဲ ။	-0.851937
-0.301030	လ ် က	-0.301030
-1.591065	လ ျ ာ	-1.113943
-0.511883	လ ျ ေ	-1.113943
-0.229337	လ ျ ှ	-1.113943
-1.204120	လ ွ တ	-0.602060
-0.505150	လ ွ န	-0.602060
-1.204120	လ ွ ယ	-0.602060
-0.505150	လ ွ ှ	-0.602060
-1.491362	လ ှ ည	-0.838149
-1.190332	လ ှ န	-0.838149
-1.315270	လ ှ ပ	-0.838149
-1.491362	လ ှ မ	-0.838149
-0.513638	လ ှ ယ	-0.838149
-1.792392	လ ှ အ	-0.838149
-0.561943	လ ှ ု	-0.838149
-1.491362	လ ှ ေ	-0.838149
-1.315270	လ ှ ဲ	-0.838149
-0.301030	ဝ % ရ	-0.301030
-0.176091	ဝ က ်	-0.477121
-0.045757	ဝ င ်	-1.000000
-0.124939	ဝ စ ီ	-0.602060
-0.008955	ဝ တ ်	-1.690196
-0.026329	ဝ န ်	-1.230449
-0.176091	ဝ ပ ံ	-0.477121
-0.011281	ဝ မ ်	-1.591065
-0.176091	ဝ ယ ်	-0.477121
-0.301030	ဝ ရ ာ	-0.301030
-0.477121	ဝ အ တ	-0.477121
-0.477121	ဝ အ လ	-0.477121
-0.653213	ဝ ါ </s>	-0.477121
-0.954243	ဝ ါ ရ	-0.477121
-0.477121	ဝ ါ း	-0.477121
-0.301030	ဝ ိ ု	-0.301030
-0.602060	ဝ ေ ့	-0.301030
-0.602060	ဝ ေ း	-0.301030
-0.301030	ဝ ဲ စ	-0.301030
-0.196295	သ က ်	-1.217484
-0.518514	သ က ြ	-1.217484
-0.045757	သ ခ ြ	-1.000000
-0.564271	သ င ့	-0.740363
-0.263241	သ င ်	-0.740363
-0.124939	သ စ ်	-0.602060
-0.154189	သ ည ့	-1.638489
-0.559308	သ ည ်	-1.638489
-0.662758	သ တ င	-0.759668
-0.516630	သ တ ိ	-0.759668
-0.583577	သ တ ်	-0.759668
-1.361728	သ တ ွ	-0.759668
-0.875061	သ န ည	-0.875061
-1.477121	သ န ာ	-0.875061
-0.246672	သ န ့	-0.875061
-0.875061	သ န ်	-0.875061
-0.698970	သ ပ ေ	-0.397940
-0.397940	သ ပ ်	-0.397940
-0.019305	သ ဖ ြ	-1.361728
-0.243038	သ ဘ ာ	-0.544068
-0.845098	သ ဘ ေ	-0.544068
-1.230449	သ မ ည	-0.753328
-0.929419	သ မ ီ	-0.753328
-0.189056	သ မ ှ	-0.753328
-0.124939	သ ယ ်	-0.602060
-0.301030	သ ရ ေ	-0.301030
-0.230449	သ လ ာ	-1.054358
-0.832509	သ လ ိ	-1.054358
-0.753328	သ လ ဲ	-1.054358
-0.124939	သ သ ည	-0.602060
-1.423246	သ ာ )	-0.682883
-1.724276	သ ာ </s>	-0.682883
-1.724276	သ ာ စ	-0.682883
-1.247155	သ ာ တ	-0.682883
-1.423246	သ ာ ဖ	-0.682883
-1.423246	သ ာ မ	-0.682883
-1.724276	သ ာ ရ	-0.682883
-0.879178	သ ာ လ	-0.682883
-1.724276	သ ာ သ	-0.682883
-1.724276	သ ာ အ	-0.682883
-0.402057	သ ာ း	-0.682883
-1.806180	သ ိ စ	-1.107210
-0.903090	သ ိ ပ	-1.107210
-0.692237	သ ိ မ	-1.107210
-1.505150	သ ိ ရ	-1.107210
-0.262112	သ ိ ု	-1.107210
-0.875061	သ ီ ခ	-0.397940
-0.875061	သ ီ ပ	-0.397940
-1.176091	သ ီ မ	-0.397940
-1.176091	သ ီ သ	-0.397940
-0.875061	သ ီ အ	-0.397940
-1.176091	သ ီ း	-0.397940
-1.732394	သ ု ည	-1.130334
-1.431364	သ ု တ	-1.130334
-1.732394	သ ု ပ	-1.130334
-0.069636	သ ု ံ	-1.130334
-1.462398	သ ူ )	-0.684247
-0.985277	သ ူ </s>	-0.684247
-0.348455	သ ူ န	-0.684247
-1.161368	သ ူ မ	-0.684247
-1.462398	သ ူ သ	-0.684247
-0.985277	သ ူ အ	-0.684247
-2.089905	သ ေ တ	-1.612784
-0.068716	သ ေ ာ	-1.612784
-0.943777	သ ေ း	-1.612784
-1.079181	သ ံ </s>	-0.380211
-0.778151	သ ံ က	-0.380211
-1.079181	သ ံ တ	-0.380211
-1.079181	သ ံ ထ	-0.380211
-0.778151	သ ံ ပ	-0.380211
-1.585129	သ ွ င	-2.213518
-2.338456	သ ွ ယ	-2.213518
-1.202794	သ ွ ာ	-2.213518
-0.045462	သ ွ ေ	-2.213518
-0.003303	ဟ င ်	-2.120574
-0.176091	ဟ စ ်	-0.477121
-0.096910	ဟ န ်	-0.698970
-0.146128	ဟ ာ ရ	-1.021189
-0.720159	ဟ ာ သ	-1.021189
-0.016390	ဟ ု တ	-1.431364
-0.301030	အ = က	-0.301030
-0.301030	အ i t	-0.301030
-1.908485	အ က </s>	-0.867092
-1.908485	အ က န	-0.867092
-1.607455	အ က ိ	-0.867092
-1.306425	အ က ု	-0.867092
-1.063387	အ က ူ	-0.867092
-1.005395	အ က ေ	-0.867092
-1.130334	အ က ဲ	-0.867092
-1.908485	အ က ်	-0.867092
-1.209515	အ က ျ	-0.867092
-0.389971	အ က ြ	-0.867092
-1.607455	အ က ွ	-0.867092
-1.480725	အ ခ က	-1.128543
-1.304634	အ ခ င	-1.128543
-1.304634	အ ခ န	-1.128543
-2.082785	အ ခ မ	-1.128543
-0.936657	အ ခ ါ	-1.128543
-1.304634	အ ခ ဲ	-1.128543
-2.082785	အ ခ ်	-1.128543
-0.635627	အ ခ ျ	-1.128543
-0.420028	အ ခ ြ	-1.128543
-0.057992	အ င ်	-0.903090
-2.096910	အ စ က	-1.193820
-1.096910	အ စ ဉ	-1.193820
-2.096910	အ စ ည	-1.193820
-2.096910	အ စ ပ	-1.193820
-0.199283	အ စ ာ	-1.193820
-1.318759	အ စ ိ	-1.193820
-0.866461	အ စ ီ	-1.193820
-1.795880	အ စ ေ	-1.193820
-0.373581	အ ဆ င	-0.812913
-1.113943	အ ဆ စ	-0.812913
-0.812913	အ ဆ ာ	-0.812913
-0.716003	အ ဆ ေ	-0.812913
-0.301030	အ ည စ	-0.669007
-1.146128	အ ည ိ	-0.669007
-0.669007	အ ည ီ	-0.669007
-1.091080	အ တ က	-0.869232
-0.790050	အ တ ည	-0.869232
-0.869232	အ တ ိ	-0.869232
-1.267172	အ တ ူ	-0.869232
-0.364082	အ တ ွ	-0.869232
-0.602060	အ ထ ည	-0.660052
-1.028029	အ ထ ပ	-0.660052
-0.726999	အ ထ ာ	-0.660052
-1.505150	အ ထ ိ	-0.660052
-1.028029	အ ထ ူ	-0.660052
-1.028029	အ ထ ေ	-0.660052
-1.505150	အ ထ ွ	-0.660052
-0.124939	အ ဓ ိ	-0.602060
-1.457377	အ န က	-1.031408
-0.820555	အ န ည	-1.031408
-0.855317	အ န ာ	-1.031408
-1.235528	အ န ီ	-1.031408
-0.332438	အ န ေ	-1.031408
-1.633468	အ န ္	-1.031408
-1.633468	အ န ်	-1.031408
-1.934498	အ န ွ	-1.031408
-2.290776	အ ပ တ	-1.864808
-2.767898	အ ပ န	-1.864808
-2.290776	အ ပ ိ	-1.864808
-0.029117	အ ပ ူ	-1.864808
-2.290776	အ ပ ေ	-1.864808
-2.466868	အ ပ ်	-1.864808
-2.767898	အ ပ ျ	-1.864808
-1.537449	အ ပ ြ	-1.864808
-1.380211	အ ဖ ု	-0.778151
-0.778151	အ ဖ ျ	-0.778151
-0.234083	အ ဖ ြ	-0.778151
-1.380211	အ ဖ ွ	-0.778151
-0.954243	အ မ ည	-0.778151
-1.255273	အ မ ူ	-0.778151
-1.556303	အ မ ်	-0.778151
-0.514910	အ မ ျ	-0.778151
-0.602060	အ မ ြ	-0.778151
-1.079181	အ မ ှ	-0.778151
-1.518514	အ ရ ခ	-0.740363
-1.041393	အ ရ င	-0.740363
-1.342423	အ ရ ည	-0.740363
-1.819544	အ ရ န	-0.740363
-1.819544	အ ရ ပ	-0.740363
-1.518514	အ ရ ဝ	-0.740363
-1.217484	အ ရ ာ	-0.740363
-1.819544	အ ရ ိ	-0.740363
-1.518514	အ ရ ု	-0.740363
-0.388180	အ ရ ေ	-0.740363
-1.819544	အ ရ ံ	-0.740363
-1.217484	အ ရ ွ	-0.740363
-1.138303	အ လ က	-0.626419
-1.740363	အ လ င	-0.626419
-1.138303	အ လ ည	-0.626419
-1.263241	အ လ တ	-0.626419
-1.740363	အ လ ယ	-0.626419
-1.439333	အ လ ာ	-0.626419
-1.138303	အ လ ိ	-0.626419
-1.138303	အ လ ု	-0.626419
-1.041393	အ လ ေ	-0.626419
-1.740363	အ လ ဲ	-0.626419
-1.138303	အ လ ျ	-0.626419
-1.041393	အ လ ွ	-0.626419
-1.138303	အ လ ှ	-0.626419
-1.662758	အ ဝ င	-0.963788
-0.118690	အ ဝ တ	-0.963788
-1.361728	အ ဝ ပ	-0.963788
-1.361728	အ ဝ ါ	-0.963788
-1.662758	အ ဝ ေ	-0.963788
-0.770852	အ သ က	-0.867762
-1.770852	အ သ တ	-0.867762
-1.770852	အ သ န	-0.867762
-1.168792	အ သ ာ	-0.867762
-1.469822	အ သ ိ	-0.867762
-0.566732	အ သ ု	-0.867762
-0.691671	အ သ ေ	-0.867762
-1.071882	အ သ ံ	-0.867762
-0.176091	အ အ ေ	-0.477121
-0.301030	အ ဦ ရ	-0.301030
-1.255273	အ ာ ခ	-0.954243
-1.431364	အ ာ မ	-0.954243
-1.732394	အ ာ ရ	-0.954243
-0.556303	အ ာ ဟ	-0.954243
-1.732394	အ ာ ့	-0.954243
-0.317420	အ ာ း	-0.954243
-1.403692	အ ိ တ	-1.278754
-0.375664	အ ိ ပ	-1.278754
-0.418416	အ ိ မ	-1.278754
-0.977724	အ ိ ု	-1.278754
-0.602060	အ ီ မ	-0.301030
-0.602060	အ ီ း	-0.301030
-0.477121	အ ု ပ	-0.477121
-0.954243	အ ု ရ	-0.477121
-0.653213	အ ု ံ	-0.477121
-2.731589	အ ေ (	-2.254468
-0.005677	အ ေ ာ	-2.254468
-2.254468	အ ေ း	-2.254468
-0.176091	အ ဲ ဂ	-0.477121
-0.124939	အ ျ ေ	-0.602060
-0.301030	ဦ ရ ွ	-0.301030
-0.929419	ဦ း က	-0.628389
-0.686381	ဦ း ခ	-0.628389
-1.531479	ဦ း ဆ	-0.628389
-1.054358	ဦ း တ	-0.628389
-1.230449	ဦ း န	-0.628389
-0.929419	ဦ း ရ	-0.628389
-1.531479	ဦ း သ	-0.628389
-0.929419	ဦ း အ	-0.628389
-0.176091	ဧ ည ့	-0.477121
-0.176091	ါ ( စ	-0.477121
-0.176091	ါ Z a	-0.477121
-0.845098	ါ က ာ	-0.544068
-0.669007	ါ က ိ	-0.544068
-1.146128	ါ က ု	-0.544068
-0.544068	ါ က ်	-0.544068
-0.301030	ါ ခ ြ	-0.301030
-0.000735	ါ င ်	-2.771587
-0.301030	ါ ဆ ေ	-0.301030
-0.301030	ါ ဇ ယ	-0.301030
-0.032917	ါ တ ယ	-1.835691
-1.233631	ါ တ ်	-1.835691
-0.301030	ါ န ှ	-0.301030
-0.041393	ါ ပ ြ	-1.041393
-0.301030	ါ ဖ ြ	-0.301030
-0.875061	ါ မ ယ	-0.698970
-1.176091	ါ မ ေ	-0.698970
-0.221849	ါ မ ှ	-0.698970
-0.845098	ါ ရ ိ	-0.367977
-0.544068	ါ ရ ု	-0.367977
-0.845098	ါ ရ ေ	-0.367977
-0.301030	ါ ဝ င	-0.602060
-0.602060	ါ ဝ တ	-0.602060
-1.633468	ါ သ ည	-0.934498
-1.031408	ါ သ ဘ	-0.934498
-0.218495	ါ သ လ	-0.934498
-1.156347	ါ သ ု	-0.934498
-1.031408	ါ သ ေ	-0.934498
-0.903090	ါ အ သ	-0.301030
-0.903090	ါ အ ာ	-0.301030
-0.903090	ါ အ ိ	-0.301030
-0.903090	ါ အ ျ	-0.301030
-0.301030	ါ ဦ း	-0.301030
-0.903090	ါ း က	-0.425969
-1.204120	ါ း စ	-0.425969
-1.204120	ါ း န	-0.425969
-1.204120	ါ း မ	-0.425969
-0.602060	ါ း ရ	-0.425969
-1.204120	ါ း သ	-0.425969
-1.633468	ါ ် )	-0.554287
-1.156347	ါ ် </s>	-0.554287
-1.156347	ါ ် က	-0.554287
-1.332438	ါ ် ခ	-0.554287
-1.156347	ါ ် ပ	-0.554287
-0.788370	ါ ် မ	-0.554287
-1.633468	ါ ် ယ	-0.554287
-1.633468	ါ ် ရ	-0.554287
-1.332438	ါ ် လ	-0.554287
-1.633468	ါ ် ဝ	-0.554287
-1.031408	ါ ် သ	-0.554287
-1.156347	ါ ် အ	-0.554287
-0.778151	ါ ၊ န	-0.301030
-0.778151	ါ ၊ ပ	-0.301030
-0.778151	ါ ၊ ရ	-0.301030
-0.079181	ါ ။ </s>	-0.954243
-1.255273	ါ ။ ဝ	-0.954243
-0.544068	ာ ( ပ	-0.367977
-0.845098	ာ ( သ	-0.367977
-0.845098	ာ ( အ	-0.367977
-0.066947	ာ ) </s>	-0.845098
-0.602060	ာ - က	-0.301030
-0.602060	ာ - အ	-0.301030
-0.176091	ာ / အ	-0.477121
-2.536558	ာ က တ	-1.934498
-2.837588	ာ က ယ	-1.934498
-2.536558	ာ က ာ	-1.934498
-1.837588	ာ က ိ	-1.934498
-2.837588	ာ က ု	-1.934498
-0.031408	ာ က ်	-1.934498
-1.633468	ာ က ျ	-1.934498
-1.934498	ာ က ွ	-1.934498
-2.277227	ာ ခ င	-1.851258
-2.754348	ာ ခ ါ	-1.851258
-0.031714	ာ ခ ိ	-1.851258
-1.976197	ာ ခ ေ	-1.851258
-2.453318	ာ ခ ဲ	-1.851258
-2.453318	ာ ခ ံ	-1.851258
-1.976197	ာ ခ ျ	-1.851258
-1.675167	ာ ခ ြ	-1.851258
-0.079181	ာ ဂ ါ	-0.778151
-0.809444	ာ င ့	-1.970812
-0.078717	ာ င ်	-1.970812
-0.720159	ာ စ က	-0.623249
-1.322219	ာ စ စ	-0.623249
-1.322219	ာ စ တ	-0.623249
-0.367977	ာ စ ာ	-0.623249
-1.322219	ာ စ ေ	-0.623249
-0.875061	ာ ဆ န	-0.574031
-0.875061	ာ ဆ ိ	-0.574031
-0.477121	ာ ဆ ီ	-0.574031
-0.875061	ာ ဆ ေ	-0.574031
-0.176091	ာ ည ွ	-0.477121
-1.531479	ာ ဏ )	-0.628389
-0.417536	ာ ဏ </s>	-0.628389
-1.230449	ာ ဏ စ	-0.628389
-1.230449	ာ ဏ ပ	-0.628389
-1.531479	ာ ဏ မ	-0.628389
-1.230449	ာ ဏ လ	-0.628389
-1.054358	ာ ဏ အ	-0.628389
-1.230449	ာ ဏ ၂	-0.628389
-1.301030	ာ တ က	-0.756962
-1.602060	ာ တ ပ	-0.756962
-1.602060	ာ တ ာ	-0.756962
-1.000000	ာ တ ဲ	-0.756962
-1.602060	ာ တ ံ	-0.756962
-0.425969	ာ တ ်	-0.756962
-0.647817	ာ တ ွ	-0.756962
-0.875061	ာ ထ ခ	-0.477121
-0.698970	ာ ထ ည	-0.477121
-1.176091	ာ ထ ာ	-0.477121
-0.875061	ာ ထ ဲ	-0.477121
-0.875061	ာ ထ ွ	-0.477121
-0.397940	ာ ဒ ဏ	-0.397940
-0.698970	ာ ဒ ါ	-0.397940
-0.556303	ာ န </s>	-0.556303
-0.954243	ာ န င	-0.556303
-0.954243	ာ န ာ	-0.556303
-0.778151	ာ န ိ	-0.556303
-1.255273	ာ န ေ	-0.556303
-1.913814	ာ ပ တ	-0.872421
-1.913814	ာ ပ ထ	-0.872421
-1.913814	ာ ပ န	-0.872421
-1.010724	ာ ပ မ	-0.872421
-0.767686	ာ ပ ါ	-0.872421
-1.135663	ာ ပ ိ	-0.872421
-1.913814	ာ ပ ု	-0.872421
-1.436693	ာ ပ ေ	-0.872421
-1.913814	ာ ပ ံ	-0.872421
-1.612784	ာ ပ ျ	-0.872421
-0.395300	ာ ပ ြ	-0.872421
-0.778151	ာ ဖ က	-0.477121
-0.301030	ာ ဖ ြ	-0.477121
-0.176091	ာ ဗ မ	-0.477121
-0.176091	ာ ဘ က	-0.477121
-1.672098	ာ မ က	-0.630705
-1.371068	ာ မ ခ	-0.630705
-0.973128	ာ မ စ	-0.630705
-1.371068	ာ မ ည	-0.630705
-1.371068	ာ မ န	-0.630705
-0.717855	ာ မ ရ	-0.630705
-1.672098	ာ မ ာ	-0.630705
-1.672098	ာ မ ိ	-0.630705
-0.827000	ာ မ ျ	-0.630705
-1.672098	ာ မ ွ	-0.630705
-0.973128	ာ မ ှ	-0.630705
-0.477121	ာ ယ က	-0.477121
-0.954243	ာ ယ ေ	-0.477121
-0.653213	ာ ယ ်	-0.477121
-1.596597	ာ ရ </s>	-0.642355
-1.596597	ာ ရ က	-0.642355
-1.596597	ာ ရ င	-0.642355
-1.295567	ာ ရ စ	-0.642355
-1.897627	ာ ရ ဆ	-0.642355
-1.897627	ာ ရ ည	-0.642355
-1.897627	ာ ရ ဓ	-0.642355
-1.420506	ာ ရ န	-0.642355
-1.420506	ာ ရ ပ	-0.642355
-1.897627	ာ ရ ဖ	-0.642355
-1.596597	ာ ရ ရ	-0.642355
-1.897627	ာ ရ ာ	-0.642355
-1.596597	ာ ရ ိ	-0.642355
-1.198657	ာ ရ ီ	-0.642355
-1.897627	ာ ရ ု	-0.642355
-0.618873	ာ ရ ေ	-0.642355
-1.420506	ာ ရ ွ	-0.642355
-0.994537	ာ ရ ှ	-0.642355
-0.903090	ာ လ က	-0.477121
-1.380211	ာ လ ည	-0.477121
-1.079181	ာ လ မ	-0.477121
-1.079181	ာ လ ာ	-0.477121
-0.681241	ာ လ ု	-0.477121
-1.380211	ာ လ ေ	-0.477121
-1.380211	ာ လ ဲ	-0.477121
-1.380211	ာ လ ှ	-0.477121
-1.146128	ာ ဝ င	-0.845098
-0.602060	ာ ဝ န	-0.845098
-0.405765	ာ ဝ မ	-0.845098
-0.845098	ာ ဝ အ	-0.845098
-1.724276	ာ သ စ	-0.724276
-1.724276	ာ သ ည	-0.724276
-1.423246	ာ သ န	-0.724276
-1.423246	ာ သ ဖ	-0.724276
-0.770033	ာ သ ာ	-0.724276
-1.423246	ာ သ ိ	-0.724276
-0.946125	ာ သ ီ	-0.724276
-1.423246	ာ သ ု	-0.724276
-0.610333	ာ သ ေ	-0.724276
-1.025306	ာ သ ွ	-0.724276
-0.977724	ာ ဟ စ	-0.977724
-0.102662	ာ ဟ ာ	-0.977724
-1.079181	ာ အ က	-0.711204
-0.857332	ာ အ ခ	-0.711204
-1.857332	ာ အ င	-0.711204
-1.158362	ာ အ စ	-0.711204
-1.380211	ာ အ န	-0.711204
-1.556303	ာ အ ပ	-0.711204
-1.556303	ာ အ ဖ	-0.711204
-1.857332	ာ အ ရ	-0.711204
-1.857332	ာ အ ဝ	-0.711204
-1.158362	ာ အ သ	-0.711204
-1.255273	ာ အ ာ	-0.711204
-0.711204	ာ အ ိ	-0.711204
-1.556303	ာ အ ု	-0.711204
-1.556303	ာ အ ေ	-0.711204
-0.301030	ာ ဧ ည	-0.301030
-0.176091	ာ ေ ပ	-0.477121
-1.176091	ာ ့ </s>	-0.522879
-1.000000	ာ ့ ခ	-0.522879
-0.875061	ာ ့ န	-0.522879
-0.875061	ာ ့ ပ	-0.522879
-1.477121	ာ ့ ဘ	-0.522879
-1.176091	ာ ့ မ	-0.522879
-1.477121	ာ ့ လ	-0.522879
-1.176091	ာ ့ သ	-0.522879
-1.176091	ာ ့ အ	-0.522879
-1.963788	ာ း (	-1.200360
-2.060698	ာ း /	-1.200360
-0.963788	ာ း </s>	-1.200360
-2.060698	ာ း ?	-1.200360
-1.361728	ာ း က	-1.200360
-0.972562	ာ း ခ	-1.200360
-2.662758	ာ း ဂ	-1.200360
-1.516630	ာ း စ	-1.200360
-1.963788	ာ း ဆ	-1.200360
-2.662758	ာ း ဌ	-1.200360
-1.432309	ာ း တ	-1.200360
-1.432309	ာ း ထ	-1.200360
-1.884607	ာ း ဓ	-1.200360
-1.432309	ာ း န	-1.200360
-1.094556	ာ း ပ	-1.200360
-1.621365	ာ း ဖ	-1.200360
-2.662758	ာ း ဘ	-1.200360
-1.247784	ာ း မ	-1.200360
-1.759668	ာ း ယ	-1.200360
-1.548814	ာ း ရ	-1.200360
-1.247784	ာ း လ	-1.200360
-2.060698	ာ း ဝ	-1.200360
-0.922395	ာ း သ	-1.200360
-1.282547	ာ း အ	-1.200360
-2.361728	ာ း ၄	-1.200360
-2.060698	ာ း ၊	-1.200360
-2.060698	ာ း ။	-1.200360
-2.361728	ာ း ၏	-1.200360
-2.060698	ာ း →	-1.200360
-0.778151	ာ ် </s>	-0.664208
-1.778151	ာ ် က	-0.664208
-1.000000	ာ ် ခ	-0.664208
-1.477121	ာ ် စ	-0.664208
-1.778151	ာ ် ဆ	-0.664208
-1.477121	ာ ် တ	-0.664208
-1.301030	ာ ် ပ	-0.664208
-1.000000	ာ ် ဖ	-0.664208
-1.176091	ာ ် မ	-0.664208
-1.301030	ာ ် ရ	-0.664208
-1.079181	ာ ် လ	-0.664208
-1.301030	ာ ် သ	-0.664208
-1.778151	ာ ် အ	-0.664208
-0.602060	ာ ၊ စ	-0.301030
-0.602060	ာ ၊ အ	-0.301030
-0.301030	ာ ။ </s>	-0.301030
-0.124939	ာ ၏ အ	-0.602060
-0.698970	ိ က လ	-0.397940
-0.397940	ိ က ဟ	-0.397940
-0.865301	ိ ခ ိ	-0.740363
-1.041393	ိ ခ ဲ	-0.740363
-1.342423	ိ ခ ျ	-0.740363
-0.263241	ိ ခ ြ	-0.740363
-0.301030	ိ ဂ ျ	-0.301030
-0.602060	ိ စ စ	-0.301030
-0.602060	ိ စ ိ	-0.301030
-0.301030	ိ ဆ န	-0.301030
-0.062148	ိ တ ်	-1.352183
-1.051153	ိ တ ွ	-1.352183
-0.301030	ိ ထ ာ	-0.301030
-2.595496	ိ န စ	-2.470557
-2.470557	ိ န ေ	-2.470557
-0.004432	ိ န ်	-2.470557
-3.072617	ိ န ှ	-2.470557
-0.687975	ိ ပ ါ	-1.290035
-1.193125	ိ ပ ေ	-1.290035
-0.193125	ိ ပ ်	-1.290035
-1.414973	ိ ပ ြ	-1.290035
-0.255273	ိ ဘ ာ	-0.653213
-0.653213	ိ ဘ ဲ	-0.653213
-1.643453	ိ မ ည	-1.099385
-1.944483	ိ မ ရ	-1.099385
-1.166331	ိ မ ိ	-1.099385
-1.245513	ိ မ ့	-1.099385
-0.159153	ိ မ ်	-1.099385
-1.342423	ိ မ ြ	-1.099385
-1.643453	ိ မ ှ	-1.099385
-0.176091	ိ ယ ာ	-0.477121
-1.041393	ိ ရ လ	-0.439333
-1.041393	ိ ရ ာ	-0.439333
-0.740363	ိ ရ ိ	-0.439333
-0.564271	ိ ရ ှ	-0.439333
-0.301030	ိ လ စ	-0.301030
-1.322219	ိ သ ည	-0.720159
-1.021189	ိ သ ဖ	-0.720159
-0.243038	ိ သ ာ	-0.720159
-1.021189	ိ သ ွ	-0.720159
-0.698970	ိ အ စ	-0.698970
-0.221849	ိ အ ာ	-0.698970
-3.186391	ိ ု /	-1.788451
-3.186391	ိ ု </s>	-1.788451
-1.487421	ိ ု က	-1.788451
-2.283301	ိ ု ခ	-1.788451
-2.341293	ိ ု ဂ	-1.788451
-0.369487	ိ ု င	-1.788451
-2.040263	ိ ု စ	-1.788451
-2.283301	ိ ု ဆ	-1.788451
-3.186391	ိ ု ည	-1.788451
-2.408240	ိ ု တ	-1.788451
-3.186391	ိ ု ထ	-1.788451
-2.709270	ိ ု န	-1.788451
-2.408240	ိ ု ပ	-1.788451
-2.885361	ိ ု ဖ	-1.788451
-3.186391	ိ ု ဘ	-1.788451
-2.408240	ိ ု မ	-1.788451
-0.425215	ိ ု ယ	-1.788451
-2.283301	ိ ု ရ	-1.788451
-2.283301	ိ ု လ	-1.788451
-3.186391	ိ ု ဝ	-1.788451
-3.186391	ိ ု သ	-1.788451
-2.408240	ိ ု အ	-1.788451
-1.505150	ိ ု ့	-1.788451
-1.232149	ိ ု း	-1.788451
-3.186391	ိ ု ၍	-1.788451
-0.301030	ိ ူ း	-0.301030
-0.176091	ိ ၍ သ	-0.477121
-0.903090	ီ ( ပ	-0.301030
-0.903090	ီ ( မ	-0.301030
-0.903090	ီ ( ဝ	-0.301030
-0.903090	ီ ( အ	-0.301030
-0.124939	ီ ) </s>	-0.602060
-0.301030	ီ က ွ	-0.301030
-1.000000	ီ ခ တ	-0.698970
-0.455932	ီ ခ န	-0.698970
-1.000000	ီ ခ ျ	-0.698970
-0.602060	ီ ခ ြ	-0.698970
-0.291733	ီ ဂ ရ	-2.725503
-0.312204	ီ ဂ ျ	-2.725503
-1.230449	ီ စ စ	-0.628389
-1.230449	ီ စ ာ	-0.628389
-0.276206	ီ စ ီ	-0.628389
-0.929419	ီ စ ေ	-0.628389
-0.124939	ီ ဆ ေ	-0.602060
-0.903090	ီ တ စ	-1.204120
-0.090177	ီ တ ာ	-1.204120
-0.051153	ီ န ေ	-0.954243
-1.060698	ီ ပ င	-0.516630
-1.361728	ီ ပ န	-0.516630
-1.060698	ီ ပ ါ	-0.516630
-0.662758	ီ ပ ေ	-0.516630
-1.361728	ီ ပ ံ	-0.516630
-0.884607	ီ ပ ြ	-0.516630
-1.060698	ီ ပ ွ	-0.516630
-0.602060	ီ ဖ ု	-0.301030
-0.602060	ီ ဖ ြ	-0.301030
-1.146128	ီ မ ရ	-0.447158
-1.146128	ီ မ သ	-0.447158
-0.845098	ီ မ ီ	-0.447158
-0.544068	ီ မ ံ	-0.447158
-1.146128	ီ မ ှ	-0.447158
-0.301030	ီ ယ ိ	-0.301030
-1.000000	ီ ရ င	-0.698970
-0.154902	ီ ရ ဲ	-0.698970
-1.469822	ီ လ ာ	-1.168792
-1.071882	ီ လ ိ	-1.168792
-0.098754	ီ လ ီ	-1.168792
-1.770852	ီ လ ဲ	-1.168792
-0.954243	ီ သ ာ	-0.477121
-0.653213	ီ သ ိ	-0.477121
-0.477121	ီ သ ွ	-0.477121
-0.342423	ီ အ စ	-0.740363
-0.564271	ီ အ ရ	-0.740363
-1.342423	ီ အ လ	-0.740363
-1.342423	ီ အ ဝ	-0.740363
-2.243038	ီ း (	-0.881310
-2.243038	ီ း )	-0.881310
-1.942008	ီ း /	-0.881310
-1.397940	ီ း </s>	-0.881310
-1.397940	ီ း က	-0.881310
-1.339948	ီ း ခ	-0.881310
-2.243038	ီ း ဂ	-0.881310
-1.397940	ီ း စ	-0.881310
-1.464887	ီ း ဆ	-0.881310
-1.942008	ီ း ည	-0.881310
-1.163857	ီ း တ	-0.881310
-1.464887	ီ း ထ	-0.881310
-1.942008	ီ း ဒ	-0.881310
-1.544068	ီ း န	-0.881310
-0.811674	ီ း ပ	-0.881310
-1.640978	ီ း ဖ	-0.881310
-1.544068	ီ း မ	-0.881310
-1.640978	ီ း ယ	-0.881310
-1.942008	ီ း ရ	-0.881310
-1.397940	ီ း လ	-0.881310
-1.544068	ီ း ဝ	-0.881310
-1.066947	ီ း သ	-0.881310
-1.038918	ီ း အ	-0.881310
-2.706718	ီ ၊ က	-2.104658
-2.706718	ီ ၊ ဆ	-2.104658
-2.706718	ီ ၊ မ	-2.104658
-0.006014	ီ ၊ သ	-2.104658
-0.397940	ီ ။ </s>	-0.397940
-0.698970	ီ ။ ထ	-0.397940
-0.477121	ီ ၍ က	-0.477121
-0.477121	ီ ၍ ပ	-0.477121
-0.812913	ု ( d	-0.335792
-1.113943	ု ( တ	-0.335792
-1.113943	ု ( လ	-0.335792
-1.113943	ု ( အ	-0.335792
-1.113943	ု ( ၁	-0.335792
-1.113943	ု ( ၂	-0.335792
-0.602060	ု ) </s>	-0.301030
-0.602060	ု ) ၏	-0.301030
-0.301030	ု / မ	-0.301030
-1.892095	ု က စ	-0.989005
-1.591065	ု က န	-0.989005
-0.989005	ု က ိ	-0.989005
-1.113943	ု က ု	-0.989005
-1.591065	ု က ူ	-0.989005
-1.414973	ု က ေ	-0.989005
-0.229337	ု က ်	-0.989005
-1.591065	ု က ြ	-0.989005
-0.792392	ု ခ ေ	-0.889302
-0.889302	ု ခ ံ	-0.889302
-0.792392	ု ခ ျ	-0.889302
-0.377418	ု ခ ြ	-0.889302
-0.397940	ု ဂ ရ	-0.522879
-0.698970	ု ဂ ါ	-0.522879
-1.000000	ု ဂ ု	-0.522879
-0.000662	ု င ်	-2.817565
-1.311754	ု စ က	-0.767686
-1.135663	ု စ စ	-0.767686
-1.311754	ု စ ည	-0.767686
-1.135663	ု စ ိ	-0.767686
-1.612784	ု စ ီ	-0.767686
-0.408664	ု စ ု	-0.767686
-0.767686	ု စ ေ	-0.767686
-1.000000	ု ဆ က	-0.602060
-1.301030	ု ဆ ရ	-0.602060
-1.000000	ု ဆ ိ	-0.602060
-1.301030	ု ဆ ု	-0.602060
-0.346787	ု ဆ ေ	-0.602060
-0.778151	ု ည ရ	-0.301030
-0.778151	ု ည ွ	-0.301030
-0.778151	ု ည ှ	-0.301030
-0.301030	ု ဌ ာ	-0.301030
-0.176091	ု ဏ ်	-0.477121
-0.728592	ု တ င	-1.055951
-1.959041	ု တ စ	-1.055951
-1.658011	ု တ ာ	-1.055951
-1.658011	ု တ ိ	-1.055951
-1.959041	ု တ ု	-1.055951
-1.959041	ု တ ေ	-1.055951
-0.296284	ု တ ်	-1.055951
-0.845098	ု တ ွ	-1.055951
-1.204120	ု ထ ာ	-0.602060
-1.204120	ု ထ ိ	-0.602060
-0.903090	ု ထ ု	-0.602060
-0.301030	ု ထ ံ	-0.602060
-2.933993	ု န ေ	-2.632963
-2.058932	ု န ့	-2.632963
-0.007651	ု န ်	-2.632963
-2.280781	ု န ှ	-2.632963
-2.041393	ု ပ မ	-1.196295
-1.564271	ု ပ ါ	-1.196295
-2.041393	ု ပ ု	-1.196295
-1.196295	ု ပ ေ	-1.196295
-0.138303	ု ပ ်	-1.196295
-1.041393	ု ပ ြ	-1.196295
-2.041393	ု ပ ွ	-1.196295
-0.845098	ု ဖ န	-0.367977
-0.845098	ု ဖ ု	-0.367977
-0.544068	ု ဖ ြ	-0.367977
-0.176091	ု ဘ ွ	-0.477121
-1.255273	ု မ ည	-0.778151
-1.556303	ု မ ပ	-0.778151
-0.442359	ု မ ရ	-0.778151
-1.556303	ု မ ီ	-0.778151
-0.857332	ု မ ျ	-0.778151
-0.653213	ု မ ှ	-0.778151
-2.762679	ု ယ ့	-2.461649
-0.002256	ု ယ ်	-2.461649
-1.079181	ု ရ ခ	-0.602060
-1.079181	ု ရ သ	-0.602060
-1.380211	ု ရ ာ	-0.602060
-1.079181	ု ရ ီ	-0.602060
-1.079181	ု ရ ေ	-0.602060
-0.425969	ု ရ ှ	-0.602060
-1.716003	ု လ က	-0.812913
-1.414973	ု လ ည	-0.812913
-0.761761	ု လ ာ	-0.812913
-0.335792	ု လ ု	-0.812913
-1.414973	ု လ ူ	-0.812913
-1.238882	ု လ ေ	-0.812913
-1.414973	ု လ ျ	-0.812913
-1.716003	ု လ ှ	-0.812913
-0.301030	ု ဝ ေ	-0.301030
-0.744727	ု သ ခ	-0.744727
-0.920819	ု သ ည	-0.744727
-1.000000	ု သ န	-0.744727
-1.698970	ု သ ပ	-0.744727
-0.619789	ု သ မ	-0.744727
-1.397940	ု သ သ	-0.744727
-1.397940	ု သ ိ	-0.744727
-1.221849	ု သ ူ	-0.744727
-1.698970	ု သ ေ	-0.744727
-0.903090	ု အ က	-0.647817
-0.756962	ု အ ခ	-0.647817
-1.000000	ု အ စ	-0.647817
-0.903090	ု အ ဆ	-0.647817
-1.301030	ု အ တ	-0.647817
-1.301030	ု အ ပ	-0.647817
-1.301030	ု အ မ	-0.647817
-1.602060	ု အ သ	-0.647817
-1.124939	ု အ ာ	-0.647817
-2.043081	ု ံ </s>	-1.712088
-2.411058	ု ံ က	-1.712088
-2.587149	ု ံ ခ	-1.712088
-1.888179	ု ံ စ	-1.712088
-2.286120	ု ံ ဆ	-1.712088
-2.043081	ု ံ တ	-1.712088
-2.587149	ု ံ ပ	-1.712088
-1.297115	ု ံ မ	-1.712088
-2.043081	ု ံ ရ	-1.712088
-2.888179	ု ံ လ	-1.712088
-2.587149	ု ံ သ	-1.712088
-2.043081	ု ံ ့	-1.712088
-0.067322	ု ံ း	-1.712088
-2.286120	ု ံ ၁	-1.712088
-2.888179	ု ံ ၂	-1.712088
-1.079181	ု ့ ခ	-0.698970
-1.477121	ု ့ စ	-0.698970
-1.000000	ု ့ ဆ	-0.698970
-1.778151	ု ့ ည	-0.698970
-1.176091	ု ့ တ	-0.698970
-1.778151	ု ့ ထ	-0.698970
-1.477121	ု ့ န	-0.698970
-1.000000	ု ့ ပ	-0.698970
-0.664208	ု ့ မ	-0.698970
-1.176091	ု ့ ရ	-0.698970
-1.477121	ု ့ လ	-0.698970
-1.477121	ု ့ သ	-0.698970
-2.021189	ု း )	-0.845098
-1.720159	ု း </s>	-0.845098
-1.066947	ု း က	-0.845098
-0.678767	ု း ခ	-0.845098
-1.176091	ု း စ	-0.845098
-1.544068	ု း တ	-0.845098
-1.544068	ု း န	-0.845098
-1.419129	ု း ပ	-0.845098
-2.021189	ု း ဖ	-0.845098
-1.066947	ု း မ	-0.845098
-0.875061	ု း ရ	-0.845098
-2.021189	ု း ဝ	-0.845098
-1.720159	ု း သ	-0.845098
-1.021189	ု း အ	-0.845098
-1.720159	ု း ၁	-0.845098
-0.301030	ု ၊ အ	-0.301030
-0.301030	ု ၍ </s>	-0.301030
-0.124939	ု ၏ ည	-0.602060
-0.301030	ူ ) </s>	-0.301030
-0.397940	ူ က ျ	-0.397940
-0.698970	ူ က ြ	-0.397940
-0.011770	ူ ခ ျ	-2.447933
-1.635020	ူ ခ ြ	-2.447933
-0.301030	ူ စ က	-0.301030
-0.397940	ူ ဆ ိ	-0.397940
-0.698970	ူ ဆ ေ	-0.397940
-0.020203	ူ ည ီ	-1.342423
-0.698970	ူ တ စ	-0.397940
-1.000000	ူ တ ည	-0.397940
-0.698970	ူ တ ာ	-0.397940
-1.000000	ူ တ ိ	-0.397940
-0.096910	ူ ထ ေ	-0.698970
-1.190332	ူ န စ	-0.792392
-1.190332	ူ န ည	-0.792392
-0.287242	ူ န ာ	-0.792392
-1.014240	ူ န ိ	-0.792392
-1.014240	ူ န ှ	-0.792392
-0.602060	ူ ပ ိ	-0.301030
-0.602060	ူ ပ ေ	-0.301030
-0.301030	ူ ဖ တ	-0.301030
-0.124939	ူ ဘ ေ	-0.602060
-0.698970	ူ မ မ	-0.397940
-0.397940	ူ မ ျ	-0.397940
-0.778151	ူ ရ သ	-0.301030
-0.778151	ူ ရ ီ	-0.301030
-0.778151	ူ ရ ေ	-0.301030
-0.301030	ူ လ င	-0.522879
-1.000000	ူ လ ု	-0.522879
-1.000000	ူ လ ျ	-0.522879
-1.113943	ူ သ ိ	-0.414973
-0.812913	ူ သ ု	-0.414973
-1.113943	ူ သ ေ	-0.414973
-1.113943	ူ သ ံ	-0.414973
-0.636822	ူ သ ွ	-0.414973
-1.255273	ူ အ က	-0.410174
-0.954243	ူ အ ည	-0.410174
-1.255273	ူ အ ထ	-0.410174
-0.954243	ူ အ ပ	-0.410174
-0.778151	ူ အ မ	-0.410174
-1.255273	ူ အ ရ	-0.410174
-1.255273	ူ အ ိ	-0.410174
-1.361728	ူ း က	-0.458638
-1.060698	ူ း ခ	-0.458638
-0.583577	ူ း စ	-0.458638
-1.361728	ူ း ဆ	-0.458638
-1.361728	ူ း မ	-0.458638
-1.361728	ူ း ယ	-0.458638
-1.361728	ူ း သ	-0.458638
-1.060698	ူ း အ	-0.458638
-0.602060	ေ ( စ	-0.301030
-0.602060	ေ ( အ	-0.301030
-0.176091	ေ ) </s>	-0.477121
-1.113943	ေ က အ	-0.511883
-1.113943	ေ က ာ	-0.511883
-0.414973	ေ က ိ	-0.511883
-0.812913	ေ က ေ	-0.511883
-1.255273	ေ ခ ခ	-0.778151
-1.556303	ေ ခ အ	-0.778151
-1.255273	ေ ခ ဲ	-0.778151
-1.556303	ေ ခ ံ	-0.778151
-0.325854	ေ ခ ျ	-0.778151
-0.711204	ေ ခ ြ	-0.778151
-0.602060	ေ စ စ	-0.425969
-0.602060	ေ စ ဉ	-0.425969
-0.903090	ေ စ ာ	-0.425969
-0.602060	ေ ဆ က	-0.301030
-0.602060	ေ ဆ ေ	-0.301030
-0.653213	ေ တ ိ	-0.477121
-0.653213	ေ တ ္	-0.477121
-0.653213	ေ တ ွ	-0.477121
-1.176091	ေ ထ ာ	-0.574031
-0.574031	ေ ထ ိ	-0.574031
-0.574031	ေ ထ ေ	-0.574031
-0.875061	ေ ထ ွ	-0.574031
-0.301030	ေ ဒ ီ	-0.301030
-0.636822	ေ ဓ ါ	-0.812913
-0.210853	ေ ဓ ာ	-0.812913
-0.653213	ေ န ပ	-0.477121
-0.954243	ေ န ီ	-0.477121
-0.477121	ေ န ွ	-0.477121
-0.954243	ေ ပ တ	-0.750123
-1.352183	ေ ပ န	-0.750123
-1.051153	ေ ပ ါ	-0.750123
-1.352183	ေ ပ ိ	-0.750123
-1.352183	ေ ပ ု	-0.750123
-1.176091	ေ ပ ေ	-0.750123
-0.397940	ေ ပ ြ	-0.750123
-1.653213	ေ ပ ွ	-0.750123
-0.698970	ေ ဖ ိ	-0.397940
-0.397940	ေ ဖ ြ	-0.397940
-0.301030	ေ ဘ ာ	-0.301030
-0.740363	ေ မ ု	-0.564271
-0.439333	ေ မ ျ	-0.564271
-0.740363	ေ မ ှ	-0.564271
-0.231949	ေ ရ ာ	-0.985277
-1.462398	ေ ရ ွ	-0.985277
-0.559308	ေ ရ ှ	-0.985277
-0.698970	ေ လ ာ	-0.522879
-0.698970	ေ လ ဲ	-0.522879
-0.522879	ေ လ ှ	-0.522879
-0.602060	ေ ဝ င	-0.301030
-0.602060	ေ ဝ ဲ	-0.301030
-1.176091	ေ သ က	-0.632023
-0.875061	ေ သ ည	-0.632023
-1.477121	ေ သ တ	-0.632023
-0.875061	ေ သ န	-0.632023
-0.574031	ေ သ ဖ	-0.632023
-1.477121	ေ သ ဘ	-0.632023
-1.000000	ေ သ ေ	-0.632023
-0.301030	ေ ဟ န	-0.602060
-0.602060	ေ ဟ ာ	-0.602060
-1.183270	ေ အ က	-0.882240
-1.785330	ေ အ စ	-0.882240
-1.308209	ေ အ တ	-0.882240
-1.007179	ေ အ ထ	-0.882240
-0.266816	ေ အ န	-0.882240
-1.785330	ေ အ လ	-0.882240
-1.308209	ေ အ ာ	-0.882240
-1.484300	ေ အ ေ	-0.882240
-0.301030	ေ ဦ း	-0.301030
-2.195900	ေ ါ က	-2.320838
-0.027108	ေ ါ င	-2.320838
-1.306598	ေ ါ ်	-2.320838
-3.012415	ေ ာ (	-1.690196
-2.711385	ေ ာ )	-1.690196
-1.711385	ေ ာ </s>	-1.690196
-0.205557	ေ ာ က	-1.690196
-2.234264	ေ ာ ခ	-1.690196
-2.313445	ေ ာ ဂ	-1.690196
-0.745244	ေ ာ င	-1.690196
-2.058173	ေ ာ ဆ	-1.690196
-2.313445	ေ ာ တ	-1.690196
-3.012415	ေ ာ ထ	-1.690196
-1.550017	ေ ာ ပ	-1.690196
-2.313445	ေ ာ မ	-1.690196
-3.012415	ေ ာ ယ	-1.690196
-3.012415	ေ ာ ရ	-1.690196
-2.711385	ေ ာ လ	-1.690196
-2.058173	ေ ာ ဝ	-1.690196
-2.410355	ေ ာ သ	-1.690196
-1.836324	ေ ာ အ	-1.690196
-1.733662	ေ ာ ့	-1.690196
-1.340318	ေ ာ ်	-1.690196
-3.012415	ေ ာ ၊	-1.690196
-1.556303	ေ ့ </s>	-0.887296
-0.542062	ေ ့ က	-0.887296
-1.732394	ေ ့ ခ	-0.887296
-1.732394	ေ ့ စ	-0.887296
-1.431364	ေ ့ ဆ	-0.887296
-2.033424	ေ ့ ဌ	-0.887296
-1.732394	ေ ့ န	-0.887296
-0.954243	ေ ့ ပ	-0.887296
-1.732394	ေ ့ မ	-0.887296
-0.954243	ေ ့ ရ	-0.887296
-0.954243	ေ ့ လ	-0.887296
-2.033424	ေ ့ သ	-0.887296
-1.079181	ေ ့ အ	-0.887296
-2.033424	ေ ့ ျ	-0.887296
-2.964731	ေ း )	-1.622308
-1.642512	ေ း </s>	-1.622308
-1.818603	ေ း က	-1.622308
-1.119633	ေ း ခ	-1.622308
-2.487610	ေ း င	-1.622308
-1.473369	ေ း စ	-1.622308
-2.061641	ေ း ဆ	-1.622308
-1.818603	ေ း တ	-1.622308
-1.584520	ေ း ထ	-1.622308
-2.487610	ေ း ဓ	-1.622308
-1.964731	ေ း န	-1.622308
-0.182258	ေ း ပ	-1.622308
-2.010488	ေ း ဖ	-1.622308
-2.964731	ေ း ဘ	-1.622308
-1.533367	ေ း မ	-1.622308
-2.964731	ေ း ယ	-1.622308
-1.642512	ေ း ရ	-1.622308
-2.186580	ေ း လ	-1.622308
-2.265761	ေ း ဝ	-1.622308
-1.818603	ေ း သ	-1.622308
-1.964731	ေ း အ	-1.622308
-2.964731	ေ း ဦ	-1.622308
-0.698970	ေ ၁ ၀	-0.397940
-0.397940	ေ ၁ ၅	-0.397940
-0.602060	ေ ၂ ၀	-0.301030
-0.602060	ေ ၂ ၅	-0.301030
-0.602060	ေ ၃ ၀	-0.301030
-0.602060	ေ ၃ ၅	-0.301030
-0.602060	ေ ၄ ၀	-0.301030
-0.602060	ေ ၄ ၅	-0.301030
-0.176091	ေ ၅ ၀	-0.477121
-0.176091	ေ ၍ လ	-0.477121
-0.301030	ဲ / အ	-0.301030
-0.096910	ဲ ? </s>	-0.698970
-0.079181	ဲ က ျ	-0.778151
-1.322219	ဲ ခ င	-1.021189
-0.066947	ဲ ခ ြ	-1.021189
-0.176091	ဲ ဂ ု	-0.477121
-0.778151	ဲ စ ာ	-0.301030
-0.778151	ဲ စ ိ	-0.301030
-0.778151	ဲ စ ေ	-0.301030
-0.176091	ဲ ဆ ီ	-0.477121
-0.698970	ဲ တ မ	-0.823909
-0.301030	ဲ တ ေ	-0.823909
-0.823909	ဲ တ ွ	-0.823909
-0.096910	ဲ ထ ာ	-0.698970
-0.301030	ဲ န ေ	-0.477121
-0.778151	ဲ န ှ	-0.477121
-0.574031	ဲ ပ ေ	-0.698970
-0.875061	ဲ ပ ျ	-0.698970
-0.397940	ဲ ပ ြ	-0.698970
-0.066947	ဲ ဖ ြ	-0.845098
-1.041393	ဲ မ ျ	-0.740363
-0.138303	ဲ မ ှ	-0.740363
-0.602060	ဲ ရ သ	-0.301030
-0.602060	ဲ ရ ှ	-0.301030
-1.161368	ဲ လ ာ	-0.860338
-1.462398	ဲ လ ဲ	-0.860338
-0.985277	ဲ လ ျ	-0.860338
-0.183644	ဲ လ ှ	-0.860338
-0.698970	ဲ သ ည	-0.574031
-0.698970	ဲ သ လ	-0.574031
-0.574031	ဲ သ ေ	-0.574031
-1.176091	ဲ သ ွ	-0.574031
-0.875061	ဲ အ က	-0.397940
-1.176091	ဲ အ စ	-0.397940
-0.875061	ဲ အ ဖ	-0.397940
-0.875061	ဲ အ ရ	-0.397940
-1.176091	ဲ အ ဝ	-0.397940
-1.176091	ဲ အ ု	-0.397940
-0.072958	ဲ ့ ပ	-1.509650
-1.384712	ဲ ့ သ	-1.509650
-1.083682	ဲ ့ အ	-1.509650
-0.301030	ဲ ၊ အ	-0.301030
-0.124939	ဲ ။ </s>	-0.602060
-0.301030	ဵ အ ခ	-0.301030
-0.301030	ဵ ၍ စ	-0.301030
-0.301030	ံ ) </s>	-0.301030
-0.778151	ံ က ာ	-0.477121
-0.778151	ံ က ိ	-0.477121
-0.602060	ံ က ျ	-0.477121
-1.079181	ံ က ြ	-0.477121
-0.726999	ံ ခ န	-0.726999
-0.602060	ံ ခ ျ	-0.726999
-0.425969	ံ ခ ြ	-0.726999
-0.301030	ံ ဂ ျ	-0.301030
-0.823909	ံ စ က	-0.698970
-0.823909	ံ စ ာ	-0.698970
-1.301030	ံ စ ီ	-0.698970
-0.346787	ံ စ ံ	-0.698970
-0.096910	ံ ဆ င	-0.698970
-0.684247	ံ တ က	-0.860338
-1.161368	ံ တ င	-0.860338
-1.462398	ံ တ ရ	-0.860338
-0.258278	ံ တ ွ	-0.860338
-0.301030	ံ ထ ု	-0.301030
-0.124939	ံ ဒ ီ	-0.602060
-0.301030	ံ န က	-0.301030
-0.544068	ံ ပ င	-0.544068
-1.146128	ံ ပ န	-0.544068
-0.669007	ံ ပ ါ	-0.544068
